{
  "name": "Handwritten Digits Classification",
  "neuronCounts": [
    400,
    25,
    10
  ],
  "hiddenLayers": [
    {
      "inputs": 400,
      "outputs": 25,
      "bias": [
        -0.332433879,
        -1.12677383,
        -0.04206251,
        -1.09490728,
        -0.24252598,
        0.193506151,
        -1.56640053,
        0.7242084,
        -1.35295665,
        -1.17163289,
        -1.09248829,
        -0.5675627,
        -0.7758618,
        -2.65890121,
        -1.448472,
        -2.87257481,
        -0.172373369,
        -0.44800213,
        -0.6225824,
        -1.16526806,
        -0.17500414,
        -0.9309506,
        -0.8080376,
        -1.06747854,
        -2.0616312
      ],
      "weights": [
        -0.403551251,
        -0.210953757,
        0.2582566,
        0.44804588,
        0.443609953,
        -0.109966055,
        0.3387211,
        -0.209075168,
        0.317222774,
        0.359865129,
        -0.108264789,
        0.09713863,
        -0.444054931,
        -0.05490566,
        -0.9689205,
        0.3964131,
        -0.185712427,
        0.3107079,
        -0.3226738,
        -0.443505079,
        -0.0125557929,
        -0.231243685,
        0.03911471,
        0.292857677,
        0.146048665,
        -0.179372326,
        1.01238465,
        -0.0383967459,
        -0.441424549,
        -0.3577301,
        0.0527735129,
        -0.4225974,
        0.271270782,
        0.257516742,
        0.290708572,
        -0.510659158,
        0.4039009,
        0.0192448962,
        0.268587977,
        0.0105425445,
        0.03053719,
        -0.207494989,
        -0.2654534,
        -0.196494117,
        -0.0037987656,
        -0.2234913,
        -0.167449072,
        -0.6440424,
        0.109612755,
        -0.386203527,
        0.283045858,
        0.217264473,
        0.118915237,
        0.0388250761,
        -0.386995167,
        0.368989736,
        -0.33062017,
        0.6355698,
        -0.354552478,
        0.159620345,
        0.0108699463,
        0.4240216,
        0.153841645,
        -0.07665219,
        0.5353457,
        0.118765719,
        -0.02235328,
        0.185781419,
        -0.291582584,
        0.4239535,
        0.211769447,
        0.060172122,
        0.9634084,
        -0.0158754475,
        0.461865157,
        -0.224893242,
        -0.0351722352,
        -0.124419078,
        -0.164264321,
        -0.08688134,
        -0.07836819,
        0.20911698,
        0.3879822,
        -0.7734945,
        0.008831951,
        0.246278882,
        0.370123565,
        -0.10500025,
        0.3017168,
        0.109886259,
        -0.1895497,
        -0.4537114,
        0.131608665,
        -0.197491631,
        0.209450349,
        0.2529119,
        -0.187252477,
        0.0776744261,
        0.832511246,
        0.1406701,
        -0.2847601,
        0.0281751584,
        0.139684513,
        0.07092066,
        0.263591617,
        -0.260688871,
        -0.082275115,
        -0.0412354022,
        0.58289057,
        -0.229596987,
        -0.458513975,
        -0.014323594,
        -0.279511362,
        0.09045012,
        0.4563585,
        0.430045217,
        -0.5448155,
        0.3795598,
        0.65623486,
        0.279008031,
        -0.129263431,
        0.165250018,
        -0.223492756,
        -0.5486459,
        -0.363392085,
        0.206868425,
        -0.6924405,
        -0.0782230347,
        -0.393522829,
        0.127901763,
        -0.580907345,
        0.338707179,
        0.1899878,
        -0.223833665,
        0.620305359,
        -0.154305682,
        -0.0277039539,
        0.128281668,
        -0.3340073,
        -0.2037404,
        0.3571042,
        0.07775189,
        0.0213106424,
        -0.07105821,
        -0.312314957,
        0.1587912,
        -0.141976565,
        -0.06382617,
        -0.030095024,
        -0.203165919,
        -0.641327858,
        0.0775938258,
        -0.150089338,
        -0.332758039,
        0.143914863,
        0.641953349,
        0.0128024276,
        0.178325519,
        0.234013334,
        0.124506235,
        0.178315878,
        0.4964898,
        0.4595315,
        -0.444158375,
        0.441775233,
        -0.491680264,
        -0.4319536,
        0.3143915,
        0.0829034746,
        -0.353144944,
        0.197182268,
        -0.2750782,
        0.0171361957,
        -0.1975406,
        -0.198448315,
        -0.0944429338,
        0.543730557,
        -0.408479124,
        0.116416134,
        0.281308562,
        0.03047728,
        -0.116006292,
        0.45110926,
        -0.194286749,
        0.05012374,
        -0.1252313,
        -0.164943308,
        -0.3176302,
        -0.226733938,
        0.470780432,
        0.049740728,
        0.4715813,
        -0.5901337,
        -0.4641931,
        0.882541358,
        -0.292239636,
        -0.0492841862,
        -0.4217648,
        0.133424625,
        -0.162962392,
        0.806960464,
        0.01570864,
        0.363206863,
        0.152603522,
        0.348379821,
        0.06345124,
        0.391738176,
        0.266324371,
        0.280640841,
        0.343482047,
        0.282501072,
        -0.2995886,
        0.28139627,
        -0.105920069,
        -0.6259033,
        0.097184,
        0.446577132,
        0.08813029,
        -0.370676458,
        0.18741557,
        0.107950665,
        -0.262369,
        -0.325769633,
        -0.436848283,
        0.04158319,
        -0.0264767148,
        0.446388841,
        0.03005392,
        0.94785,
        -0.760721,
        -0.2738032,
        -0.023038378,
        -0.187072128,
        -0.5361243,
        0.021827748,
        -0.18862839,
        -0.236379117,
        0.19047083,
        -0.09028243,
        0.06706053,
        -0.236478627,
        0.136809424,
        0.0491878,
        -0.4970996,
        -0.228410542,
        -0.418797433,
        0.260862142,
        0.162413523,
        -0.5582871,
        0.210208908,
        0.165329918,
        0.3539906,
        -0.2021604,
        -0.44909,
        -0.174167275,
        -0.142814323,
        0.304633856,
        -0.400889456,
        0.378278047,
        0.126823753,
        0.261488974,
        -0.211456791,
        -0.0526870862,
        -0.155045465,
        -0.383326232,
        -0.7444823,
        0.0105404044,
        0.2262328,
        -0.2505037,
        0.03646123,
        -0.228543356,
        0.238538116,
        0.5230448,
        0.2746414,
        -0.598960757,
        0.320890158,
        -0.0656384155,
        -1.0302465,
        -0.0855169445,
        0.397396266,
        0.484529465,
        0.200878426,
        -0.192142725,
        -0.104786344,
        -0.06619715,
        0.292280525,
        0.0748288855,
        0.426231861,
        -0.09482961,
        0.07165269,
        -0.08218103,
        0.174558833,
        -0.0517456643,
        0.24730514,
        0.2371498,
        -0.5733933,
        0.484502852,
        0.101444222,
        -0.0451377742,
        0.309821874,
        0.282397717,
        0.446726739,
        -0.121204041,
        0.298052549,
        -0.136921614,
        0.0999046341,
        0.315734446,
        0.0601919554,
        0.439096361,
        -0.190465569,
        0.008928278,
        0.568714559,
        -0.206272915,
        -0.4718865,
        -0.5620001,
        -0.707970262,
        -0.03662977,
        0.4958057,
        -0.4399336,
        -0.120547988,
        -0.08801575,
        0.00523654232,
        -0.26264596,
        -0.282750726,
        -0.358301669,
        0.147372514,
        0.329943776,
        -0.297246,
        0.5648008,
        -0.12796995,
        -0.0911159739,
        0.397153616,
        -0.5082201,
        0.420681357,
        0.08361779,
        0.427617818,
        0.08076569,
        -0.8425642,
        -0.07895662,
        0.147757381,
        -0.3475467,
        -0.53510803,
        0.8633891,
        -0.2752325,
        0.147074685,
        -0.535997152,
        0.158472538,
        0.198371336,
        -0.402520359,
        0.4913315,
        0.527239859,
        -0.0418060124,
        -0.029164983,
        0.6211572,
        0.556643844,
        -0.480842084,
        0.007306406,
        -0.420689255,
        -0.7091311,
        0.4864413,
        -0.381319523,
        -0.874909341,
        -0.157283068,
        -0.391753346,
        0.4111342,
        -0.269516468,
        0.0836097,
        0.08159014,
        -0.2351436,
        0.017132109,
        -0.8823679,
        -0.195541784,
        0.01925681,
        -0.444807947,
        0.03314367,
        -0.263899326,
        0.05519987,
        0.137911052,
        -0.45932734,
        0.427939862,
        0.17067115,
        -0.4129465,
        -0.06115595,
        -0.08319463,
        -0.00708005531,
        0.4256742,
        -0.1806765,
        0.262141973,
        -0.168515787,
        -0.830168664,
        0.372121245,
        -0.220770612,
        -0.0504954271,
        -0.447738618,
        0.0252635516,
        0.0878399462,
        0.155112833,
        -0.231325373,
        -0.08357222,
        -0.16680561,
        0.2438769,
        -0.416666716,
        0.134839132,
        0.139881849,
        0.1412721,
        -0.1459711,
        0.257170558,
        0.08375112,
        0.121782042,
        -0.500862837,
        0.191507876,
        -0.306322277,
        0.4780498,
        -0.291505754,
        -0.17424044,
        0.589479148,
        -0.192754433,
        -0.199184686,
        0.507627249,
        -0.0650993362,
        -0.08065426,
        -0.551907063,
        0.281072468,
        -0.17554833,
        0.5067995,
        -0.146208227,
        0.034095604,
        0.190807357,
        0.0446904376,
        -0.627659857,
        -0.2893643,
        0.2218644,
        -0.1516203,
        0.273610115,
        0.05097285,
        -0.236681312,
        -0.6712751,
        -0.121867128,
        0.167485774,
        0.7502606,
        0.217503563,
        -0.71643585,
        0.349905,
        0.122952044,
        -0.157885909,
        -0.052066233,
        -0.15383929,
        0.234804377,
        -0.3947758,
        0.111341774,
        -0.2696393,
        -0.191221163,
        -0.173061043,
        0.7589143,
        -0.132227823,
        0.538707137,
        0.60445714,
        -0.2862532,
        -0.2739729,
        0.173732668,
        0.093701,
        -0.264164776,
        0.03236503,
        0.0288026966,
        0.00469065271,
        0.05152552,
        0.217475221,
        -0.292229921,
        0.486974746,
        -0.19907546,
        0.0299885683,
        0.177948222,
        -0.0228193067,
        -0.007016472,
        0.11274042,
        0.05490337,
        0.386688918,
        -0.405222833,
        0.538828433,
        -0.5323348,
        0.226879686,
        0.87553376,
        0.04785219,
        -0.0623036474,
        -0.04389193,
        0.428279757,
        0.291918159,
        0.3214078,
        0.129273385,
        -0.208916262,
        -0.2950192,
        -0.916067064,
        0.467569977,
        0.215220571,
        -0.0140238572,
        -0.4381752,
        0.0139142117,
        -0.266237885,
        -0.216865957,
        -0.009151316,
        0.407191843,
        0.006156846,
        -0.135258287,
        0.4136934,
        0.4605766,
        0.184859082,
        -0.140691251,
        -0.136123046,
        -0.5434949,
        0.115563363,
        -0.344784945,
        0.253083676,
        0.0306588151,
        0.0974372849,
        -0.411974221,
        0.1532601,
        0.06288065,
        0.112657458,
        0.166470245,
        0.315301746,
        -0.244361058,
        0.244252369,
        0.5833418,
        0.2684034,
        0.323287547,
        -0.5555138,
        0.08736207,
        0.5295708,
        0.288802683,
        0.164127126,
        0.480832964,
        0.0426146761,
        -0.037317358,
        -0.115692653,
        0.3486599,
        -0.306733,
        0.437520444,
        0.319062948,
        0.7331778,
        0.491823852,
        0.16638726,
        0.008327934,
        -0.482218444,
        0.191148162,
        -0.162576854,
        -0.449006855,
        -0.04310296,
        -0.07402519,
        0.155471072,
        0.1511316,
        -0.47969082,
        -0.0966798738,
        -0.225776449,
        -0.04705272,
        -0.6524882,
        0.244079381,
        0.340971619,
        0.2736643,
        -0.5459141,
        0.379465431,
        -0.0748554,
        0.112071887,
        0.37098062,
        0.06461896,
        -0.385525584,
        0.2873245,
        0.138013959,
        0.08852694,
        -0.728073239,
        0.2672949,
        0.470176369,
        0.138664365,
        -0.0763793141,
        -0.460669637,
        0.382748663,
        0.210634172,
        -0.0235793982,
        0.320314825,
        -0.338082343,
        0.6967699,
        -0.345656425,
        -0.21978648,
        -0.4366147,
        0.00363684352,
        0.4666959,
        -0.3065677,
        -0.074815996,
        -0.149983019,
        -0.147807568,
        -0.342975825,
        0.172316372,
        0.238410488,
        0.185385838,
        0.0298199356,
        -0.239532515,
        0.640553534,
        0.2225882,
        0.448121518,
        -0.324218065,
        0.0495008752,
        0.122165784,
        -0.467387468,
        0.423211157,
        0.09950509,
        -0.00271148025,
        -0.0179647785,
        0.231802374,
        -0.430217981,
        0.0107594952,
        -0.3082744,
        -0.309710354,
        0.832899332,
        0.0744596347,
        0.339856356,
        0.353733063,
        0.3135429,
        -0.321247667,
        -0.252312928,
        -0.136518165,
        -0.609556437,
        -0.195286,
        -0.172853455,
        -0.177115858,
        -0.839778662,
        -0.07521804,
        0.5074367,
        0.000869074254,
        -0.0415091738,
        0.595046759,
        -0.7740608,
        -0.4227834,
        0.170299858,
        0.268347919,
        -0.00126346247,
        0.117416747,
        0.598912835,
        0.4385256,
        -0.4351932,
        1.168199,
        0.0509699471,
        -0.136639372,
        0.2778838,
        -0.2944167,
        0.07178533,
        -0.190852538,
        0.9313839,
        -0.07332616,
        0.169222668,
        0.0281498432,
        0.4394416,
        -0.189192086,
        -0.1005975,
        -0.133275211,
        0.02924377,
        0.04518711,
        0.375081122,
        0.645295,
        0.023297457,
        0.0120423445,
        -0.113067083,
        -0.0300435051,
        0.113351122,
        0.141609088,
        -0.0525114052,
        -0.0112441778,
        -0.128709987,
        0.215331569,
        -0.0268556345,
        0.526619,
        0.311545581,
        0.2536185,
        -0.06518849,
        0.03723883,
        0.6757125,
        -0.0189634841,
        0.245150268,
        0.4959206,
        0.503689051,
        0.362197518,
        0.18693842,
        0.162654892,
        0.190449536,
        -0.180314943,
        -0.181998789,
        -0.5112933,
        0.0330411419,
        0.8039001,
        -0.0494134948,
        0.324994832,
        -0.474039435,
        0.225835428,
        0.109471254,
        -0.332569629,
        0.370139748,
        -0.009701849,
        -0.460100383,
        -0.259734124,
        0.09911498,
        -0.1276174,
        -0.0669707,
        -0.12233866,
        -0.6196539,
        0.36606732,
        0.0151738776,
        -0.62338084,
        -0.474263817,
        -0.112529755,
        -0.154576614,
        0.5557942,
        -0.350163251,
        -0.582581043,
        -0.124529861,
        0.40620935,
        -0.152950361,
        0.315409482,
        -0.334614,
        -0.460838675,
        -0.371019483,
        -0.2611532,
        0.402751446,
        -0.434787273,
        -0.6884649,
        0.0232671071,
        -0.5022533,
        0.558845758,
        0.07741284,
        -0.132853717,
        -0.0525616743,
        0.09665912,
        -0.303680241,
        0.29667756,
        -0.0493161,
        -0.0418562554,
        0.1767808,
        0.632821858,
        -0.0848121941,
        0.144394264,
        0.5990385,
        -0.749363661,
        -0.215658739,
        -0.570453763,
        -0.7264433,
        -0.173891082,
        0.193064839,
        0.104000866,
        -0.21776554,
        -0.5003398,
        0.433091938,
        -0.4181127,
        0.172125459,
        -0.1583116,
        -0.0317391641,
        -0.0355348,
        0.103268638,
        0.305053055,
        0.175528854,
        -0.0610376857,
        -0.6216899,
        0.466201544,
        -0.323219031,
        -0.176834077,
        -0.385106474,
        0.118042491,
        0.104135387,
        0.310482323,
        -0.251321375,
        -0.2759483,
        0.0303604733,
        -0.08613466,
        -0.07938383,
        0.03414862,
        0.210711017,
        -0.743391633,
        0.005014391,
        0.256665,
        0.6784793,
        0.4234167,
        -0.5531137,
        -0.04927071,
        -0.328350723,
        -0.610288858,
        -0.3890463,
        0.203314513,
        0.4340194,
        -0.245754421,
        -0.1193433,
        0.255511671,
        0.277575463,
        0.232073009,
        0.721738458,
        0.012325801,
        0.38432613,
        0.300251245,
        -0.0835696459,
        0.336698979,
        -0.541241944,
        0.666502059,
        0.272756279,
        0.0358027555,
        -0.03771342,
        0.0562252551,
        0.549711764,
        -0.271027476,
        -0.6860444,
        0.3647484,
        -0.4671128,
        0.1314642,
        -0.48783794,
        -0.448219746,
        0.128398389,
        -0.03726764,
        0.2501335,
        0.49794966,
        -0.0567936637,
        -0.238478,
        1.11796772,
        0.3289545,
        -0.169674426,
        0.2631197,
        0.854221344,
        0.309446,
        -0.2024955,
        -0.315830022,
        -0.06436235,
        0.1170213,
        0.5236545,
        0.0256301537,
        -0.230425343,
        0.4755367,
        -0.588656545,
        0.186282635,
        0.381729484,
        -0.181840524,
        -0.491464823,
        -0.08062444,
        -0.0345416032,
        0.367747575,
        0.184110433,
        0.194662139,
        0.107944943,
        0.2752586,
        -0.246640682,
        0.11537569,
        -0.5057635,
        -0.007651233,
        0.230752438,
        0.565829158,
        -0.933460355,
        0.153049678,
        -0.663448036,
        -0.169781685,
        -0.152701482,
        0.6391895,
        -0.198278323,
        -0.1643572,
        -0.06139562,
        -0.55775404,
        -0.4120238,
        0.292679727,
        0.184050888,
        -0.277773321,
        0.0695926547,
        -0.241401523,
        -0.310373336,
        0.490297765,
        0.130366072,
        0.22025089,
        0.218202114,
        -0.503991663,
        -0.5903814,
        0.04028306,
        0.167670324,
        0.008215166,
        -0.6994913,
        0.4051852,
        0.572334766,
        0.329154044,
        0.6364556,
        0.04905379,
        -0.0432619527,
        -0.06301073,
        -0.08847364,
        -0.202583417,
        0.307901055,
        0.150382817,
        0.004188043,
        -0.502004147,
        -0.4829966,
        -0.07112003,
        0.3727684,
        -0.3735092,
        0.05913509,
        0.242086023,
        -0.481191456,
        0.247759357,
        0.365719616,
        0.0273198541,
        -0.213951081,
        -0.0286250561,
        -0.735629141,
        0.3738118,
        -0.0982477739,
        0.3213244,
        0.205298334,
        0.103934221,
        0.72053194,
        -0.002764402,
        -0.0662819147,
        0.548631668,
        -0.612774134,
        0.0355529562,
        -0.174116135,
        0.09272593,
        0.7390652,
        -0.0142190754,
        0.265358657,
        -0.310394168,
        -1.05557251,
        -0.199934572,
        -0.161544725,
        -0.288574278,
        -0.361867875,
        -0.5003842,
        0.36632514,
        0.3108676,
        0.0515395366,
        0.389263034,
        0.3406376,
        0.161704376,
        0.125963613,
        -0.09256999,
        -0.3242804,
        -0.198476762,
        -0.3893274,
        -0.46200037,
        0.444144279,
        0.354471624,
        -0.2406627,
        0.0410342142,
        0.408821046,
        -0.147110984,
        0.131934285,
        -0.828091264,
        -0.0148618575,
        -0.4549259,
        0.160373956,
        0.3284768,
        -0.14793396,
        -0.259987861,
        0.106034383,
        0.0316586532,
        0.116893671,
        -0.200817287,
        -0.146020964,
        -0.3636399,
        -0.18715857,
        -0.23224473,
        0.48433888,
        0.0750875548,
        0.3816571,
        0.007473238,
        -0.38476938,
        -0.004736292,
        0.0501255766,
        0.614026845,
        -0.0341764167,
        -0.02418572,
        -0.288464665,
        -0.185980752,
        -0.165967837,
        -0.0843062848,
        -0.56721276,
        0.5185008,
        -0.489720881,
        -0.463483185,
        0.3025861,
        -0.206218958,
        0.09236448,
        0.455701321,
        -0.6039218,
        -0.0221117176,
        0.6137998,
        0.413231134,
        -0.08285539,
        0.063559,
        -0.294091374,
        0.5128076,
        0.145882532,
        0.0184981041,
        0.2111355,
        -0.02009179,
        0.639063656,
        0.00104448281,
        -0.242430523,
        0.479414284,
        -0.149595648,
        0.320844442,
        -0.3189608,
        0.1850455,
        -0.324751228,
        -0.194509953,
        0.399392515,
        0.2594371,
        -0.08710078,
        -0.5539736,
        0.332521558,
        0.693874061,
        0.0546053723,
        -0.351423949,
        -0.253343731,
        0.3026835,
        0.06560084,
        0.5632979,
        -0.130663514,
        0.326417446,
        -0.05822095,
        0.139851764,
        0.3277592,
        0.08474533,
        0.457666665,
        0.3190293,
        0.397972733,
        -0.4304072,
        -0.39506492,
        0.2312793,
        -0.157381162,
        -0.158003867,
        0.237937585,
        0.0553777926,
        0.0248887651,
        -0.09313273,
        0.3244625,
        -0.129849821,
        -0.17949453,
        0.5802119,
        -0.08404154,
        -0.4771096,
        -0.347424358,
        0.27219376,
        0.397342771,
        0.08674334,
        -0.5233494,
        -0.0672398955,
        0.140517,
        -0.383255333,
        -0.0405857563,
        -0.08846647,
        -0.568799138,
        -0.1902828,
        -0.2362021,
        0.493856251,
        -0.180420384,
        -0.465541661,
        -0.20985499,
        -0.177419618,
        -0.378400981,
        -0.079507865,
        0.0973334238,
        0.133058071,
        0.0621899366,
        -0.263437748,
        0.225599587,
        0.190787,
        -0.303509265,
        0.0510025769,
        -0.457957059,
        0.139569342,
        -0.20349054,
        0.09957295,
        -0.230677,
        0.015625935,
        -0.14191632,
        0.0352266,
        0.2486185,
        -0.14591229,
        0.4610048,
        -0.144095749,
        0.08804562,
        0.09201897,
        0.17558822,
        -0.3573394,
        0.0103901094,
        -0.0817098543,
        0.5008891,
        0.122883342,
        0.133370712,
        -0.1492378,
        0.0143789947,
        0.100892253,
        -0.0539951436,
        -0.5137388,
        -0.407893628,
        -0.0499870144,
        0.306837469,
        -0.441876858,
        0.374203742,
        0.222505659,
        -0.344077617,
        0.333868533,
        -0.165542141,
        0.25208196,
        -0.458016962,
        -0.0422024652,
        -0.392077237,
        0.0381624363,
        0.107841216,
        -0.172716916,
        0.734759331,
        -0.240048364,
        -0.05252739,
        -0.0298780836,
        0.143260062,
        -0.1256364,
        0.219616443,
        0.43376,
        0.137212813,
        -0.461788446,
        -0.668215752,
        0.164674446,
        -0.411987633,
        -0.0474138856,
        -0.220663771,
        -0.0332022943,
        0.08521108,
        0.125918314,
        -0.27378267,
        -0.0102768494,
        0.151786491,
        -0.413254917,
        0.3904397,
        0.0169472061,
        -0.24751322,
        -0.0222188514,
        -0.646315753,
        0.1383442,
        -0.009343614,
        0.5242698,
        -0.127406731,
        -0.168694943,
        0.3845175,
        -0.165911138,
        0.171394557,
        0.0101561863,
        -0.165056825,
        -0.3900236,
        -0.4466955,
        0.615977466,
        0.0298679117,
        0.571677268,
        -0.800775,
        0.2886315,
        -0.3949485,
        -0.109926522,
        -0.394736648,
        0.299439281,
        -0.438433826,
        0.07777364,
        -0.219747022,
        0.253542244,
        0.7397319,
        -0.332358479,
        0.0164390039,
        -0.218147129,
        0.105742782,
        0.230276182,
        -0.1389048,
        -0.0915452838,
        -0.3834687,
        -0.0130783124,
        0.09573265,
        0.4599099,
        -0.26888448,
        0.153848112,
        0.263068378,
        0.07824196,
        -0.323818326,
        0.3142398,
        -0.101173118,
        0.180052966,
        -0.0444199145,
        -0.7835505,
        -0.440926343,
        -0.4439835,
        -0.118638694,
        -0.331982642,
        0.227886155,
        0.409959227,
        -0.4455779,
        0.135821715,
        0.0802218542,
        0.06038766,
        0.01982457,
        -0.18955794,
        -0.4430574,
        -0.2616772,
        0.028612962,
        -0.03452794,
        -0.00247533666,
        -0.613986,
        0.3337745,
        0.353372663,
        0.832773268,
        0.232389852,
        0.008909243,
        0.6758816,
        0.009602062,
        0.156421632,
        -0.171935409,
        -0.326486081,
        0.3178379,
        0.0009882582,
        -0.335285246,
        0.258290231,
        0.6907906,
        -0.346978366,
        0.04173125,
        0.239849389,
        0.466654271,
        -0.0435901619,
        0.0990976244,
        0.0267146975,
        -0.45054692,
        -0.1013207,
        -0.433071226,
        0.264050871,
        -0.6059341,
        -0.04933053,
        -0.564261556,
        -0.194792882,
        -0.0829330757,
        -0.168383956,
        -0.0558539,
        0.503343165,
        -0.05820091,
        0.167734921,
        -0.05329259,
        -0.0741612241,
        0.5039716,
        -0.07316878,
        0.433145642,
        0.160857514,
        -0.107588053,
        -0.000902358443,
        -0.155957147,
        -0.142414972,
        0.166110829,
        -0.4597903,
        0.162936568,
        -0.422020674,
        0.200799152,
        -0.04323472,
        0.422932357,
        0.6139256,
        0.143068328,
        0.328781068,
        0.28828758,
        0.101006962,
        0.030344069,
        -0.07235893,
        -0.224595413,
        -0.314966977,
        -0.504870653,
        -0.09355637,
        -0.0954346,
        -0.254772425,
        0.177476674,
        0.5348489,
        0.188982308,
        -0.113869227,
        0.52836293,
        -0.0164041668,
        0.230259582,
        -0.26870212,
        -1.08621418,
        -0.0374499038,
        -0.390781462,
        -0.022316955,
        -0.0629091561,
        0.380768329,
        0.131106332,
        -0.231641278,
        0.175005257,
        0.342039615,
        -0.428299427,
        -0.2603911,
        0.2023492,
        -0.169534653,
        0.65446,
        0.205926836,
        -0.3061903,
        0.317936927,
        0.139571652,
        -0.196604252,
        -0.149181724,
        0.36962387,
        0.1347,
        -0.322370052,
        0.853536248,
        -0.201822668,
        0.4518665,
        -0.227710053,
        0.153490335,
        -0.3328083,
        0.285165876,
        -0.262312621,
        0.131490812,
        -0.2330985,
        -0.333038777,
        -0.304060966,
        0.3732083,
        0.229458883,
        -0.389374048,
        -0.105765127,
        0.203982264,
        -0.288122028,
        -0.1550932,
        0.03613437,
        0.605729163,
        0.141372055,
        -0.318981558,
        -0.106071852,
        -0.202735424,
        -0.646497369,
        0.458003163,
        0.07658273,
        0.2819971,
        -0.0143914288,
        0.188671023,
        -0.0200516488,
        -0.493866116,
        -0.475022435,
        0.0139816869,
        -0.2892428,
        0.213276744,
        -0.332853764,
        0.01758501,
        0.438102037,
        -0.2684123,
        -0.127754942,
        0.2521492,
        -0.01778766,
        -0.5183882,
        -0.601098061,
        -0.0411027521,
        0.04647955,
        0.018428158,
        0.4372171,
        0.0397047959,
        0.5875004,
        -0.322705567,
        -0.101267911,
        -0.0838655159,
        0.126324058,
        -0.0192282554,
        -0.434384942,
        -0.185968623,
        -1.272413,
        -0.326537818,
        0.00866713,
        -1.06494045,
        -0.12808615,
        0.0866005,
        -0.09460341,
        -0.6215474,
        0.0204674732,
        0.162793964,
        0.1525106,
        0.03089912,
        0.05000985,
        0.0621518567,
        -0.276468158,
        -0.219492286,
        -0.135667786,
        0.16747,
        -0.5965728,
        -0.393136829,
        0.08442823,
        0.360835046,
        -0.381056666,
        -0.251044333,
        0.1090845,
        -0.6288399,
        -0.381457955,
        0.00589768449,
        0.06464729,
        0.4307702,
        -0.0411066227,
        0.121022925,
        -0.363674372,
        -0.0152313607,
        0.340952367,
        0.304446578,
        0.0288748629,
        -0.2816816,
        -0.400862426,
        0.106186949,
        -0.163916647,
        -0.240816325,
        0.0130091077,
        0.177597016,
        -0.6470518,
        0.7889014,
        0.05534419,
        -0.374490529,
        -0.212708116,
        0.568257,
        -0.6516093,
        -0.789373636,
        -0.0271123033,
        0.5676751,
        0.225202233,
        -0.2991986,
        -0.5275044,
        -0.5479232,
        0.693679631,
        0.586151063,
        0.1803716,
        0.0776225254,
        -0.79429096,
        -0.5703018,
        -0.316176265,
        0.35434252,
        0.239367664,
        0.216174,
        -0.0972801745,
        0.321746081,
        0.149758562,
        0.3766637,
        0.219379529,
        -0.4948968,
        0.6196555,
        -0.07107103,
        0.210334256,
        -0.123443581,
        -0.249560028,
        -0.44033438,
        -0.3676864,
        0.07810147,
        -0.248405337,
        0.05657339,
        0.05120938,
        0.022642592,
        0.083749,
        -0.7222045,
        0.42259714,
        0.312590152,
        0.103562817,
        -0.15786463,
        0.32691142,
        -0.1121135,
        0.448966682,
        0.03519321,
        0.245507851,
        0.240299121,
        -0.3069197,
        -0.06381829,
        0.140379027,
        0.144953787,
        -0.427293718,
        0.015554931,
        0.568470836,
        -0.26058197,
        0.2990235,
        -0.220114782,
        0.451683223,
        0.517037332,
        -0.291080475,
        -0.4480154,
        0.2678874,
        0.2885174,
        -0.140617788,
        0.5971876,
        0.410403132,
        -0.336601853,
        -0.385013372,
        0.6788646,
        0.0590708032,
        0.07764923,
        -0.0380656756,
        0.7355406,
        0.122236572,
        0.05097467,
        -0.446478963,
        -0.0187984444,
        -0.159203857,
        1.09444392,
        0.0884865448,
        -0.0300119612,
        -0.0256778821,
        0.192410067,
        -0.119330928,
        -0.416602731,
        -0.439447641,
        -0.002876468,
        0.04505856,
        -0.110548437,
        -0.73152256,
        -0.2815131,
        0.222681209,
        0.192906037,
        0.0775453448,
        -0.187997624,
        0.359139472,
        -0.536693454,
        0.317254245,
        0.0162784774,
        0.4109261,
        0.366515547,
        -0.238396227,
        -0.09419251,
        0.00757624255,
        -0.2896465,
        -0.17198202,
        -0.03814997,
        0.375038028,
        0.0164201967,
        -0.2886479,
        0.3137675,
        0.09456737,
        -0.05552389,
        -0.189269617,
        -0.605049253,
        -0.270094067,
        -0.0689040646,
        -0.3162491,
        0.365346521,
        0.317235142,
        0.3967723,
        0.5583985,
        0.142780989,
        -0.412528872,
        -0.0740444362,
        -1.20188963,
        0.606099665,
        -0.532316,
        0.5341591,
        -0.0478103161,
        -0.302680969,
        -0.03702753,
        -0.0179794915,
        -0.08490971,
        0.09862941,
        0.369165868,
        -0.08270964,
        0.337493956,
        -0.468539149,
        -0.147206381,
        0.416015327,
        -0.436886042,
        -0.65042007,
        -0.486448973,
        -0.463253856,
        0.210046649,
        0.3707762,
        -0.152655035,
        -0.175140649,
        0.360084772,
        -0.414880931,
        -0.109196931,
        -0.73655504,
        0.8772574,
        -0.218324766,
        0.2361815,
        -0.09196929,
        -0.3657324,
        0.397598177,
        0.591232657,
        -0.169658408,
        0.298599124,
        0.7426785,
        0.366874963,
        -0.06133059,
        -0.515274465,
        -0.145636186,
        -0.206852242,
        -0.1700391,
        0.0675144941,
        0.520020962,
        -0.192864746,
        0.603605449,
        0.214570537,
        -0.0161278173,
        0.09562392,
        0.3086096,
        -0.1359669,
        0.3863917,
        -0.09644531,
        -0.784854054,
        0.3319618,
        0.4295497,
        -0.0840747058,
        -0.185817629,
        -0.385957,
        -0.0713192448,
        -0.09962384,
        -0.07046347,
        0.09365662,
        -0.06095816,
        -0.166971177,
        -0.138880044,
        0.105751537,
        0.3038805,
        0.0825182945,
        0.10832765,
        -0.0194116421,
        -0.07463798,
        -0.511889637,
        -0.0203121416,
        -0.05037608,
        0.0216236711,
        -0.3653366,
        -0.0149617568,
        0.496069759,
        0.07115273,
        0.121471025,
        -0.2353176,
        0.160206258,
        -0.4482949,
        -0.0683287,
        0.0888663158,
        -0.07133258,
        -0.153691366,
        0.03251947,
        0.0583477244,
        0.1338674,
        -0.225631475,
        0.601927,
        0.01722102,
        -0.5891431,
        0.2725428,
        0.007994248,
        -0.526534736,
        0.194917962,
        -0.3319363,
        -0.5597193,
        0.293940783,
        -0.31067726,
        -0.287117243,
        0.245118812,
        -0.0544486679,
        -0.148131773,
        0.119963855,
        -0.379511327,
        0.794714332,
        0.6616838,
        -0.463086039,
        -0.112222254,
        0.623551846,
        0.411588579,
        -0.1139167,
        -0.156391084,
        0.373201519,
        0.755512,
        -0.0315403566,
        -0.0477035977,
        0.0405165479,
        -0.474745333,
        -0.290219456,
        0.247486353,
        -0.12996605,
        -0.0908665,
        -0.2581511,
        -0.254984766,
        0.0424205028,
        -0.2819884,
        -0.0582457967,
        0.5460641,
        -0.524697542,
        -0.281346262,
        -0.168318361,
        -0.04494031,
        -0.168427914,
        -0.3821224,
        0.122163184,
        -0.733922958,
        -0.126951993,
        0.1896237,
        0.2572425,
        0.2965507,
        0.288688749,
        -0.209029451,
        -0.6774469,
        -1.0591011,
        0.132572815,
        -0.0168360863,
        -0.0534764156,
        0.189563379,
        -0.741759539,
        0.173333585,
        0.0203844048,
        0.122927666,
        0.1033942,
        -0.118031241,
        -0.0597282425,
        0.410794437,
        -0.210881442,
        -0.31233415,
        -0.05139126,
        -0.5924328,
        -0.145605475,
        0.549475968,
        0.3293572,
        0.327948451,
        -0.08437895,
        -0.248174191,
        -0.02945168,
        -0.304598659,
        -0.173255667,
        -0.157822475,
        -0.103885524,
        0.05652823,
        0.379723668,
        -0.324431419,
        -0.413184762,
        0.725629866,
        0.11074432,
        0.460461318,
        -0.1375919,
        -0.3359902,
        0.04466639,
        0.218066052,
        -0.1863737,
        0.0308046471,
        -0.7136921,
        -0.062035203,
        -0.164877534,
        -0.144726664,
        -0.188115492,
        0.227230847,
        -0.204383954,
        -0.17681402,
        -0.0852573,
        -0.2993322,
        -0.3918312,
        0.3608903,
        -0.0421554632,
        -0.0901332051,
        -1.000683,
        0.762310147,
        -0.208028927,
        0.151660472,
        0.354584366,
        -0.817031145,
        -0.381015837,
        0.310166061,
        0.2659873,
        -0.107628681,
        0.16616115,
        -0.09292817,
        0.373577774,
        -0.4648932,
        0.139438823,
        -0.293189436,
        0.148879275,
        -0.36331,
        0.468535,
        -0.4262549,
        0.595177948,
        -0.08008741,
        -0.58445406,
        -0.63415736,
        0.384864718,
        -0.05119527,
        0.4265781,
        -0.52485317,
        0.02546131,
        -0.5074644,
        0.0437412038,
        0.195464283,
        -0.333029658,
        0.0769812763,
        -0.23973541,
        0.0913234949,
        0.387786925,
        0.0538560338,
        -0.04308763,
        -0.375867665,
        0.10908749,
        -0.6158426,
        -0.5877953,
        0.3821196,
        -0.0343703255,
        0.2613979,
        -0.11690677,
        -0.283960074,
        0.309312046,
        -0.382760733,
        0.229708672,
        0.250214159,
        0.459824145,
        -0.4750503,
        -0.0686341748,
        0.4577964,
        0.142033741,
        -0.398968369,
        -0.369259864,
        -0.174627468,
        0.466609836,
        -0.705692,
        -0.13965483,
        -0.169276908,
        0.368364722,
        0.320742816,
        -0.0703890547,
        0.251011819,
        -0.830492854,
        0.107490823,
        -0.400723577,
        -0.5418496,
        -0.204921,
        0.04887409,
        0.36992234,
        -0.88566643,
        -0.0556029566,
        -0.421978176,
        0.347299,
        -0.2589321,
        0.0583174936,
        -0.400784165,
        -0.31699717,
        -0.501213431,
        0.338560075,
        0.0372977369,
        0.173775613,
        0.0305397455,
        -0.0161559358,
        0.528494835,
        -0.5992312,
        0.08473261,
        0.2589799,
        -0.03514921,
        -0.373616576,
        -0.177345768,
        -0.42006126,
        0.295310557,
        -0.12912187,
        -0.09783266,
        0.01623624,
        -0.117527358,
        -0.0519725457,
        1.05383289,
        -0.128980085,
        -0.00544134947,
        -0.0579208024,
        0.5815401,
        -0.2729689,
        0.3922421,
        -0.6505209,
        0.14942275,
        -0.2130264,
        -0.397999465,
        -0.2190666,
        -0.0312846676,
        -0.183563143,
        -0.05163022,
        -0.789951444,
        0.5278995,
        0.09324171,
        0.29096958,
        0.126729429,
        -0.09224096,
        -0.119711056,
        -0.05390839,
        0.259443969,
        0.08509194,
        1.21340692,
        0.164066792,
        0.19618842,
        0.149080426,
        0.050293047,
        -0.8617624,
        0.08337264,
        -0.468889952,
        1.13443816,
        0.04572506,
        -0.368079573,
        -0.453496069,
        -0.293355942,
        -0.428298563,
        0.173459664,
        0.00763445,
        -0.254480034,
        -0.152719676,
        0.5151059,
        -0.00518114539,
        -0.570855141,
        -0.2794038,
        0.2979214,
        0.142285421,
        0.0228167325,
        0.451975942,
        0.009523311,
        0.393274277,
        -0.128334045,
        0.621406,
        -0.198973089,
        -0.6268939,
        -0.5125036,
        0.06223405,
        0.217134029,
        -0.131120145,
        0.402140439,
        -0.204725564,
        0.0626640841,
        -0.4681867,
        -0.9104431,
        0.00196777331,
        -0.390545636,
        -0.141057983,
        0.009825839,
        -0.253004134,
        -0.0122774048,
        0.05747635,
        0.5010715,
        -0.193939492,
        -0.2473246,
        -0.381112754,
        -0.075004,
        0.529705763,
        -0.4062448,
        -0.127320945,
        -0.08332003,
        -0.300628334,
        0.487452269,
        -0.196944013,
        0.383596539,
        0.408369839,
        0.294704974,
        0.198662117,
        -0.450585,
        -0.466651052,
        -0.224964991,
        -0.214139923,
        0.6214281,
        0.118678793,
        0.328145176,
        0.06826758,
        0.08971835,
        -0.139027387,
        0.250792235,
        0.784769356,
        -0.1946778,
        0.2849591,
        -0.519794047,
        -0.102697156,
        -0.177582279,
        -0.181093737,
        0.257418483,
        0.679682732,
        -0.0133428182,
        0.768848956,
        -0.307481021,
        0.822066545,
        -0.219584525,
        -0.463389635,
        0.2887786,
        -0.6663049,
        -0.678711832,
        -0.441267341,
        -0.4580141,
        -0.44262597,
        -0.369672328,
        -0.36263454,
        0.2778502,
        0.245951042,
        -0.630452,
        0.227030456,
        0.419410616,
        -0.249900952,
        0.06672551,
        -0.3693477,
        0.6198992,
        0.35322383,
        0.07111549,
        -0.1587079,
        0.4418904,
        -0.2968109,
        0.2912781,
        0.05219238,
        -0.223990336,
        0.0838811547,
        -0.416596323,
        -0.0322683,
        0.347684026,
        0.0182419736,
        -0.532480657,
        0.0624467321,
        0.50330466,
        0.112218261,
        0.008086375,
        0.7573124,
        -0.0828371,
        0.00352930184,
        0.0421292856,
        -0.197566643,
        -0.174576655,
        -0.0202670675,
        0.08504706,
        -0.04825254,
        -0.5331858,
        0.37758553,
        -0.322278917,
        0.109667614,
        0.4910099,
        0.5244959,
        0.6175229,
        0.193907663,
        -0.250014365,
        0.7477618,
        -0.4380787,
        0.616635561,
        -0.050464265,
        -0.2169307,
        -0.332312137,
        -0.228270426,
        -0.0608085431,
        -0.133841008,
        -0.7855005,
        -0.151379347,
        -0.03260145,
        0.0391097032,
        -0.1754473,
        -0.5077938,
        0.390869677,
        0.4068425,
        -0.4141447,
        -0.0605593137,
        -0.38171944,
        -0.303930283,
        0.382476032,
        -0.482498556,
        -0.264146477,
        -0.434858352,
        -0.15323396,
        0.47839272,
        -0.0880184546,
        -0.350273281,
        0.330976218,
        0.1900295,
        -0.101953156,
        -0.3289666,
        -0.154689163,
        0.1414656,
        -0.134880662,
        0.5473905,
        0.130277976,
        0.852138,
        0.450839251,
        -0.115855061,
        -0.174584165,
        -0.39950487,
        0.0277711023,
        0.430022,
        -0.17766425,
        0.2864044,
        -0.04945403,
        0.178801715,
        0.0910759345,
        0.0282066185,
        -0.146431267,
        -0.0128815034,
        0.225924283,
        -0.0521151274,
        -0.0509108,
        0.185079366,
        -0.361556,
        -0.448212564,
        -0.202405468,
        -0.135217324,
        -0.266129971,
        0.322118759,
        0.178971112,
        -0.301394224,
        0.147280023,
        -0.6063168,
        -0.1462137,
        0.161042541,
        0.200720266,
        0.272574127,
        0.396818876,
        -0.532705,
        -0.173234522,
        -0.527834833,
        -0.05810241,
        0.2138392,
        0.263176978,
        0.21554257,
        0.3077056,
        -0.255993545,
        0.6451952,
        -0.137962177,
        -0.2671174,
        -0.0239384174,
        0.07298803,
        -0.4678003,
        -0.294006765,
        0.202967688,
        0.149137676,
        -0.1841263,
        -0.408013046,
        0.224156708,
        0.0474631749,
        0.008211116,
        0.2612157,
        0.156430125,
        -0.460570216,
        -0.9547634,
        0.0802560151,
        0.17146796,
        -0.137296513,
        -0.202081248,
        0.07550427,
        -0.773595333,
        0.0565787144,
        -0.119431823,
        -0.267196447,
        -0.186180636,
        -0.2773839,
        -0.04151666,
        -0.0964173,
        -0.921882868,
        -0.36002627,
        -0.09245998,
        -0.203809857,
        0.290779948,
        0.334062785,
        0.626202166,
        0.007562692,
        -0.1927041,
        0.0279047042,
        -0.355411083,
        -0.7656934,
        -0.127167791,
        -0.1878433,
        -0.0343393646,
        0.07598444,
        -0.156080425,
        -0.187265426,
        0.152015135,
        -0.283972919,
        -0.4550316,
        0.03714444,
        0.2546253,
        -0.623027444,
        -0.231205091,
        -1.00918174,
        0.1385981,
        0.059745647,
        -0.3221379,
        -0.0406734534,
        0.592663765,
        0.0421472155,
        0.230298877,
        0.170610845,
        1.06741476,
        -0.0367749855,
        -0.715505064,
        -1.10401678,
        -0.425032,
        -0.06820462,
        0.117936283,
        -0.2707616,
        0.523673832,
        0.0490314178,
        -0.169980183,
        0.5664656,
        0.280842423,
        -0.3289466,
        0.08600226,
        -0.197058544,
        -0.04011485,
        -0.253414243,
        0.0495689027,
        -0.01794612,
        -0.4299892,
        0.0252321232,
        0.4209002,
        0.0371819958,
        0.186532781,
        -0.03213299,
        -0.3714524,
        0.173491761,
        -0.4282765,
        -0.127005175,
        0.008816799,
        0.147847265,
        -0.0910638943,
        0.280139029,
        -0.126071855,
        -0.5163468,
        0.141055435,
        -0.00333515019,
        -0.09443337,
        0.0451076664,
        0.6293947,
        0.005579469,
        0.196551025,
        0.09035519,
        -0.00328085665,
        -0.1879477,
        -0.09310479,
        -0.6284083,
        -0.133942276,
        -0.1341841,
        0.113983691,
        0.307720125,
        0.348081648,
        -0.400712281,
        -0.219720885,
        0.27737987,
        0.339283973,
        0.0490857065,
        -0.208607569,
        0.362752974,
        -0.333395064,
        -0.984343,
        0.455797434,
        -0.5302969,
        -0.130445138,
        -0.416878521,
        0.8678689,
        0.299430072,
        0.06907488,
        0.163592875,
        0.193158254,
        0.128263965,
        -0.571724534,
        -0.269938856,
        -0.483315855,
        -0.27683717,
        1.57624984,
        0.553279757,
        0.318016738,
        0.144923076,
        0.228770152,
        -0.4969525,
        -0.0233967323,
        -0.04405887,
        0.0445439667,
        -0.165523708,
        -0.6850242,
        0.007443681,
        -0.07112479,
        -0.498506516,
        0.0412715077,
        0.695573032,
        -0.666596651,
        0.101874948,
        0.5915335,
        0.008441212,
        -0.6237282,
        -0.353266448,
        -0.486666441,
        0.5331622,
        -0.386799216,
        1.12456107,
        -1.05972981,
        0.3630152,
        -0.113976493,
        -0.2584389,
        -0.369796872,
        -0.362503916,
        -0.38513422,
        -0.116948716,
        0.329037547,
        -1.29743171,
        -0.170747355,
        0.302650243,
        -0.376497537,
        0.539695263,
        0.525847435,
        -0.1710719,
        0.177755639,
        0.0081728,
        -0.2591942,
        -0.2827495,
        -0.279078156,
        -0.553134441,
        -0.352441758,
        -0.03354782,
        -0.1772049,
        -1.00687122,
        -0.104238734,
        -0.415638983,
        -0.1741026,
        -0.16284512,
        -0.5115299,
        -0.13487792,
        0.177077621,
        0.0202516876,
        -0.493654668,
        0.103590593,
        -0.1713407,
        -0.3636864,
        0.24583292,
        0.281717151,
        0.08799751,
        -0.499571681,
        -0.6377768,
        -0.4750651,
        -0.232866839,
        -0.231341958,
        -0.006988982,
        0.166860715,
        0.04888653,
        -0.07430436,
        0.421257973,
        0.4124602,
        0.328466862,
        -0.856311262,
        0.406905174,
        -0.3098097,
        0.132924974,
        0.425973475,
        -0.235999554,
        1.08418238,
        0.6391115,
        -0.5371369,
        -0.332047284,
        -0.5473357,
        -0.0350604057,
        -0.193115085,
        0.124459468,
        -1.05433,
        0.0306467358,
        -0.436873883,
        -0.16459997,
        -0.0580226,
        -0.322738,
        0.175177619,
        -0.484203279,
        0.178344443,
        0.5039537,
        -0.7054735,
        0.149888247,
        0.419706643,
        -0.668089032,
        -0.492304265,
        0.0420584679,
        -0.1939778,
        1.68849123,
        0.211163327,
        -0.0565019175,
        -0.8545931,
        0.402226329,
        -0.1942738,
        -0.6301622,
        -0.5399689,
        0.32169795,
        0.0233344883,
        -0.047009632,
        0.09346658,
        0.5462361,
        -0.71055764,
        -0.316022,
        -0.09922961,
        -0.245891586,
        -0.08906161,
        -0.127461553,
        -0.3853511,
        -0.0347300023,
        -0.171659231,
        0.09317217,
        0.315614164,
        0.05658349,
        0.9941912,
        -0.08095976,
        -0.7261766,
        0.192241013,
        -0.3681469,
        -0.594388545,
        -0.684464,
        0.05936572,
        0.757067442,
        0.247491777,
        -0.134578273,
        -0.1323835,
        -0.0199018363,
        -0.0110403737,
        -0.736105,
        0.288701624,
        0.11573384,
        -0.593202949,
        -0.259158283,
        -0.635582,
        0.3770283,
        0.0506122,
        -0.448641658,
        0.399312228,
        -0.292082548,
        1.03291488,
        0.2995172,
        0.3514748,
        -0.06981434,
        0.209086567,
        -0.41628325,
        0.09453784,
        0.277090877,
        -0.2900124,
        -0.5849537,
        -0.07540098,
        -0.212068617,
        -0.6063204,
        -0.3484035,
        -0.103956982,
        -0.3717068,
        -0.08408367,
        0.0329854377,
        -0.522457957,
        0.231668875,
        -0.296030551,
        -0.22082597,
        0.218740582,
        -0.312545955,
        0.0667574,
        0.310744017,
        0.62189126,
        0.10450647,
        -0.0263252854,
        -0.382955849,
        -0.284156054,
        0.372139275,
        -0.153392285,
        0.50456965,
        0.317380816,
        -0.5106352,
        0.3222162,
        -0.228498012,
        0.266732663,
        -0.464261353,
        -0.3895348,
        -0.439456344,
        -0.5599365,
        0.0192016829,
        -0.244924858,
        -0.317744255,
        0.235587344,
        0.110613443,
        -0.263046473,
        -0.8310259,
        -0.0179416034,
        0.05646297,
        0.5080169,
        0.07651079,
        -0.127689943,
        -0.774706662,
        -0.113227442,
        -0.3092214,
        0.574517131,
        -0.3119413,
        0.418598145,
        0.344051272,
        -0.6049463,
        -0.60055083,
        0.381697923,
        0.255951017,
        0.147385076,
        -0.210780084,
        -0.0314856358,
        -0.05446931,
        0.74320513,
        -0.2813252,
        0.1621958,
        0.326785,
        -0.217752963,
        -0.2355541,
        -0.124005765,
        0.2938566,
        0.15014486,
        -0.5295309,
        0.577583432,
        0.148035765,
        -0.549136937,
        -0.0332637839,
        -0.270619661,
        -0.5286971,
        -0.121876106,
        0.195109919,
        -0.04585453,
        0.3025469,
        -0.02864631,
        -0.215061828,
        -0.02471088,
        0.027393572,
        -0.06868886,
        0.319672465,
        0.0979337841,
        -0.212720022,
        -0.5494089,
        -0.197130412,
        0.00312330946,
        0.04350946,
        -0.5305537,
        -0.734120548,
        -0.622154057,
        0.201998055,
        -0.3830093,
        0.3589818,
        -0.237019286,
        -0.135700569,
        -0.8015923,
        -0.3999452,
        0.274366081,
        0.113260664,
        0.229588836,
        0.193679571,
        -0.0310951378,
        -0.1620277,
        0.729474366,
        0.582483232,
        -0.101307921,
        -0.5245476,
        -0.8148054,
        -0.226488173,
        0.104618594,
        -0.0416797549,
        0.30095765,
        -0.147601128,
        -0.244945109,
        0.0416249335,
        -0.0700448155,
        -0.0178330075,
        0.111720331,
        0.530921936,
        -0.0121042943,
        -0.8774617,
        -0.128713444,
        0.160088077,
        0.2976684,
        -0.1728039,
        0.0396015234,
        -0.04397705,
        0.21507363,
        0.101571642,
        -0.06988485,
        0.5211005,
        -0.0580726974,
        0.116218418,
        -0.09338802,
        -0.1936089,
        -0.3788792,
        -0.5300706,
        0.094808504,
        0.274120241,
        -0.2757083,
        -0.239527971,
        -0.406827,
        0.133513972,
        -0.4147986,
        -0.00813880749,
        -0.43819958,
        -0.168062389,
        0.385494351,
        0.466679126,
        0.1430299,
        0.215724245,
        -0.3795033,
        -0.6573588,
        0.03935806,
        0.323061675,
        0.9156002,
        -0.119545728,
        -0.370910883,
        0.8466698,
        -0.0574534647,
        -0.357498348,
        0.315080076,
        -0.448507279,
        0.190548331,
        0.5924314,
        -0.0897005,
        0.204585925,
        -0.6628142,
        -0.167060867,
        0.3844138,
        0.151074082,
        0.07864081,
        -0.126280844,
        0.4800859,
        0.4996688,
        -0.55398494,
        -0.3141874,
        0.145659924,
        -0.017254943,
        0.279159784,
        0.2674173,
        0.150907442,
        0.567511439,
        0.312596321,
        0.215442359,
        0.164552525,
        -0.317839652,
        0.244839028,
        0.01741519,
        -0.4054104,
        -0.440127969,
        0.187449858,
        0.0007255708,
        -0.07471579,
        0.139935672,
        0.6092624,
        0.07017712,
        0.681287467,
        0.26401934,
        0.06395135,
        -0.223443,
        -0.212273568,
        0.425974548,
        0.204258457,
        0.139394015,
        -0.1393859,
        0.35829106,
        0.104661159,
        0.0460612252,
        0.324731082,
        0.306866676,
        0.177437261,
        0.00412732363,
        -0.06787362,
        0.332277864,
        -0.470024675,
        0.07389826,
        -0.4923232,
        0.6097027,
        -0.510567665,
        -0.2866139,
        0.7041898,
        -0.6245501,
        0.1345661,
        0.144919485,
        -0.6487706,
        -0.282005131,
        -1.12737954,
        -0.3543374,
        0.25635314,
        0.498602,
        0.185405031,
        0.214164853,
        -0.0804348,
        0.54177326,
        0.1839456,
        -0.565214157,
        -0.191653416,
        -9.107888E-05,
        -0.299394,
        0.720642567,
        0.044158306,
        -0.233988032,
        -0.442830116,
        -0.7401372,
        0.4140155,
        0.977689445,
        0.05244302,
        -0.268646777,
        -0.6245327,
        -0.5126603,
        -0.482163817,
        -0.83171,
        0.206171632,
        -0.352515668,
        -0.393892735,
        0.263477981,
        0.161994368,
        0.385192454,
        0.247740373,
        0.6522956,
        -0.2801075,
        -0.07348907,
        -0.161737874,
        0.45194605,
        0.369382054,
        -0.407226,
        0.100841142,
        -0.5225407,
        0.118731558,
        -0.165185943,
        -0.03652495,
        -0.00711516943,
        -0.00184816588,
        0.117532611,
        -0.393409073,
        0.475612849,
        -0.34541586,
        0.03895465,
        -0.0217278358,
        -0.423639119,
        -0.1989603,
        -0.141500026,
        -0.0211410113,
        -0.136810273,
        -0.154926643,
        -0.167909518,
        -0.173292831,
        0.307417959,
        -0.05173712,
        0.0700960159,
        0.458586752,
        0.4343622,
        0.0229662,
        -0.06803853,
        -0.319780231,
        -0.5305334,
        0.0588976443,
        -0.235209852,
        -0.124977596,
        0.6624548,
        0.721327066,
        -0.01637959,
        -0.117312215,
        0.315844744,
        0.133939341,
        -0.5681087,
        -0.446138471,
        -0.331796765,
        -0.27929306,
        -1.34347272,
        -0.454474,
        -0.0345679075,
        -0.5382879,
        -0.609236836,
        0.7579316,
        -0.2529978,
        0.08195437,
        0.08958778,
        -0.111391552,
        0.327144146,
        -0.3856447,
        -0.0132029224,
        0.0664755553,
        -0.4113503,
        0.87891227,
        0.240418345,
        0.6173284,
        -0.1695774,
        -0.591754,
        0.00268600532,
        -0.666772246,
        -0.4712928,
        0.467164546,
        -0.46594727,
        -0.369327247,
        -0.6082732,
        -0.317249,
        -0.5491318,
        -0.09322728,
        1.17466593,
        0.5040883,
        -0.4750315,
        0.6775283,
        -0.0383491963,
        -0.04804423,
        -0.1256211,
        0.198179275,
        -0.144948021,
        0.146049961,
        -0.122094125,
        -0.9160939,
        0.111586608,
        0.349163532,
        -0.279810935,
        -0.439286232,
        -0.27053237,
        -0.2930149,
        -0.7775038,
        -0.108971156,
        -0.182797134,
        -0.5808248,
        -0.107377052,
        0.0202629324,
        0.210171148,
        0.9785835,
        0.417428434,
        -0.3233185,
        0.364917934,
        -0.562767565,
        0.255767554,
        0.5350448,
        0.285865754,
        -0.177228525,
        -0.118822068,
        0.9099665,
        -1.458295,
        0.755590141,
        -0.529995739,
        -0.0226694047,
        -0.403953463,
        -0.5252727,
        0.392682672,
        -0.519980252,
        -0.0908055753,
        0.193944424,
        -0.375871152,
        -0.08376804,
        -0.728272855,
        0.8232681,
        -0.08400409,
        -0.210095808,
        -0.2677925,
        -0.670430839,
        -1.14703918,
        -0.376389533,
        -0.560397446,
        -0.200498179,
        -0.194559589,
        -0.6119838,
        0.719784558,
        0.182713732,
        0.925068557,
        -0.2799169,
        -0.6102614,
        -0.5819403,
        -0.212036282,
        -0.166129708,
        -0.302342683,
        -0.0124137606,
        -0.452189177,
        0.29884252,
        -0.6792442,
        -0.9630297,
        -0.0386101156,
        0.72281146,
        -0.0598034747,
        -0.681129754,
        -1.2453649,
        -0.6286738,
        -0.312039554,
        -1.13962531,
        -0.200962886,
        -0.385974765,
        0.0264103338,
        -0.190701261,
        0.102019608,
        0.2774786,
        0.241453245,
        -0.08356103,
        -0.9466998,
        -0.4822053,
        0.05923217,
        -0.6185913,
        0.19875735,
        1.63091242,
        0.0152750881,
        0.0464297719,
        -0.000716889859,
        -0.1047453,
        0.18775858,
        0.122468948,
        -0.230631709,
        -0.6692629,
        -0.042419184,
        0.09252768,
        -0.676071048,
        -0.4830764,
        -0.164644375,
        -0.125772819,
        -0.343899071,
        0.24972786,
        -1.05088246,
        0.03140491,
        -0.06431319,
        0.266298115,
        -0.040698573,
        0.0307364818,
        -0.571345568,
        0.285915762,
        0.7979745,
        0.15016824,
        -0.206371427,
        -0.449767977,
        0.717984736,
        -0.242817789,
        -0.7987477,
        0.459135532,
        1.95817709,
        0.07067479,
        0.3257545,
        0.00431717,
        -0.0357508734,
        -0.701536536,
        0.1346301,
        -0.3301911,
        -0.0248571616,
        -0.2916243,
        -0.197461575,
        -0.08690436,
        -0.5881904,
        -0.487274915,
        -0.350919843,
        0.124384433,
        0.01760058,
        -0.00289219781,
        -0.389949322,
        0.211496919,
        0.05547675,
        0.329203665,
        -0.693822742,
        -0.251187444,
        -0.077213496,
        -0.661944032,
        -0.2861713,
        -0.20354858,
        0.6922328,
        0.09573169,
        -0.191246,
        0.0185076054,
        -0.1544294,
        0.00243047881,
        -0.481382966,
        0.281448752,
        0.202440128,
        -0.1346529,
        -0.5837339,
        0.18113184,
        0.269915879,
        -0.462180942,
        -0.5436043,
        0.209448934,
        0.0225190576,
        -0.115642644,
        0.22313793,
        -0.922005355,
        -0.120660722,
        -0.08220354,
        0.05226929,
        -0.3087501,
        0.3530977,
        -0.0264071189,
        0.10183917,
        0.08297403,
        -0.3182896,
        -0.312572449,
        -0.8887339,
        -0.7513312,
        0.20835264,
        -0.114994645,
        0.289634615,
        -0.235203177,
        0.173931018,
        -0.009288197,
        -0.374500334,
        -0.5408029,
        -0.169649646,
        -0.212180972,
        -0.732357442,
        -0.253244579,
        -0.5330536,
        -0.046835348,
        0.520633042,
        0.1262722,
        -0.3011999,
        0.735446155,
        0.125671014,
        0.263310581,
        -0.4044717,
        -0.126388609,
        -0.0681612045,
        -0.642151237,
        -0.533096969,
        0.0763166845,
        0.525407255,
        0.05163497,
        0.457436055,
        -0.8885808,
        0.108670317,
        -0.2941547,
        0.2495411,
        -0.059409257,
        0.155109555,
        -0.2949596,
        0.696426,
        -0.120936595,
        -0.256532371,
        0.129268631,
        -0.2585765,
        -0.5536338,
        -0.324444264,
        -0.163147852,
        -0.3126209,
        -0.0232668277,
        -0.592289269,
        -0.030568745,
        1.24913251,
        -0.3077971,
        -0.5211979,
        0.507091641,
        0.0942326,
        0.3545295,
        0.176611289,
        0.6384242,
        -0.6396885,
        0.212598562,
        0.130738258,
        0.417823553,
        -0.08748223,
        -0.254419029,
        0.194845572,
        0.366553158,
        0.181200162,
        0.0440996476,
        0.134069175,
        0.0694937259,
        -0.437936246,
        -0.2676049,
        -0.68023,
        -0.145244643,
        -0.250507861,
        -0.109712012,
        -0.00449965149,
        -0.370167673,
        0.159497648,
        -0.04871135,
        0.06302319,
        0.263562083,
        0.165018708,
        0.4832039,
        0.120364591,
        -0.0162818842,
        -0.120552935,
        0.222185716,
        -0.04957095,
        0.0572166368,
        0.3422215,
        -0.395171,
        0.01704958,
        -0.121532828,
        0.0838563144,
        -0.145370215,
        0.345352143,
        -0.0206993539,
        -0.111754619,
        0.160524875,
        0.1075488,
        -0.255654573,
        -0.05873988,
        0.04181002,
        0.0003330828,
        -0.191282332,
        0.411849141,
        0.291165084,
        0.272832066,
        -0.0436141267,
        -0.2560407,
        -0.131550521,
        -0.180450678,
        -0.370108426,
        -0.118003696,
        -0.195857525,
        0.3686956,
        0.2040697,
        -0.110402368,
        -0.139122263,
        -0.160002962,
        0.6129024,
        0.5811127,
        -0.221015915,
        0.304196775,
        0.451185226,
        -0.05561054,
        -0.1819462,
        -0.207990631,
        -0.0958685,
        0.134019658,
        0.02441697,
        0.08320603,
        -0.407098085,
        0.0242178068,
        -0.213915631,
        -0.274027467,
        0.5240006,
        -0.385772854,
        -0.5188822,
        0.5050536,
        -0.0544979349,
        0.0474658534,
        0.2144435,
        0.275104582,
        0.433629274,
        -0.103071317,
        -0.5921146,
        0.169686526,
        0.4647733,
        0.0888501257,
        0.354534358,
        -0.04144411,
        0.0986358747,
        -0.08023229,
        0.3543742,
        -0.172468647,
        0.374784559,
        0.1696762,
        0.07050808,
        0.02299946,
        0.208255142,
        0.504573,
        -0.0172977354,
        -0.27154395,
        -0.4657947,
        -0.6139127,
        -0.545470357,
        0.0334393978,
        -0.02347965,
        -0.319192171,
        -0.436986774,
        -0.9037841,
        0.135415256,
        -0.177372292,
        -0.488367081,
        0.6950808,
        0.03711059,
        -0.0197038315,
        0.117645629,
        0.02293623,
        -0.487746358,
        -0.301461428,
        -0.6111591,
        0.886697,
        -0.182185039,
        -0.161232635,
        -0.3495964,
        -0.245450512,
        0.019355882,
        0.5270039,
        -0.07948253,
        0.08025949,
        -0.492308319,
        -0.2368866,
        -0.5549425,
        -0.27853325,
        -0.0297460314,
        0.05790803,
        0.044145532,
        0.146917611,
        -0.9443094,
        -0.4643218,
        -0.35992974,
        -0.297864139,
        0.414955437,
        -0.441807836,
        0.0283827651,
        0.06372796,
        0.247528121,
        -0.5063007,
        0.288326085,
        -0.315544873,
        -0.319873363,
        0.35335058,
        -0.06961921,
        0.389181226,
        0.0372226872,
        -0.401454926,
        -0.052402202,
        -0.4697912,
        -0.72715354,
        -0.1607153,
        -0.653192461,
        -0.293903351,
        0.167246237,
        -0.657639861,
        0.5557628,
        -0.0190510061,
        0.265812218,
        0.08128473,
        0.05785397,
        0.467110127,
        -0.636452734,
        0.0105068758,
        0.101847842,
        -0.337971717,
        -0.653972566,
        -0.587396562,
        0.0398397371,
        0.007020498,
        -0.026379995,
        -0.5127945,
        -0.3239618,
        -0.0329845175,
        -0.400729418,
        -0.283063859,
        0.09686774,
        -0.222217977,
        0.342258155,
        0.6532675,
        -1.36022639,
        -0.27676335,
        -0.226560414,
        0.2872289,
        0.0569832027,
        -0.369615078,
        -0.0942615047,
        -0.0165329855,
        0.128341213,
        -0.10941714,
        -0.083966434,
        -0.470347762,
        0.0134339146,
        0.4127023,
        -0.0131313587,
        0.10516692,
        -0.351696581,
        0.1175451,
        0.106655829,
        0.1497585,
        0.713374555,
        -0.6406755,
        0.3927028,
        1.02999973,
        0.819441736,
        0.4375193,
        -0.347979575,
        -0.3498939,
        0.306765378,
        0.385677278,
        -0.354187131,
        -0.265685081,
        -0.0118300216,
        -0.457604975,
        0.08175196,
        0.358905375,
        -0.274522543,
        -0.7631412,
        1.6282059,
        0.0655740052,
        -0.455765963,
        0.167928517,
        -0.201856464,
        -0.549013,
        -0.308128655,
        -0.7155939,
        -0.594150245,
        -0.158229887,
        0.379412144,
        -0.0237430688,
        0.226220921,
        -0.272794634,
        -0.331529647,
        -0.288410485,
        0.00180332782,
        -0.1941814,
        0.241968527,
        -0.327287465,
        -0.413343936,
        0.253367543,
        -0.08518858,
        -0.3233949,
        -0.258956552,
        0.1108982,
        -0.5825537,
        0.335988432,
        0.0563553125,
        -0.110281684,
        0.0217520818,
        -0.423960865,
        -0.5320638,
        -0.2548473,
        0.0244352389,
        0.008929604,
        0.213397056,
        0.196123973,
        -0.209423527,
        -0.397962064,
        0.02218117,
        -0.253893733,
        -0.3621977,
        -0.243366063,
        0.410658628,
        0.0357745066,
        -0.436294824,
        0.06677541,
        -0.197015554,
        -0.152430177,
        -0.117109545,
        0.0681581348,
        -0.581228137,
        0.8718597,
        -0.3100714,
        -0.8535777,
        -0.627729654,
        -0.181179136,
        -0.42442134,
        0.07212922,
        0.7132142,
        -0.5922152,
        0.865313947,
        -0.901488662,
        -0.287407875,
        -0.214827642,
        -0.366493851,
        -0.0174995027,
        -0.260815,
        0.09078358,
        -0.5742158,
        -0.183800429,
        -0.0624081828,
        -0.000478694419,
        -0.348456025,
        -0.785693944,
        0.810483456,
        -0.238910347,
        0.6822225,
        0.023353273,
        -0.485517144,
        0.7701842,
        -0.137481168,
        0.321041256,
        0.16618903,
        0.326859057,
        -0.3509076,
        0.8769252,
        -0.8076017,
        -0.515485,
        0.241996229,
        -0.3551874,
        -0.6481769,
        0.07730918,
        0.09687561,
        -0.432191551,
        0.05315212,
        -0.470043868,
        0.17656368,
        0.0369433947,
        -0.133588046,
        -0.23730877,
        -0.509514034,
        -1.0546155,
        -0.03848033,
        0.08689163,
        -0.482216984,
        -0.236709163,
        0.37185064,
        0.003437715,
        -0.5662167,
        0.158682585,
        0.668329656,
        -0.0917004645,
        0.232715249,
        -0.124143288,
        -0.3672284,
        -0.201842144,
        0.00293706288,
        0.605273664,
        1.44315684,
        -0.638923,
        0.0190633461,
        -0.252259463,
        0.140638262,
        -0.2854622,
        -0.993829966,
        -0.348564565,
        -3.047167,
        -0.293225557,
        -0.512306035,
        -0.428927064,
        -0.5709828,
        -0.7310884,
        -0.12138252,
        -0.311997533,
        0.258283019,
        -0.7689785,
        -0.365172923,
        0.109373383,
        -0.6395509,
        -0.03224667,
        -0.263014436,
        0.293569982,
        0.10630928,
        1.13694119,
        -0.3499469,
        -0.653899848,
        -0.235524878,
        -0.341802716,
        0.163137227,
        0.07547651,
        0.376396477,
        0.163899168,
        -0.26226002,
        -0.294187337,
        -0.334865749,
        -0.8691709,
        -0.0299406685,
        -0.6881444,
        -0.208392158,
        -0.140396148,
        -0.7431748,
        -0.437334836,
        0.104858361,
        0.0221510269,
        -0.617839038,
        -0.5566939,
        0.179781616,
        -0.374299526,
        0.43496567,
        -0.0123671973,
        -0.4376318,
        0.1191655,
        -0.150636256,
        0.0424047671,
        -0.07621406,
        -0.750367939,
        0.0362995081,
        -0.5742956,
        -0.7235198,
        0.2662398,
        -0.138972148,
        -0.0435453653,
        -0.433814257,
        0.189677328,
        -0.420757651,
        -0.192543492,
        -0.3888238,
        -0.5500833,
        -0.367662132,
        -1.06994653,
        -0.0274740234,
        -0.347570658,
        -0.496234119,
        0.177677065,
        0.17919223,
        -0.106850661,
        -0.182289183,
        0.207827821,
        -0.212722376,
        -0.200686485,
        -0.34323594,
        0.135060385,
        0.09795315,
        -0.399048,
        -0.414781958,
        -0.500128746,
        -0.618168533,
        0.111097731,
        -0.6679617,
        -0.204916611,
        -0.5534163,
        -0.209539354,
        0.297592,
        0.110156059,
        0.0950548351,
        0.4287363,
        -0.043811474,
        -0.06498943,
        -0.125025585,
        -0.6572529,
        -0.0336121619,
        0.3795197,
        0.05613046,
        -0.308425456,
        -0.418470681,
        0.338219762,
        -0.009446994,
        -0.107161589,
        -0.2695,
        0.208783641,
        -0.204294458,
        0.327183574,
        -0.194089413,
        0.7486363,
        -0.6464955,
        0.0208027363,
        -0.347940266,
        -0.38020578,
        -0.402218133,
        -0.603256166,
        0.1629299,
        0.03402893,
        0.888489068,
        -0.121647924,
        0.08501087,
        0.0985184759,
        -0.182294652,
        -0.2553338,
        0.405365,
        -0.1370099,
        0.217507347,
        -0.342016757,
        0.500372,
        0.0777436644,
        0.194285169,
        -0.363506168,
        -0.200155139,
        -0.212001279,
        -0.07320936,
        -0.146904349,
        -0.445390075,
        0.36973992,
        -0.5256797,
        -0.652509749,
        -0.220521435,
        0.319265544,
        0.140335992,
        -0.5109084,
        -0.0141285853,
        -0.053348504,
        0.06035489,
        0.413494319,
        -0.008733767,
        0.292482018,
        -0.414581776,
        -0.1297551,
        -0.107540987,
        -0.323037654,
        -0.09032996,
        -0.113496676,
        -0.125931054,
        -0.163753048,
        -0.0102938842,
        0.486894965,
        0.8620659,
        -0.353037447,
        0.179821447,
        0.613830864,
        0.353021324,
        0.7750061,
        0.6873967,
        0.09266631,
        0.4929839,
        -0.547158539,
        -0.0418901928,
        0.08245336,
        0.4852947,
        -0.244757667,
        -0.179840773,
        -0.03372437,
        0.07778734,
        -0.27464506,
        0.2198647,
        0.008192326,
        -0.262066752,
        0.453399867,
        0.8541931,
        -0.30530715,
        -0.068166,
        0.09593618,
        -0.2841801,
        0.136238977,
        0.3326787,
        -0.07820968,
        -0.114390939,
        -0.269014955,
        0.0140359681,
        -0.06818535,
        -0.241327852,
        -0.3306146,
        -0.723935366,
        -0.297399282,
        -0.268371433,
        -0.142438218,
        0.08989873,
        -0.112541057,
        0.158430263,
        -0.164669558,
        -0.2546719,
        0.376682162,
        -0.147836179,
        0.120456554,
        0.183252186,
        -0.795748234,
        -0.03953277,
        -0.221923873,
        0.105117224,
        0.380136937,
        -0.0102260318,
        -0.05596287,
        0.177943051,
        -0.3981781,
        -0.3444377,
        0.389849633,
        -0.04055545,
        -0.2284555,
        0.269181162,
        -0.0109139923,
        -0.0546196066,
        -0.0216410533,
        -0.0452755727,
        -0.13148804,
        0.152588874,
        -0.08269268,
        0.4561501,
        0.236103445,
        -0.640506446,
        -0.137820363,
        -0.0296011623,
        -0.7053684,
        -0.117006376,
        0.115411535,
        -0.284642875,
        0.148808837,
        0.311212182,
        -0.150147,
        0.06644144,
        0.9878032,
        0.08380847,
        -0.0400781035,
        -0.253582716,
        0.0644195154,
        0.128383532,
        -0.247613043,
        -0.16938144,
        -0.185962871,
        0.158111781,
        -0.4671165,
        -0.007078029,
        0.309270471,
        -0.469954044,
        0.151287556,
        -0.359207451,
        0.06256812,
        -0.429844648,
        0.04456596,
        -0.00698078144,
        0.743553042,
        -0.163465232,
        -0.3448499,
        0.0619654842,
        -0.008748012,
        0.08145175,
        0.6438571,
        -0.587096155,
        -0.0787951,
        -0.0761731341,
        -0.711022735,
        0.116258539,
        -0.241288111,
        -0.161771923,
        0.433166653,
        -0.1032702,
        -0.120632187,
        -0.1318116,
        -0.423966527,
        -0.302318037,
        -0.0487771332,
        -0.0763771459,
        -0.0800979,
        -0.233540565,
        -0.63694,
        0.36760506,
        -0.6101601,
        -0.09033045,
        -0.344266742,
        -0.6361746,
        -0.142939121,
        0.3073525,
        -0.241872877,
        -0.336574376,
        -0.181611463,
        0.151021183,
        -0.437214851,
        -0.895426333,
        -0.400307566,
        -0.503519535,
        -0.489105582,
        -0.782029331,
        0.183690831,
        -0.03653669,
        -0.5230792,
        0.0547660142,
        -0.2111254,
        -0.133491352,
        -0.477795035,
        0.398245126,
        -0.267913848,
        -0.360619038,
        -0.382076979,
        -0.3469261,
        -0.06954037,
        -0.6176753,
        0.578524053,
        -0.274474472,
        0.244726136,
        -0.109334171,
        -0.06294619,
        0.119530149,
        -0.22397539,
        -0.8565874,
        -0.568204165,
        0.12264362,
        -0.195477128,
        -0.7975031,
        -0.494561821,
        -0.447963178,
        0.0607969165,
        0.4013504,
        0.9142186,
        -0.845631242,
        -0.0134560755,
        -0.224914849,
        -0.0163531676,
        -0.9037342,
        -0.5577148,
        0.39422363,
        -0.563187957,
        -0.370597839,
        -0.07227116,
        0.148440212,
        0.0224354621,
        -0.134157181,
        1.19130933,
        -0.11698506,
        -0.405827016,
        0.0653548539,
        -0.24444896,
        -0.356269449,
        -0.008850777,
        -0.5167057,
        -0.4329333,
        0.00529528456,
        0.4158441,
        0.5447355,
        -0.210753769,
        -0.509164631,
        -1.41452563,
        -0.829591751,
        0.135913253,
        -0.519657433,
        0.39043963,
        -0.426222444,
        -0.453735679,
        -0.576270044,
        -0.6343755,
        -0.0546791,
        -0.35356003,
        1.28521693,
        -0.235130459,
        0.051557187,
        0.411546916,
        -0.180993617,
        -0.473698169,
        -0.5183601,
        -0.4286311,
        0.00516405469,
        -0.0170669667,
        0.945019364,
        0.293667525,
        0.3854503,
        -0.6830812,
        -0.344247669,
        -0.485932946,
        0.319492847,
        -0.0776975751,
        0.00390203926,
        -0.642265737,
        -0.20967789,
        -0.485671818,
        -0.0652143,
        -0.55662,
        -0.29332158,
        -0.0401111878,
        -0.483451068,
        -1.10667479,
        0.9264544,
        0.363785,
        0.00187304814,
        -0.835468,
        -0.625919163,
        -0.7751728,
        -0.7795748,
        0.356775075,
        -0.221554548,
        0.240400508,
        -0.159889311,
        -0.508012831,
        0.07890408,
        0.05678778,
        -0.003217243,
        0.187237293,
        -0.586271763,
        0.516156256,
        0.0242273044,
        0.05670651,
        -0.043185316,
        -0.1513292,
        0.539145231,
        -0.1756397,
        -0.6913234,
        0.275049,
        0.304080755,
        -0.278956443,
        -0.395441115,
        -0.145432115,
        -0.7421136,
        -0.286827624,
        0.02039628,
        0.04799612,
        0.10224025,
        -0.139262885,
        -0.09404827,
        -0.244484633,
        -0.394173622,
        0.0148234507,
        -0.4800946,
        -0.108781338,
        0.0515495874,
        -0.592348754,
        -0.0394564867,
        -0.122840114,
        0.19504787,
        0.389025569,
        0.168730035,
        -0.4101715,
        0.229130208,
        0.214442924,
        -0.473340541,
        -0.39813745,
        -0.376755059,
        0.213451281,
        -0.2156477,
        0.771640837,
        0.03689267,
        -1.03595781,
        -0.256961346,
        -0.4163495,
        0.04755426,
        0.0151699558,
        0.07936798,
        -0.7095184,
        0.258610249,
        -0.6179229,
        -0.65578717,
        -0.690407157,
        -0.6121874,
        -0.572054863,
        0.0363042355,
        -0.2901441,
        0.425411582,
        -0.07003948,
        -0.265707672,
        -0.159493819,
        -0.6187235,
        -0.192070484,
        -0.364203334,
        -0.118472971,
        0.125042737,
        0.6295439,
        0.5293507,
        0.162877679,
        -0.420977682,
        -0.384085625,
        -0.991884053,
        0.693275034,
        -0.7353401,
        -0.639330566,
        -0.2897405,
        -0.3159466,
        0.117733568,
        0.182111114,
        -0.5054052,
        -0.2501824,
        -0.7427354,
        0.184377372,
        -2.15081072,
        -0.522972465,
        -0.497779548,
        -0.317644447,
        -1.11732364,
        -0.82310003,
        0.2808379,
        -0.00475474633,
        0.5650546,
        0.353140116,
        -0.423083335,
        -0.19480741,
        -0.1102393,
        -0.2852972,
        -0.3160599,
        -0.305084258,
        0.1466483,
        0.265226334,
        0.106482789,
        -0.092532,
        -0.60784924,
        -0.314040959,
        -1.39474416,
        -0.490379751,
        -0.0532417931,
        -0.569781542,
        0.193470046,
        -0.00271769054,
        -0.217981383,
        -0.229396939,
        -0.147768661,
        -0.44996345,
        0.7728228,
        -0.1601468,
        -0.19515264,
        -0.3313093,
        0.0380219519,
        0.164586291,
        -0.293845683,
        -0.213540375,
        -0.222378746,
        -0.336824119,
        0.5420584,
        -0.2803904,
        -0.112048753,
        -0.7373466,
        -0.122066781,
        -0.37260735,
        -0.893597245,
        -0.109829053,
        0.593860745,
        -0.230098426,
        -0.166560084,
        -0.455528021,
        -0.91919136,
        -0.159050539,
        0.0436594225,
        0.0556438155,
        0.484565943,
        -0.7435504,
        -0.09619928,
        0.276220322,
        -0.368714541,
        -0.3853713,
        0.0524861924,
        -0.1914006,
        -0.2554641,
        0.221300483,
        -0.548892558,
        0.170841277,
        -0.0639911443,
        0.195428357,
        -0.275154054,
        -0.495530784,
        0.360383123,
        0.08137297,
        -1.05477345,
        -0.254770339,
        -0.3600641,
        -0.305835217,
        -0.0299218167,
        0.2980656,
        0.0007512862,
        -0.291332126,
        -0.268466324,
        -0.4227972,
        -0.3512143,
        -0.3836516,
        -0.465279818,
        -0.883779764,
        -0.04137613,
        0.14693366,
        0.211896062,
        0.134858742,
        -0.04152547,
        0.415996283,
        0.0478944555,
        -0.4031652,
        0.773574233,
        0.2036356,
        0.170622036,
        -0.2599219,
        -0.116241485,
        0.554636538,
        -0.3206753,
        -0.109839708,
        -0.3599768,
        0.278344065,
        -0.7895269,
        -0.6414149,
        -0.7892663,
        -0.139494151,
        0.5728881,
        -0.307130754,
        -0.0163516551,
        0.437941521,
        0.22176072,
        0.09909206,
        -0.122018926,
        0.476058364,
        0.131193951,
        0.494500548,
        0.4193107,
        0.248289391,
        -0.06990533,
        -0.472236246,
        0.03786465,
        -0.213608816,
        0.4572716,
        -0.7238483,
        -0.185094923,
        -0.104894966,
        0.620792,
        -0.132831231,
        -0.01756441,
        -0.6247365,
        0.2581701,
        0.0359942876,
        0.221844152,
        0.40557465,
        0.384830177,
        0.4009016,
        -0.450941175,
        -0.2334223,
        0.8284056,
        0.0503485873,
        -0.222263128,
        0.0620406643,
        0.165077478,
        -0.6312182,
        -0.5591851,
        0.355261058,
        -0.18462503,
        -0.577566266,
        -0.488619447,
        0.290628523,
        0.6595877,
        -0.09306901,
        0.404381067,
        -0.32839182,
        -0.527637541,
        -0.0214371625,
        0.404921,
        -0.223579139,
        -0.1190053,
        0.4265196,
        -0.06496932,
        0.07799508,
        -0.191934824,
        0.152668163,
        -0.5218452,
        0.242104456,
        -0.20084919,
        0.114703655,
        -0.171201527,
        -0.08007656,
        -0.424790472,
        -0.4244422,
        -0.0289584231,
        -0.306389481,
        0.2765559,
        0.301213175,
        -0.240881875,
        0.181439012,
        -0.0906883,
        -0.03306745,
        0.6529751,
        0.230631351,
        -0.376994,
        0.0184118729,
        -0.08684021,
        -0.2167605,
        -0.230929792,
        0.351087064,
        -0.0142613268,
        0.0264125969,
        0.253665745,
        0.293582976,
        -0.3687047,
        -0.236741573,
        -0.5354804,
        -0.171076819,
        0.131320775,
        0.35391134,
        0.130168423,
        -0.369970471,
        0.326843023,
        -0.108272277,
        -0.4876302,
        -0.190053165,
        -0.6882356,
        0.465421975,
        0.45063737,
        -0.499573469,
        -0.1732728,
        0.0363902934,
        -0.0020484773,
        0.04844637,
        0.10594745,
        0.6906627,
        0.191586226,
        0.213804811,
        -0.460072428,
        0.322255284,
        -0.115947947,
        -0.265394151,
        0.03438159,
        -0.142318219,
        0.180326417,
        0.0246577039,
        0.061211884,
        -0.2846784,
        -0.53388685,
        0.04279488,
        0.424465179,
        0.179270074,
        0.223402485,
        0.30555284,
        0.426241815,
        0.0360643864,
        -0.421461076,
        -0.00357993017,
        0.2829232,
        0.271173775,
        0.144163445,
        -0.147815883,
        -0.174666926,
        -0.7252828,
        0.207850933,
        -0.0127435857,
        0.1905606,
        -0.101117916,
        -1.13514256,
        0.7215151,
        -0.09056052,
        -0.282186151,
        -0.158127412,
        -0.08621918,
        0.278413475,
        -0.171727717,
        -0.7068582,
        -0.257106066,
        0.03377554,
        0.00264017726,
        -0.329312444,
        -0.2996966,
        -0.4026391,
        0.06954778,
        0.08351454,
        -0.949419,
        -0.206138328,
        -0.126839235,
        0.03626725,
        -0.118902192,
        -0.5451537,
        0.796265841,
        -0.399750054,
        -0.5878846,
        0.03369144,
        -0.699465156,
        -0.42935288,
        0.1323669,
        -0.206318244,
        0.210948929,
        -0.7422115,
        -0.5543651,
        0.6625959,
        -0.09421421,
        -0.299994022,
        -0.638437152,
        -0.1670014,
        -0.311144948,
        0.2235821,
        -0.2891775,
        -0.37215358,
        -0.2600757,
        -0.445158333,
        -0.08498904,
        -0.3863192,
        0.1650316,
        -0.07122224,
        -0.00570966443,
        -0.4883824,
        0.100199886,
        -0.57544136,
        -0.5363058,
        0.0250422135,
        0.1643959,
        0.203577533,
        -0.4630922,
        -0.191047743,
        -0.24385035,
        -0.0513202,
        -0.74865675,
        -0.748351157,
        -0.22167325,
        -0.3460919,
        0.241713956,
        -0.08747886,
        -0.480473936,
        0.193463862,
        0.479642451,
        0.55772233,
        0.171122745,
        -0.687122643,
        -0.0302059017,
        0.0620638728,
        0.2240344,
        -1.21359861,
        -0.267706931,
        -0.5717659,
        -0.00545985438,
        0.9359417,
        0.13571386,
        -0.0862371251,
        -0.5051083,
        -0.122998483,
        -0.16876556,
        -0.6835705,
        -0.33177793,
        -0.027035255,
        0.0618789569,
        0.0042637866,
        -0.52301,
        -0.620796263,
        0.09073622,
        0.0130652739,
        1.03112984,
        -0.4009596,
        -0.8212398,
        -0.0637822151,
        0.395152479,
        -0.134963617,
        -0.253759652,
        -0.321170062,
        -0.180570066,
        0.120225318,
        1.03645325,
        0.230288982,
        -0.7504399,
        -0.402780741,
        0.3317555,
        -0.228822827,
        -0.202758282,
        -0.5578522,
        -0.269341439,
        -1.096717,
        0.169284657,
        -0.295958668,
        0.154824883,
        -0.3673463,
        -0.181446582,
        1.34129524,
        -0.3340772,
        0.4444667,
        0.0208520461,
        -0.0304308459,
        0.0354121327,
        -0.7823694,
        -0.540827751,
        -0.371943116,
        -0.480051339,
        -0.0917864,
        0.07686501,
        0.6004,
        0.100581326,
        -0.371237367,
        -0.235951155,
        -0.6052764,
        0.0874436349,
        -0.5732163,
        -0.216027573,
        0.279925436,
        0.196210146,
        0.100028336,
        0.1260791,
        0.243298858,
        0.624782264,
        -0.695848167,
        0.5498626,
        0.9059124,
        -0.296784937,
        -0.444910228,
        -0.5581666,
        -0.6865426,
        -0.417559028,
        0.130043447,
        -0.7494858,
        -0.08737637,
        1.21983457,
        0.752999961,
        0.006743722,
        0.00485851057,
        -0.62989527,
        -0.0319984667,
        -0.5545087,
        -0.305021673,
        0.408113331,
        -0.232622057,
        -0.439175278,
        -0.6688631,
        -0.2771173,
        0.688201547,
        0.188947022,
        0.16556558,
        -0.09258295,
        -0.488452941,
        -0.105775759,
        0.127885386,
        0.230229959,
        -0.243831024,
        -0.0475345068,
        -0.17327863,
        -0.160395488,
        0.323683441,
        -0.436669469,
        -0.0498382263,
        -0.09267909,
        -0.370847642,
        0.00400519557,
        0.13573575,
        0.211441815,
        0.490208238,
        -0.101546414,
        -0.0711282,
        -0.112998545,
        0.343644351,
        -0.03751827,
        -0.253701031,
        0.06519236,
        -0.260523915,
        -0.713391364,
        -0.303641051,
        0.0267583076,
        -0.803505957,
        -1.03153908,
        -0.3418702,
        -0.527775,
        -0.5924169,
        0.399360746,
        -0.9145348,
        -0.961078763,
        -0.5885068,
        -0.3606913,
        -0.315994561,
        -0.7805551,
        0.161684245,
        0.0920686,
        -0.2397434,
        -0.7942931,
        -0.322656482,
        -0.719010234,
        0.533468366,
        -0.535068452,
        -0.39115876,
        -0.08290536,
        -0.5641039,
        -0.8806976,
        -1.13174379,
        0.158782139,
        -0.4186593,
        -0.240280643,
        -0.427908,
        0.4800498,
        0.8634292,
        -0.2711402,
        0.0361212753,
        -0.631436646,
        -0.06931652,
        -0.634784639,
        -0.8385514,
        -0.06796089,
        0.310839176,
        -0.692490339,
        -0.000142479839,
        -0.1982921,
        -0.5919046,
        -0.108249,
        -0.08633346,
        0.03572427,
        -1.98846042,
        -0.680595458,
        -0.158428833,
        -0.883359253,
        -0.352550983,
        -0.11281278,
        -0.222217426,
        -0.278038949,
        0.103224725,
        -0.08515427,
        -0.537452459,
        -0.275783628,
        0.2759445,
        -0.170423225,
        -0.447481453,
        -0.758761466,
        -0.053366147,
        0.0211215187,
        -0.134946689,
        0.07489453,
        -0.3850001,
        -0.3982737,
        -0.768143535,
        -0.281091839,
        -0.7381942,
        -1.00034332,
        0.435040534,
        -0.221473709,
        0.08133339,
        -0.170324564,
        -0.8235798,
        -0.300269932,
        -0.390233725,
        0.17199485,
        -0.180093721,
        -0.682302535,
        -0.06874455,
        -0.330115646,
        -0.626835644,
        -0.116494179,
        -0.628493845,
        -0.298463464,
        -0.381526619,
        -0.2613433,
        -0.396352172,
        -0.575470865,
        -0.3051562,
        -0.5531379,
        -0.578956,
        -0.455090463,
        -0.1827151,
        -0.378011674,
        -0.07865518,
        -0.35324055,
        -0.443295777,
        -0.7430581,
        0.578380764,
        -0.03425376,
        0.73704195,
        -1.06777048,
        -0.530349553,
        -0.348067,
        0.0105030229,
        -0.6104472,
        -0.2208368,
        -0.07154511,
        -0.152221084,
        1.0734669,
        -0.00355399563,
        -0.277743071,
        -0.351314038,
        0.253035516,
        1.01518989,
        -0.112029612,
        0.173782289,
        -0.395244926,
        -0.38757214,
        -0.444116056,
        -0.454999775,
        0.150249571,
        -0.471658,
        0.05934492,
        -0.119250707,
        -0.2718153,
        -0.5589829,
        0.0119205788,
        -0.152809516,
        -0.233667523,
        0.07544787,
        0.268449038,
        -0.234941885,
        -0.573911369,
        -0.392568827,
        0.343244433,
        -0.197389573,
        -0.552424,
        0.03797845,
        0.09113149,
        0.173491091,
        0.0120034385,
        0.2503999,
        -0.5465684,
        -0.6921876,
        0.271927238,
        -0.06477315,
        -0.0219253972,
        -0.0306462087,
        0.0680324361,
        -0.6836954,
        -1.19048333,
        0.230674922,
        -0.483217865,
        -0.255984724,
        0.703932762,
        -0.13370876,
        -0.5528968,
        -0.294933349,
        -0.218774945,
        -0.01081592,
        -0.280992925,
        0.0302046612,
        0.192732975,
        0.28376314,
        0.511995,
        0.339541852,
        -0.766368032,
        -0.19631055,
        0.4177579,
        0.230668157,
        0.06401979,
        -0.00951178,
        -0.2687419,
        -0.313211381,
        -0.020145556,
        0.2408174,
        0.334696233,
        -0.3796822,
        -0.0617548972,
        0.284711629,
        0.180244178,
        -0.107439004,
        0.3355293,
        0.3214416,
        1.07650208,
        0.496096253,
        -0.7200841,
        0.478703767,
        0.0243218765,
        -0.3885679,
        0.107184641,
        0.0294301119,
        -0.0530429333,
        0.0525953025,
        0.13368696,
        -0.5238216,
        -0.446031958,
        0.422965139,
        0.0248607825,
        -0.2869532,
        0.1328879,
        -0.04701155,
        0.203839287,
        0.457833648,
        -0.195032328,
        -0.01980852,
        0.438443869,
        0.185574,
        0.456368625,
        0.05317641,
        0.531316161,
        -0.310674876,
        -0.14060159,
        0.08784803,
        -0.0142118633,
        0.02219025,
        0.320404261,
        -0.429154783,
        0.438619554,
        -0.138450891,
        -0.0600537173,
        0.355943382,
        -0.4466441,
        0.22586529,
        -0.0489829332,
        -0.133071661,
        -0.287116855,
        -0.631065369,
        -0.14288719,
        -0.219597757,
        0.5412535,
        0.2761689,
        -0.0727782547,
        0.72231096,
        0.12643601,
        -0.804092646,
        0.108297929,
        -0.49928394,
        0.434449136,
        -0.5431114,
        -0.00768724456,
        -0.08815432,
        -0.43516016,
        -0.113792211,
        0.243844435,
        0.120254613,
        0.056881506,
        -0.231059223,
        -0.596103668,
        0.178387746,
        -0.3123721,
        -0.255490363,
        -0.3495526,
        0.06952748,
        -0.5855709,
        0.00627100561,
        -0.4268503,
        -0.202126443,
        0.5033924,
        -0.546447754,
        -0.21402359,
        -0.268711954,
        -0.07553846,
        -0.8298154,
        -0.7270015,
        0.308521,
        0.132407472,
        -0.5669075,
        0.145318538,
        0.505910456,
        -0.7765674,
        0.5636551,
        -0.3991737,
        0.392744,
        -0.9388709,
        -0.1149576,
        -0.298755944,
        0.4564022,
        -0.383420259,
        -0.2336898,
        -0.698823,
        0.0295761619,
        -0.4794417,
        1.29760766,
        -0.307961941,
        0.199389473,
        -0.159129232,
        -0.5693179,
        -0.879322648,
        -0.420087546,
        0.143935159,
        -0.157017857,
        0.4122766,
        -0.335844576,
        0.238804892,
        -0.375848442,
        0.07737728,
        -0.193360969,
        0.3668051,
        0.0162195079,
        -0.8330477,
        0.2835902,
        -0.235824838,
        -0.584336638,
        -0.0346824974,
        -0.235463411,
        -0.5736616,
        0.00851559,
        0.2341843,
        -0.09068863,
        0.107152484,
        0.20240429,
        -0.603984356,
        0.08527518,
        -0.7579025,
        -0.9815045,
        -0.222912252,
        -0.4344532,
        -0.453945726,
        -0.1548731,
        0.0817708746,
        -0.1302277,
        0.09681803,
        0.641781,
        -0.271584719,
        -1.66919553,
        -0.589691,
        -0.7226593,
        -0.11015477,
        -0.90273875,
        -0.671698153,
        -0.12640509,
        -0.7941284,
        -0.1497967,
        -0.372626543,
        -0.153602064,
        -1.165156,
        0.2022726,
        0.251698524,
        -0.0136170359,
        -0.211649776,
        0.32449472,
        -0.149095237,
        -0.198484764,
        0.607080758,
        -0.00757308165,
        0.11260964,
        0.223450974,
        0.0389008336,
        0.200553283,
        -0.612246633,
        -0.352175772,
        -0.471536964,
        -0.435795575,
        -0.440224826,
        -0.2469726,
        0.3788594,
        -0.479084939,
        0.2609633,
        -0.0747977346,
        -0.6702334,
        0.0320929736,
        -0.505564,
        -0.7018917,
        -0.158412814,
        0.07757587,
        -0.140000567,
        -0.8782352,
        -0.138592765,
        -0.5667229,
        0.27288276,
        -1.21078086,
        -0.106382437,
        0.232859865,
        0.2587597,
        -0.6322083,
        -0.430236071,
        -0.5095854,
        -0.3754839,
        -0.5173492,
        0.529005647,
        -0.154312819,
        -0.3650988,
        -0.164561957,
        0.16718106,
        -0.145647958,
        -0.3665737,
        -0.102626905,
        0.774543,
        -0.382304132,
        0.204182431,
        -0.17692095,
        -0.173703343,
        -0.1359347,
        -0.627222359,
        -0.000396725343,
        -0.212266579,
        -0.08190048,
        -0.528657,
        0.7173408,
        -1.11424041,
        0.008413826,
        -1.03603685,
        0.315251529,
        -0.355711251,
        -0.384456962,
        -0.2661786,
        -0.36297524,
        -0.102793179,
        -0.1096455,
        0.214215,
        -0.7515932,
        -0.6815057,
        0.2629217,
        -0.61629647,
        -0.398184,
        -0.233149275,
        -0.9131529,
        -0.5334941,
        -0.6834882,
