{
  "name": "Handwritten Digits Classification",
  "neuronCounts": [
    400,
    25,
    10
  ],
  "hiddenLayers": [
    {
      "inputs": 400,
      "outputs": 25,
      "bias": [
        -0.6637277,
        -0.7335873,
        -1.02466309,
        -0.2967951,
        -0.4204062,
        -0.374735683,
        0.13217321,
        -0.507829,
        -0.8769801,
        1.92469978,
        -0.471835256,
        -0.000594430137,
        0.866788447,
        -0.9601069,
        -0.198948815,
        -0.4378965,
        -0.339259237,
        -0.8581404,
        0.2899426,
        -1.19307268,
        0.819095254,
        0.378522754,
        0.30168125,
        -0.453807354,
        -0.3241699
      ],
      "weights": [
        0.6423744,
        0.432584435,
        0.367841035,
        -0.345861882,
        -0.3961812,
        -0.5419275,
        0.726353347,
        -0.9134331,
        -0.6002172,
        0.314659178,
        -0.07159202,
        0.11682906,
        0.464850724,
        0.158627555,
        -0.256589472,
        -0.198061153,
        0.724244952,
        -1.023113,
        0.040251337,
        -0.8454462,
        0.876125,
        -0.0239359457,
        -0.09719595,
        1.13481987,
        0.118336149,
        0.140569583,
        -0.260732561,
        -0.3042349,
        -0.00141501927,
        0.3858231,
        -0.4248901,
        0.224754438,
        -0.988022,
        0.381175965,
        -0.5565989,
        -0.32529074,
        -0.177063644,
        -0.01782028,
        -0.144939825,
        0.535127938,
        0.343653828,
        -0.442938745,
        -0.588185549,
        0.882344842,
        -0.8243541,
        -0.538878143,
        0.08667925,
        0.130106792,
        0.574982047,
        -0.0020136477,
        -0.365188122,
        -0.123724148,
        0.435105443,
        0.466574341,
        0.212928116,
        0.0360786021,
        -0.556981146,
        0.625716448,
        -0.271072268,
        0.8592928,
        -0.415270567,
        -0.2180794,
        0.2927631,
        -0.337504417,
        0.530006647,
        -0.3744576,
        -0.186000824,
        0.626798,
        -0.0810752362,
        -0.10904377,
        1.47092736,
        0.5388058,
        -0.8045649,
        -0.330866456,
        -0.321201473,
        -0.145828679,
        0.260356724,
        0.223866358,
        0.2264418,
        0.05468315,
        0.556495368,
        0.884267449,
        0.5801172,
        0.591868758,
        1.06337225,
        -0.336349249,
        -0.00158575759,
        -0.3103982,
        -0.09395544,
        -0.2693309,
        -0.698160768,
        -0.103273757,
        -0.171511978,
        -1.774458,
        -0.03118903,
        -0.142178938,
        0.1512944,
        0.5031979,
        0.223893672,
        -0.3532056,
        -0.009205545,
        0.206395239,
        -0.221283615,
        -0.286427766,
        0.375724941,
        0.4497461,
        0.111730292,
        0.132910684,
        -0.293776125,
        -0.1309326,
        -0.0178723764,
        0.1625776,
        0.60378015,
        0.3058407,
        0.399140537,
        -0.280849546,
        0.230343774,
        0.38666898,
        -0.07024041,
        0.464806646,
        -0.125140265,
        -0.501644135,
        -0.5656846,
        0.0253402516,
        0.1342191,
        0.437494844,
        0.409168839,
        -0.01752929,
        0.4608538,
        0.451841921,
        -0.727584,
        -0.217991754,
        -0.302104652,
        -0.118150204,
        -0.13219142,
        0.00340891746,
        -0.0433551036,
        -0.8467812,
        -0.2744025,
        -0.0286249574,
        -0.473029584,
        0.996439934,
        0.237075508,
        -1.01029551,
        0.7357377,
        0.282290846,
        0.451650023,
        -0.7123994,
        -0.2589214,
        -0.307322,
        0.440626055,
        0.03220829,
        -0.137393862,
        -0.399183035,
        -0.484313548,
        -0.339747667,
        0.2788541,
        -0.0549744852,
        -0.4472481,
        0.14751856,
        0.1709331,
        -0.248935685,
        0.7737518,
        0.009645332,
        -0.005309341,
        0.138333634,
        -0.896294,
        0.485799551,
        0.208359912,
        -0.321019441,
        -0.0206093639,
        0.6968802,
        -1.34423947,
        -0.3554878,
        -0.515338,
        -0.17638123,
        -0.1370766,
        -0.5450805,
        0.190492153,
        -0.390546471,
        0.1309777,
        0.985024869,
        -0.00585083524,
        -0.07828611,
        -0.4191019,
        -0.442580462,
        -0.147151321,
        -0.368756473,
        -0.811165333,
        -0.779344738,
        -0.228711233,
        -0.0635563061,
        0.648978055,
        0.3361735,
        0.18168819,
        0.733971059,
        0.179866433,
        -0.218806177,
        0.103457078,
        0.3961656,
        0.666283,
        0.6949863,
        -0.182649821,
        1.07244015,
        0.24663642,
        0.572095931,
        -0.325358033,
        -0.139021575,
        -0.344888628,
        -0.513859868,
        0.137393042,
        -0.333229542,
        0.383986026,
        -0.5685192,
        -0.182921574,
        0.9279846,
        0.00249066972,
        -0.2380948,
        -0.1615211,
        0.7285392,
        0.899266,
        -0.6095671,
        -0.418651551,
        -0.7185564,
        0.115109421,
        -0.0460964777,
        -1.07217491,
        0.222056732,
        0.231245056,
        1.164475,
        0.270133853,
        1.13511276,
        1.12315118,
        0.3290022,
        -0.270958275,
        0.0453347862,
        -0.488759965,
        0.557475269,
        -0.3526746,
        0.0362857766,
        1.34007072,
        0.2581612,
        -1.02019691,
        0.7972961,
        0.13395597,
        0.2935703,
        -0.7496222,
        0.8137829,
        -0.474840969,
        0.316499561,
        -0.175456032,
        0.7201336,
        0.20135887,
        0.154788151,
        0.8959478,
        -0.26228112,
        0.04433993,
        -0.304741,
        0.0950365141,
        0.323941469,
        0.102680586,
        0.289496452,
        0.477921724,
        0.488744348,
        0.122518323,
        -0.234151378,
        0.0344716944,
        0.0370008536,
        0.142091811,
        0.11189618,
        0.532666862,
        0.175997645,
        -0.707481,
        -0.14333187,
        0.212509185,
        0.53794235,
        0.779538035,
        -0.79466486,
        -0.242312208,
        -0.140742943,
        0.9180388,
        0.116994984,
        0.479916066,
        -0.438030958,
        0.0302869324,
        -0.8778353,
        -0.751921833,
        -0.553241432,
        -0.8331333,
        -0.0836717561,
        0.495884448,
        -0.0242093913,
        -0.9612701,
        0.537037849,
        0.180665344,
        0.6071229,
        -0.7376029,
        0.176386923,
        -0.406142741,
        0.321240544,
        -0.1302284,
        -0.7445555,
        0.564922333,
        -0.201035812,
        -0.2817682,
        -0.314156532,
        0.160901427,
        -0.02591097,
        -0.486042738,
        0.405686617,
        -0.125154927,
        0.352510422,
        0.9010465,
        0.00419331854,
        -0.395466238,
        0.649644732,
        0.08818985,
        -0.573677242,
        0.466282874,
        0.2212774,
        -0.220844582,
        0.01234017,
        0.163559377,
        0.365141869,
        0.99688834,
        0.524524033,
        -0.362692922,
        0.603005052,
        -0.344445139,
        0.08101503,
        0.209159151,
        0.100141995,
        -0.526899,
        0.421303,
        -0.0281061158,
        1.47682273,
        0.6278186,
        0.530448735,
        -0.5093799,
        0.340124816,
        -0.425363868,
        -0.107203148,
        -0.222694874,
        0.406150877,
        0.8727594,
        -0.0258179568,
        0.132609636,
        0.09240565,
        -0.464770228,
        -0.313559562,
        0.612621844,
        -0.483768553,
        0.7966297,
        -0.931638241,
        -0.430140346,
        -0.0146371946,
        0.6237946,
        -0.180479452,
        0.131551638,
        -0.6009776,
        -0.5911038,
        -0.0283315945,
        -0.0290553384,
        0.5791157,
        0.472315,
        -0.6538729,
        0.124737993,
        -0.0382259525,
        0.326147437,
        -0.332390636,
        -0.8384305,
        -0.0221276935,
        -0.2143245,
        -0.0506256446,
        0.207500145,
        -0.359705567,
        0.03998208,
        1.11814284,
        -0.079074,
        -0.707133,
        0.202317044,
        0.176580951,
        0.108103134,
        -0.117818005,
        0.39740783,
        -0.508100331,
        -0.7827105,
        0.796399951,
        0.1902662,
        0.1992523,
        0.3145877,
        -1.0266968,
        -0.567317963,
        0.156857476,
        -0.5210256,
        -1.11546946,
        -0.0454609469,
        0.6631455,
        -1.0048027,
        -0.685288668,
        1.05032587,
        0.07987593,
        -0.923094749,
        0.309809744,
        0.812354147,
        0.246550813,
        0.318477869,
        0.261609882,
        1.56084514,
        0.9220967,
        -0.172442019,
        0.145325586,
        -0.130845159,
        -0.444483161,
        0.31218645,
        0.309386343,
        -0.2487669,
        0.6679161,
        0.1280483,
        -0.427928746,
        -0.6030133,
        0.5616714,
        0.960142136,
        -0.369815379,
        -0.288462073,
        0.64253813,
        0.792409,
        -0.173046559,
        -0.0191202536,
        -0.0516839437,
        0.640544236,
        -0.9497851,
        -0.03971402,
        -0.6787339,
        0.3933471,
        -0.04572668,
        -0.133374318,
        0.5966706,
        -0.98143363,
        -0.1528738,
        0.27628088,
        0.764099538,
        0.526555359,
        0.2907841,
        -0.470284343,
        -0.3148461,
        0.0694315,
        0.208528712,
        0.8178229,
        0.6291983,
        -0.304222316,
        0.5857628,
        -0.424212128,
        -0.601765335,
        -0.256237656,
        -0.536318243,
        0.485435426,
        0.189411014,
        0.115723439,
        0.139992341,
        -0.487001061,
        0.9989984,
        0.381431818,
        -0.2606224,
        -0.8732654,
        -0.03102922,
        -0.05414482,
        -0.150068849,
        -0.853647053,
        -0.105324782,
        -0.21685724,
        0.2208651,
        -0.9158835,
        -0.07901667,
        0.00314876065,
        0.238482878,
        -0.1876742,
        -0.6508278,
        -0.8917164,
        -0.488161623,
        0.5733698,
        0.690296531,
        -0.228401273,
        0.0222004056,
        -0.252986282,
        0.1986865,
        1.02268171,
        0.427336365,
        0.214301571,
        -0.344056427,
        -0.2747466,
        0.382860661,
        0.17386061,
        0.37154302,
        1.2376374,
        0.136403322,
        -0.103146829,
        -0.153837889,
        0.4027593,
        -0.131562039,
        -0.03281871,
        0.0299464036,
        -0.0584076531,
        0.5307567,
        -0.7132312,
        -0.4019543,
        -0.7977565,
        -0.30653134,
        -0.845427632,
        -0.36913693,
        0.447620034,
        0.211299315,
        -0.83225286,
        -0.453386545,
        0.357591718,
        0.7035127,
        -0.709742069,
        0.113694571,
        -0.455640972,
        -0.41251424,
        -1.13052154,
        -0.32364127,
        0.6567014,
        -0.09631135,
        1.08719277,
        0.359823644,
        0.5810014,
        0.335337073,
        -0.3795532,
        -0.8429154,
        0.389254451,
        -0.6164265,
        -0.215947822,
        0.3443671,
        0.514918268,
        -0.656354666,
        -0.775795043,
        0.3748293,
        0.125311464,
        -0.675784469,
        0.09757869,
        -0.524035156,
        -0.03715396,
        -0.6108899,
        -0.57523644,
        0.14419423,
        0.17569837,
        -0.6241244,
        0.1752246,
        -0.078663,
        0.148204759,
        0.5257444,
        0.4989937,
        -0.322849154,
        0.3909603,
        -0.143877611,
        -0.421745658,
        -1.01122892,
        -0.279973567,
        -1.03578937,
        -0.5981563,
        -0.132169232,
        0.377018452,
        0.10858395,
        0.503907,
        -0.0113483574,
        -0.301678628,
        0.07794978,
        -0.00773882447,
        0.637673438,
        0.197804883,
        -0.328119755,
        -0.288808048,
        -0.09931676,
        -0.834126651,
        -0.1274078,
        -0.322603822,
        0.394499481,
        0.00640815636,
        0.2052863,
        0.892967463,
        -0.193643808,
        1.030172,
        0.2820482,
        -0.410026371,
        0.142453969,
        0.169019759,
        -0.34633,
        0.2948825,
        0.457094848,
        0.669863,
        0.519359469,
        -0.630984247,
        0.231549934,
        -0.5308228,
        0.09696003,
        -0.475089848,
        -0.412608385,
        0.5639188,
        -0.03325332,
        -0.0147276064,
        0.0301263947,
        0.409948021,
        0.72671026,
        0.6252967,
        -0.2912489,
        0.0248098131,
        -0.8261373,
        0.279479325,
        0.128831863,
        0.385268658,
        -0.03370677,
        -0.497339427,
        0.342327625,
        0.226068139,
        -0.8337351,
        0.279525757,
        -0.245100856,
        0.804751933,
        -0.243491948,
        0.17153208,
        -0.5983057,
        -0.225095108,
        -0.317560136,
        0.6968935,
        0.238605767,
        0.7820244,
        0.3170358,
        -0.2840805,
        -0.326687366,
        0.104134023,
        -0.00827103853,
        0.714839458,
        0.07965322,
        -0.109568439,
        0.8876104,
        -0.0100039886,
        -0.9467353,
        -0.2235233,
        -0.540231943,
        -0.3244014,
        -0.5572191,
        -0.184362009,
        -0.0410345122,
        0.5055827,
        -0.114852421,
        -0.143436,
        0.657844067,
        -0.316228539,
        -0.422568053,
        -0.308405071,
        -0.3840976,
        -0.432758,
        0.129017144,
        -0.411125332,
        -0.163639933,
        -0.06409269,
        -0.698638141,
        0.25561744,
        0.009376016,
        0.360572726,
        0.2316213,
        -0.0454396047,
        0.7015935,
        0.0504241437,
        -0.08812914,
        0.8387586,
        -0.28507033,
        -0.321141362,
        -0.0526912175,
        -0.452540874,
        -0.164588273,
        0.7504039,
        0.339592,
        -0.140223473,
        0.237349585,
        -0.197565421,
        -0.388630062,
        -0.113682389,
        -0.490244448,
        -0.491241157,
        -0.419702679,
        -0.133826584,
        -0.481858283,
        -0.338518351,
        0.346157461,
        -0.4296298,
        -0.657813,
        0.0160193332,
        -1.322095,
        -0.00500415731,
        0.6035715,
        -0.372632176,
        0.2150696,
        0.08438215,
        -0.124647319,
        -0.09509911,
        -0.1866916,
        -0.123498157,
        -1.03721154,
        -0.2172616,
        0.353048325,
        0.521236658,
        0.298184276,
        -0.0470428951,
        0.895326853,
        0.4936471,
        0.7977025,
        0.5100916,
        -0.1260904,
        0.305696964,
        0.541494966,
        -0.3613895,
        0.991845548,
        -0.0063214195,
        -0.41437614,
        0.793988764,
        0.5115434,
        -0.386717,
        -0.8449074,
        -0.169755861,
        -0.207652122,
        1.36754179,
        0.397218853,
        -0.0177127328,
        -0.8291333,
        0.3162161,
        0.6764603,
        0.5485193,
        -0.313988835,
        -0.101770394,
        -0.2283438,
        0.39343363,
        -0.3431407,
        -0.07840271,
        0.9239274,
        -0.620160043,
        -0.914532,
        0.232857734,
        0.437313884,
        -0.05405627,
        -0.07132197,
        -0.481422752,
        0.6207584,
        -0.5103274,
        -0.5531146,
        0.416495383,
        0.368817329,
        0.0504501648,
        -0.203496262,
        0.122790977,
        -0.239674538,
        -0.0286307056,
        -0.591237068,
        -0.2890074,
        -0.507667363,
        -0.163621053,
        -0.0560172722,
        -0.3846084,
        0.0373888053,
        0.5444806,
        -0.0840305462,
        -0.8754905,
        -0.247187451,
        -0.3723383,
        0.187570587,
        0.479733646,
        0.007647049,
        -0.0141509585,
        0.250314444,
        0.149465576,
        -0.1954355,
        0.345502436,
        -0.00398222962,
        -0.307126522,
        0.26489535,
        -0.484102637,
        0.381546,
        -1.6818105,
        -0.4703692,
        0.961453557,
        0.8874076,
        -0.1020288,
        0.799087465,
        0.3821078,
        -1.16279411,
        -0.45920223,
        -0.388185531,
        -0.368547946,
        -0.0172390062,
        -0.0453044027,
        0.0604613945,
        -0.8908281,
        0.852921963,
        0.6915961,
        0.2944883,
        -0.320226073,
        -0.7520386,
        -0.659437,
        0.4040181,
        -0.7555633,
        0.163960069,
        0.239896372,
        0.0244558,
        0.173819453,
        -0.057066083,
        0.5822275,
        0.161336437,
        0.2325019,
        0.01435259,
        0.216056973,
        0.121682942,
        -0.402205825,
        1.08818567,
        0.0048243585,
        0.0771298,
        -0.0587133951,
        0.06835375,
        -0.345226318,
        -0.2042018,
        -0.500187635,
        -0.475103348,
        -0.598714948,
        0.655039,
        -0.264509231,
        -0.158996388,
        -0.272042722,
        0.431874275,
        0.0139263794,
        0.202501386,
        -0.383405775,
        -0.4158829,
        -0.9314732,
        0.11332877,
        0.5420013,
        -1.36484969,
        -0.384282768,
        -0.05301881,
        0.090942584,
        0.308001041,
        -0.26199317,
        0.275244564,
        0.371976435,
        -0.279440343,
        -0.190273911,
        -1.06830883,
        -0.144249842,
        0.632970333,
        0.6014226,
        0.489812762,
        -0.47683832,
        -0.303897,
        -0.0438443,
        0.174550727,
        -0.0864747539,
        0.9997517,
        -0.0554665662,
        -0.727359831,
        -0.09792715,
        0.348532081,
        -0.0851787552,
        0.8543808,
        0.4976978,
        0.242960215,
        0.714296043,
        -0.6996872,
        -0.963483632,
        -0.192969874,
        0.543385267,
        -0.357483447,
        -0.009619538,
        -0.220843539,
        -0.154448137,
        -0.396802038,
        0.6109412,
        -1.105004,
        0.2248613,
        1.1552695,
        -0.354308844,
        -0.5579379,
        0.172615319,
        0.126182139,
        0.335215241,
        0.229912862,
        0.0474903,
        0.345289737,
        -0.03265385,
        0.454068154,
        0.404476255,
        0.318038,
        0.19506295,
        0.807363451,
        -0.54780674,
        -0.324205518,
        -0.466818064,
        0.621781051,
        -0.9071878,
        -0.161160454,
        -0.2697397,
        -0.36579892,
        0.151014328,
        0.18861644,
        -0.07233593,
        -0.2822943,
        0.548102736,
        0.5412584,
        0.261710942,
        -0.726839542,
        0.5417779,
        0.5919067,
        0.658988833,
        0.376292527,
        -0.147232473,
        1.36193359,
        0.371030927,
        -0.699859858,
        -0.301379323,
        0.6526981,
        0.5928668,
        0.111800894,
        -0.6308163,
        0.259002477,
        0.201954141,
        0.6142318,
        -0.256863624,
        -0.267663151,
        -0.7381316,
        0.384419858,
        0.308187962,
        0.0666945949,
        0.269411862,
        0.214915961,
        0.107670307,
        0.161070511,
        -1.0936569,
        -0.0239399746,
        -0.344364941,
        0.383227885,
        -0.9132712,
        0.2669784,
        0.2952044,
        0.2289337,
        -0.447924346,
        -0.009693425,
        -0.672944248,
        0.59548,
        0.245954722,
        -0.294041753,
        -0.7899683,
        0.253095448,
        0.5670817,
        0.00773334643,
        -0.0303633,
        0.1578898,
        -0.118823983,
        -0.250904351,
        0.5157264,
        0.142297968,
        0.5802326,
        0.8639606,
        0.01974004,
        -0.33881,
        -0.601596236,
        0.3962501,
        0.222900733,
        0.8102293,
        0.593691945,
        0.223626286,
        -1.06540275,
        0.110237524,
        0.0224330965,
        0.406276166,
        0.02327105,
        -1.10015988,
        -0.08566264,
        -0.5309055,
        -0.09403247,
        0.07452062,
        0.358391672,
        0.451899856,
        0.378750324,
        0.661290467,
        -0.5590195,
        -0.7324839,
        0.401212931,
        -0.4681015,
        -0.632897854,
        -0.08769756,
        -0.13447541,
        -0.09809169,
        -0.1298905,
        -0.453496069,
        1.15306449,
        0.329860955,
        0.3897066,
        -0.378866,
        -0.40365237,
        -1.084795,
        1.32298243,
        -0.189351276,
        0.09583102,
        0.8706133,
        -0.0364339463,
        0.736684,
        -0.3353378,
        0.369441628,
        0.115241177,
        0.264261842,
        -0.8243678,
        0.806037545,
        0.360329956,
        0.47601527,
        -0.09766581,
        -0.267024666,
        0.435045958,
        -0.291684061,
        -0.176907554,
        -0.548855245,
        -0.258062363,
        -0.263341069,
        -0.0668383762,
        -0.0144586572,
        1.284665,
        -0.32247296,
        -1.1500777,
        0.39097628,
        0.00171650667,
        0.108267024,
        0.6888066,
        -0.300561368,
        0.0186231285,
        0.226359755,
        1.19347072,
        -0.38015455,
        -0.07997214,
        -0.229865909,
        0.486178666,
        -1.06428838,
        0.273158133,
        -0.850399733,
        -0.377842039,
        -0.128250435,
        0.177069023,
        -0.003937182,
        0.310197055,
        0.776934743,
        -0.296302736,
        -0.2989565,
        -0.2913491,
        0.0232887454,
        -0.2259855,
        -0.241575435,
        -0.134441733,
        0.233517185,
        -0.06486924,
        0.193377808,
        0.0515291281,
        0.6064788,
        -0.3286092,
        -0.5130757,
        0.238158941,
        -0.821668863,
        -0.271651953,
        -0.416301,
        -0.0327952839,
        -0.1143334,
        -0.314440966,
        0.0152380476,
        0.386787176,
        -0.00745229935,
        -0.1571135,
        -0.3221696,
        -0.09441689,
        -0.555408955,
        0.262207329,
        0.274624169,
        0.175977349,
        -0.03301736,
        -0.1422994,
        -0.6097286,
        0.5115282,
        0.234003723,
        0.8521603,
        -0.219966263,
        0.779041946,
        0.3669109,
        0.338154018,
        0.215728775,
        0.450963765,
        0.326281,
        -0.6567327,
        -0.190529838,
        -0.1066045,
        -0.3611708,
        0.492125243,
        0.312320918,
        -0.8074452,
        0.177886292,
        -0.07075476,
        -0.105002731,
        0.183574259,
        -0.279097557,
        -0.349504769,
        0.230090365,
        -0.2622634,
        -0.372015476,
        -0.4506641,
        0.7000967,
        -0.803144932,
        0.38180545,
        0.5071711,
        -0.3099714,
        0.920367956,
        0.5583719,
        -0.493689835,
        0.07439391,
        -0.5259605,
        -0.5666241,
        -0.267195523,
        -0.1690198,
        -0.170135766,
        0.9953601,
        -0.593712568,
        -0.5888946,
        0.3099998,
        0.120280378,
        0.5116512,
        1.08246791,
        -0.0727370158,
        -0.504806638,
        0.291090071,
        0.3931217,
        0.9411384,
        0.624184251,
        -0.3352288,
        0.123282708,
        0.159513682,
        -0.30778724,
        0.306015164,
        0.246278584,
        0.6774018,
        0.156663865,
        -0.279004574,
        -0.33855167,
        -0.6429091,
        0.06497119,
        0.851000369,
        0.14010483,
        0.5257986,
        -0.257594734,
        0.501407146,
        -0.006292449,
        0.3271532,
        0.09794762,
        -0.0105281528,
        0.106739879,
        -0.340461463,
        0.6590632,
        -0.08369065,
        -0.649609,
        0.123492919,
        -0.03784321,
        0.493925124,
        0.2706968,
        0.650569439,
        0.7696439,
        0.477456033,
        0.216258839,
        0.351935476,
        0.0692846254,
        -0.0970706642,
        0.7956533,
        0.231816009,
        -0.0329017341,
        -0.4952466,
        0.178251073,
        0.0826089,
        0.168528229,
        0.556593359,
        0.138655856,
        -1.02541,
        -1.166529,
        -0.131167054,
        0.6261067,
        -0.140009984,
        0.657956958,
        0.3797357,
        -0.5309834,
        0.3492625,
        -0.7956825,
        -0.22117579,
        -0.656078756,
        -0.497945815,
        0.2469419,
        -0.5126475,
        -0.153624192,
        0.07278225,
        -0.793634534,
        -0.1597055,
        0.624931335,
        0.6167143,
        0.595620632,
        -0.4701212,
        -0.133552954,
        -0.4216702,
        -0.4978582,
        -0.485984176,
        0.56704,
        0.5038909,
        0.4083332,
        0.8630129,
        0.2339487,
        0.604794443,
        -0.07042205,
        0.188199267,
        0.0319324,
        -0.2104261,
        -1.22788012,
        0.478317857,
        0.584727645,
        0.7190055,
        0.123868681,
        -0.545016944,
        0.8588659,
        0.110097744,
        -0.492204279,
        -0.2961695,
        0.08006683,
        0.09078152,
        -0.0613265447,
        -0.332692057,
        -0.384897262,
        0.614126146,
        -0.541755736,
        0.03819388,
        -0.0475821756,
        0.209313363,
        -0.0579000935,
        0.729265,
        0.6679526,
        0.230842054,
        -1.09682679,
        0.229403123,
        -0.201436281,
        0.07128859,
        0.165345237,
        0.4186365,
        -0.351611733,
        0.5889279,
        0.349955529,
        0.100630224,
        -0.180451483,
        -0.314103484,
        -0.6380294,
        0.536064267,
        0.61882937,
        -0.5967184,
        -0.0573333,
        0.758050263,
        -0.2237007,
        0.23087652,
        -0.5997585,
        -0.205046669,
        -0.315598279,
        -0.8904242,
        -0.5448104,
        -0.359708548,
        -0.4554787,
        0.3714034,
        0.64192,
        0.333305985,
        -0.6996529,
        -0.26906544,
        -0.7085719,
        -0.261519283,
        0.1442544,
        -0.9100911,
        0.100736693,
        0.04685884,
        -0.346481532,
        -0.0125977015,
        0.162539,
        -0.967999,
        -0.679271638,
        -0.593337238,
        0.320056617,
        -0.5169862,
        0.342987031,
        -0.3052231,
        0.2508697,
        -0.7305906,
        -0.1397676,
        0.06235668,
        -0.752186537,
        -0.06821025,
        0.228650719,
        0.8773391,
        0.185707435,
        0.7695512,
        -0.36948055,
        -0.0633718,
        -0.507196367,
        -0.407553971,
        -0.6194379,
        0.3856667,
        0.125591889,
        -0.0164020434,
        -0.3460651,
        -0.3767215,
        1.01498258,
        0.4196549,
        0.311823338,
        0.131831974,
        0.177995682,
        0.33043918,
        0.17298533,
        -0.715929747,
        0.2964085,
        -0.0213845838,
        -0.484643519,
        0.276191771,
        -0.0385108739,
        0.313601851,
        0.179621071,
        0.0199293215,
        -0.06056115,
        1.06723762,
        0.05817358,
        0.05261695,
        -0.521698952,
        0.5812706,
        0.928765059,
        0.369163126,
        -0.8390031,
        -0.711941,
        0.401076049,
        -0.115731768,
        0.623008,
        -1.02245522,
        0.754303336,
        0.101654842,
        -0.0916883,
        0.4373535,
        0.1334786,
        -0.336678356,
        -0.0409667827,
        0.5353195,
        0.210703418,
        0.359739542,
        -0.3491127,
        -0.06610488,
        0.150285915,
        -0.29377535,
        -0.280741453,
        -0.309280723,
        0.12219955,
        -0.4207737,
        -0.171100929,
        -0.255833566,
        -0.050498955,
        -0.0103608686,
        0.4957144,
        -0.106546268,
        -0.2513556,
        0.596692145,
        -0.209376857,
        0.3903688,
        0.624999464,
        -0.13502422,
        -0.4450979,
        -0.245007634,
        0.7581967,
        0.419141263,
        0.150579169,
        -0.439609259,
        0.0381900743,
        0.8417135,
        0.434514,
        0.17132996,
        -0.4132951,
        -0.191849336,
        -1.38038242,
        1.04210448,
        -0.3754167,
        0.193997413,
        -0.378751725,
        0.05062978,
        -0.122473091,
        -0.114759974,
        0.203849658,
        -0.061536856,
        0.7466237,
        0.333552957,
        -0.182495952,
        0.137138441,
        -0.0396052562,
        -0.636119545,
        -0.6502441,
        -0.264642715,
        0.991870642,
        -0.5763838,
        -0.07465409,
        -0.5028807,
        0.662079155,
        0.380461037,
        0.123363055,
        -0.823816657,
        0.0396252349,
        0.07109019,
        -0.07066904,
        -0.436688632,
        -0.301288724,
        -0.120900162,
        -0.5605367,
        0.307179,
        0.527129769,
        1.00163937,
        -0.07008436,
        0.5900774,
        -0.631106734,
        -0.8160425,
        0.415958762,
        0.421518743,
        -0.02531275,
        0.0478591435,
        -0.101876751,
        -0.096447,
        0.7404534,
        0.311671078,
        -0.22646004,
        0.29212454,
        -0.09247638,
        -0.6098582,
        0.803113163,
        0.182985768,
        -0.2586347,
        0.6831598,
        -0.10125874,
        -0.5589391,
        0.6767777,
        -0.0579521619,
        -0.16732648,
        -0.204588383,
        -0.928717256,
        0.0006105372,
        -0.114252388,
        0.113156691,
        -0.574089766,
        0.3356739,
        -0.0891181,
        0.195930734,
        1.35768425,
        0.333387673,
        1.0031234,
        -0.5078371,
        -0.415326864,
        0.286087126,
        -0.152075008,
        -0.992526948,
        0.456910133,
        0.316179842,
        0.112781696,
        0.148861244,
        0.203353316,
        -1.08389056,
        1.04700053,
        0.394426972,
        -0.760545254,
        0.09588148,
        -0.236801729,
        0.7496912,
        -0.28560248,
        -0.9871166,
        0.371157557,
        0.09555107,
        0.195134744,
        0.889523745,
        0.447324365,
        0.242301375,
        -0.5957937,
        0.429798484,
        0.0133094229,
        0.7723985,
        0.0871942043,
        -0.2730043,
        0.554055452,
        -0.175223738,
        0.127993926,
        0.214870155,
        0.817133546,
        0.0344463736,
        0.287509829,
        0.414744765,
        0.167646855,
        0.169721887,
        -1.44342351,
        0.104738168,
        -0.109303549,
        -0.535842836,
        0.5295645,
        0.0354829319,
        0.2039136,
        -0.684583962,
        -0.824681759,
        -0.447977275,
        -0.423447,
        0.449436724,
        -0.7413347,
        -0.491409659,
        0.243413836,
        0.06344024,
        0.127880931,
        -0.8562246,
        0.284355581,
        -0.08758023,
        0.303627729,
        0.191419825,
        -0.4099248,
        -0.309358358,
        0.6271254,
        0.0448367037,
        0.181650668,
        -0.118176542,
        -0.488668442,
        0.5909523,
        -0.277835518,
        -0.08879481,
        -0.8981137,
        -0.0323290452,
        0.603061855,
        0.154205859,
        0.267743737,
        0.3475973,
        0.232559666,
        0.785970867,
        0.397743136,
        1.18257678,
        -0.394610137,
        0.437175572,
        -0.499395072,
        0.05580852,
        -0.62914,
        0.623733938,
        0.299121857,
        0.00180498778,
        -0.443009615,
        0.5034154,
        0.8341373,
        -0.396269083,
        -0.356350869,
        0.08036719,
        -0.770296037,
        -1.27458441,
        -0.74260664,
        0.3988227,
        -0.0148823755,
        -0.6102145,
        -0.720376849,
        0.08930228,
        -0.5605391,
        -0.224016353,
        -0.3251813,
        -0.239012644,
        0.239181116,
        -0.711396754,
        -0.260861665,
        -1.17760825,
        -0.128538221,
        0.979448,
        -0.2156728,
        -0.5340703,
        0.682420254,
        -0.457447648,
        -0.0002940701,
        -0.0115426909,
        -0.000643507345,
        -0.03147917,
        0.485711664,
        0.953071356,
        -0.562696934,
        0.280686855,
        0.100527659,
        0.331322432,
        0.4671492,
        -0.07911751,
        0.466936141,
        -0.06601379,
        -1.18130851,
        -0.0916383,
        -0.3715356,
        0.161869913,
        -0.334447324,
        0.7554484,
        -0.3317966,
        0.00174864265,
        -0.3219765,
        -1.10894442,
        -0.53337276,
        -0.1542854,
        -0.141834244,
        0.164466649,
        -0.725748956,
        -0.253106773,
        -0.433645,
        -0.444011867,
        -0.191865653,
        -0.6122385,
        -0.5460856,
        0.1420637,
        -0.9615194,
        -0.006701349,
        0.11996042,
        0.314341843,
        0.3824916,
        -0.398973346,
        0.517734945,
        -0.547744,
        0.0294412933,
        0.064829506,
        -0.754347,
        -0.630426943,
        1.20775545,
        -0.5916596,
        0.0424277037,
        0.203734115,
        -1.10232234,
        0.8467631,
        -0.7014376,
        -0.7879882,
        0.09795561,
        -0.169668421,
        -0.231454417,
        -0.204983324,
        0.3848688,
        0.718217432,
        -0.995962262,
        -0.327822655,
        0.362727731,
        -0.245792955,
        0.452356458,
        1.17765749,
        0.583037257,
        0.5451781,
        -0.452770442,
        -0.7922655,
        -0.153387859,
        1.14605474,
        -0.1367228,
        0.248542026,
        -0.2758499,
        0.474842,
        0.528354168,
        0.182163164,
        0.421616137,
        -0.26194042,
        0.095382005,
        -0.886841357,
        0.5705788,
        -0.150381491,
        -0.586435,
        0.417237818,
        -0.2104541,
        -0.3881254,
        0.774644434,
        0.4948624,
        -0.162783027,
        -0.23512429,
        0.454297751,
        -0.21311003,
        -1.10059917,
        -0.3260969,
        0.500090241,
        -0.1825418,
        -0.00321954815,
        -0.839424431,
        -0.0220353045,
        0.9166808,
        -0.292200357,
        -0.120244868,
        0.424816042,
        -0.6001764,
        0.21717377,
        -0.260579437,
        0.669616,
        -1.0147,
        0.376106,
        -0.429014772,
        -0.031781368,
        -1.22421336,
        0.148741677,
        -0.357930422,
        0.420705467,
        -0.5805427,
        -0.6687444,
        0.348673731,
        -0.8826139,
        0.009083638,
        0.21316199,
        -0.498305231,
        -1.56792915,
        0.5242411,
        0.300636768,
        -0.2504041,
        -0.37976104,
        -0.3056771,
        0.0504850224,
        0.2514105,
        -0.08349727,
        0.934087038,
        -0.6565628,
        0.06926802,
        -0.250314385,
        0.555351436,
        -0.878432453,
        0.181939632,
        0.32414192,
        -0.106731012,
        0.5420516,
        0.432395756,
        -0.00442332868,
        0.06907127,
        -0.204402819,
        -0.3984836,
        0.03224335,
        0.6634295,
        0.120921016,
        -0.5938763,
        -0.7455082,
        0.419950217,
        0.07527135,
        -0.7022097,
        -0.149236709,
        0.742130756,
        1.5163188,
        -0.8582601,
        0.339484334,
        -0.203348666,
        0.240661442,
        -0.110895127,
        -0.137611642,
        -0.156534478,
        -0.3452828,
        -0.550356448,
        -0.479026,
        -1.06412125,
        -0.00258137845,
        -1.525019,
        -0.315925777,
        -0.1075282,
        0.04571374,
        0.420795828,
        -0.398027,
        0.236821726,
        -0.4512635,
        0.474978358,
        0.34356,
        0.8486871,
        0.181734577,
        -0.1770865,
        -0.7374934,
        -0.124324583,
        -0.2864102,
        -0.24179922,
        -0.295882642,
        0.0901779,
        -0.1493076,
        -0.29489848,
        -0.668498337,
        -0.178534284,
        -0.934202433,
        0.5758229,
        -0.086950615,
        0.636102736,
        -0.465353131,
        0.194689661,
        -0.883965,
        0.08678923,
        -0.634534,
        -0.3102365,
        0.0241303053,
        -0.3090397,
        0.110877253,
        0.8562531,
        -0.3424217,
        0.0271990448,
        -0.897748768,
        0.60802865,
        -0.213777453,
        -0.131821275,
        -0.2769444,
        0.6009346,
        0.7011729,
        -0.5424319,
        0.647948,
        -1.18143213,
        0.44208616,
        0.934452653,
        0.00423790561,
        0.2272687,
        -0.551052034,
        0.2455927,
        0.258222818,
        -0.2857826,
        0.89427346,
        0.0260059852,
        -0.00189035106,
        0.479354829,
        -0.2658953,
        -1.014742,
        0.9128241,
        -0.111467987,
        -0.472791523,
        0.438163757,
        -0.415373385,
        0.412314624,
        -0.0149293272,
        0.09657447,
        0.800263941,
        0.6123185,
        -0.628773451,
        -0.429560959,
        1.01412821,
        0.161695123,
        0.0005861898,
        -0.303947568,
        -0.122310929,
        0.114113458,
        0.0164543986,
        -0.08957769,
        -0.563424468,
        -0.2418115,
        0.7192094,
        -0.3983997,
        -1.36653674,
        0.5174718,
        -0.7294354,
        -0.8808229,
        0.0268766377,
        -0.449186981,
        0.6924339,
        -0.0834379,
        -0.5436012,
        0.157483667,
        -0.243292078,
        0.501663566,
        0.9974208,
        -0.196938872,
        -0.119171277,
        0.676300943,
        -0.58707577,
        -0.21682936,
        0.5758628,
        -0.233572364,
        -0.19034946,
        -0.589224041,
        -0.00558192236,
        -0.5909926,
        0.602905333,
        -0.32758233,
        -0.137190819,
        -0.5408112,
        0.274820983,
        0.244514585,
        -0.006111501,
        0.9600241,
        -0.5125058,
        0.352838755,
        0.396517873,
        -0.334088743,
        0.340840638,
        -0.06794432,
        -0.182138368,
        -0.5244201,
        0.33685413,
        -0.484889716,
        0.3833026,
        -0.7643494,
        -0.676125348,
        -0.4249658,
        -0.159077391,
        -0.01149603,
        0.6774905,
        -0.08434493,
        -0.8465707,
        -0.459283084,
        -0.3022673,
        0.9177632,
        -0.0468288325,
        -0.699351966,
        1.05654013,
        0.159610778,
        -0.104609974,
        -0.07496856,
        0.387931854,
        0.4472421,
        0.160037383,
        0.8590524,
        -0.4689529,
        -0.1734897,
        -0.901068747,
        0.579752,
        0.778268337,
        -0.5871041,
        0.0783673152,
        0.178096324,
        -0.504031956,
        -0.212134644,
        0.78221,
        -0.5840849,
        0.140366822,
        0.448826641,
        0.00451061875,
        0.07209539,
        0.7849811,
        0.0955845863,
        0.355427533,
        0.09711543,
        0.107606277,
        -0.363754421,
        -0.6182882,
        -0.273625731,
        -0.224347264,
        -0.166686535,
        -0.659457564,
        -0.315018952,
        -0.247454941,
        -0.467602342,
        0.182014644,
        -0.1557697,
        0.0118710566,
        0.30776462,
        0.329282463,
        0.415916681,
        -0.180324346,
        0.207472876,
        0.208952338,
        0.0199959818,
        -0.338835716,
        -1.00998783,
        0.108998358,
        -0.796133339,
        0.204695717,
        0.8858158,
        0.261938184,
        -0.9125295,
        -0.360192627,
        -0.19493036,
        0.180351675,
        -0.0921836942,
        -0.20514594,
        -0.155681208,
        0.7751825,
        0.7785148,
        -0.0252207555,
        -0.111241892,
        -0.7673788,
        0.291989446,
        0.5014264,
        0.6568424,
        0.496403,
        0.43934232,
        -0.234423563,
        -0.003324503,
        0.311345071,
        -0.5543553,
        -0.56395334,
        0.194636017,
        0.126580179,
        -1.045505,
        -0.645769536,
        -0.09033269,
        0.5837231,
        -0.6844292,
        -0.9190758,
        0.249948278,
        -0.68636775,
        0.00180722319,
        -0.5618725,
        -0.04709102,
        -1.24694037,
        0.0540012941,
        -0.2135195,
        0.644224,
        -0.07588814,
        0.6384822,
        0.532604,
        -0.113573954,
        -0.007216591,
        -0.905541,
        -0.5822799,
        -0.4770783,
        0.119524285,
        0.5012815,
        -0.256321728,
        -0.510236263,
        -0.8731712,
        -0.2487885,
        0.0276052412,
        0.514778435,
        -0.3116102,
        -0.5760147,
        0.2541839,
        0.9619979,
        0.436002225,
        -0.5853236,
        -0.115455955,
        -0.623046637,
        0.04549169,
        0.256780058,
        -0.244332656,
        0.101520389,
        0.229128584,
        -0.238658652,
        -0.00192251359,
        0.774121344,
        -0.9415913,
        -0.688361049,
        -0.878714144,
        0.230665892,
        0.7261468,
        0.05384801,
        0.786442637,
        -0.820308,
        0.0122608934,
        -0.142844,
        -0.0170752089,
        -0.170519054,
        0.3185404,
        0.613373041,
        -0.09464821,
        -0.187278941,
        -0.580655932,
        0.309615642,
        -0.406796068,
        0.334234565,
        -0.914003432,
        -0.537161,
        0.774056137,
        0.0384204052,
        -0.0108060483,
        0.7301417,
        0.162374,
        0.165692925,
        -0.808507562,
        0.5400531,
        -0.152102962,
        -0.441476882,
        0.114530124,
        0.9842707,
        0.136528954,
        -0.11531277,
        0.191645548,
        0.5663363,
        0.5117073,
        0.04004374,
        0.23344478,
        -0.238813862,
        0.523305357,
        -0.428786933,
        -0.6081952,
        -0.172268748,
        0.511830151,
        1.13565,
        -0.4477864,
        -0.8641712,
        -0.188655511,
        -0.24996002,
        -0.0479582474,
        -0.3582382,
        -0.966731,
        0.0134408344,
        -0.2943298,
        -0.431851864,
        -0.0193862934,
        -0.492077321,
        -0.568947434,
        -0.311265558,
        0.3986769,
        0.340313941,
        0.06322378,
        -0.07622456,
        0.7095894,
        0.295237482,
        -1.12931442,
        -0.573447645,
        0.120501228,
        0.2064088,
        -0.5895466,
        0.189234316,
        1.18726552,
        0.280840665,
        -0.768438,
        -0.400216818,
        -0.497097224,
        0.238862738,
        0.562045157,
        0.0921337,
        0.0804323852,
        0.360793561,
        -0.4843469,
        0.009680882,
        0.08148348,
        -0.237207383,
        -0.324655741,
        -0.4101569,
        -1.04713368,
        0.544957757,
        0.8255401,
        -1.09717643,
        -0.4565182,
        0.3298409,
        0.107110247,
        0.329325974,
        0.327681124,
        1.1925447,
        0.5363024,
        -0.3524062,
        -0.3922037,
        0.2085445,
        -0.07547479,
        -0.6004882,
        1.663584,
        -0.154495075,
        -0.501661,
        -0.8947449,
        -0.118929148,
        -0.0823525041,
        0.742071569,
        0.2842942,
        -0.344115555,
        -0.787615955,
        0.1642639,
        0.364103675,
        -1.07089508,
        0.283967346,
        -0.292632282,
        0.544122756,
        1.32770443,
        1.03930962,
        1.27950108,
        -0.412143916,
        0.0292814262,
        -0.326076537,
        0.121860512,
        -0.777554631,
        -0.280864418,
        0.637564838,
        -0.315207154,
        0.964949,
        -0.8373747,
        0.180367053,
        0.4861018,
        -0.505676031,
        -0.134306535,
        0.146689549,
        0.2925631,
        -0.409502,
        0.15563798,
        0.348821372,
        -0.05655723,
        0.01544549,
        0.885568738,
        -0.454708964,
        0.918415844,
        -0.150371537,
        -0.471799433,
        0.269378483,
        -0.5589438,
        0.146504879,
        0.373242646,
        0.122335874,
        0.411450744,
        -0.589405954,
        -0.137461454,
        -1.18819833,
        0.218452573,
        0.08168595,
        0.0914903,
        0.827547848,
        -0.903521836,
        1.07603228,
        0.5219757,
        0.445664167,
        -0.221393168,
        -0.4257996,
        0.232982635,
        -0.027827546,
        -0.325979829,
        -0.691939533,
        -0.344227254,
        0.625161767,
        -0.521643341,
        -0.5010713,
        0.6624721,
        0.7242594,
        -0.07896795,
        0.103983015,
        0.4437152,
        -0.456487477,
        -0.350226581,
        -0.756961167,
        -1.06897628,
        -0.1827316,
        0.409819275,
        0.5769859,
        0.3607641,
        0.245326459,
        0.498527169,
        0.425844222,
        0.253991634,
        -0.0337224342,
        -0.5921326,
        -0.657060146,
        -0.7257896,
        -0.9057448,
        0.00599481165,
        0.12087328,
        -0.530154467,
        -0.3009959,
        0.03891748,
        0.154609531,
        -0.13364175,
        0.371074349,
        -1.12452483,
        1.50686216,
        1.15707779,
        -0.138228536,
        -0.0107644545,
        0.330627143,
        0.534943461,
        -0.0447464176,
        0.479486674,
        -0.460595757,
        0.3491737,
        0.279705256,
        -0.8476457,
        -0.103225537,
        0.359111577,
        0.5886808,
        -0.758569062,
        -0.949543,
        0.9431045,
        -0.332380235,
        0.7239098,
        -0.09047277,
        0.496477455,
        -1.07162368,
        -0.189477831,
        -1.13224733,
        0.7645388,
        -0.248631492,
        -0.531927645,
        0.06210682,
        0.3074167,
        0.10018453,
        -0.44925037,
        0.108898342,
        0.235922232,
        0.382602155,
        1.258848,
        0.216449931,
        0.3297921,
        0.81759274,
        0.406728685,
        -0.200512946,
        0.6360586,
        -0.0762014538,
        -0.8406609,
        -0.316495955,
        -1.54758179,
        0.2238515,
        -1.60896385,
        0.0001238444,
        0.255110919,
        1.169503,
        0.290105671,
        0.0269052424,
        0.469646782,
        0.602541149,
        -0.214357167,
        0.228919625,
        0.31567508,
        0.273722827,
        0.222726718,
        1.34968054,
        -0.9190538,
        1.28077447,
        -0.1968134,
        0.629964054,
        0.129309773,
        -0.364235073,
        -0.058909975,
        -1.2951982,
        0.5741171,
        -1.56897438,
        -0.428732723,
        0.210225984,
        -0.211866289,
        0.43039614,
        -1.13502419,
        0.111066774,
        0.5262451,
        0.08320144,
        -0.638285339,
        -0.334135026,
        -0.505267859,
        0.229832634,
        -0.0255181156,
        -0.633815765,
        0.59235996,
        -0.159171656,
        -0.174673632,
        -0.241419524,
        1.11047554,
        0.754710555,
        0.204664424,
        -0.357487559,
        -0.5084526,
        0.106960066,
        -0.553358436,
        -0.217300653,
        -0.529583931,
        -0.190901741,
        -0.050159,
        -1.47203612,
        0.546772,
        -1.34820247,
        -0.6457196,
        -0.4857347,
        -0.7133945,
        0.116133928,
        -0.276165,
        1.20642245,
        -0.6297553,
        1.27192628,
        -0.715177655,
        -0.245752931,
        -0.9078321,
        -0.0571797155,
        0.0152950427,
        -0.379224062,
        -0.7349665,
        -0.0231623147,
        -1.14844227,
        0.4363556,
        0.6197326,
        -0.38123098,
        -0.283384472,
        1.6909523,
        -1.42847633,
        0.8133427,
        0.154842585,
        -0.0526177324,
        -0.07614527,
        -0.2012582,
        -0.2446261,
        -0.061553888,
        0.2005385,
        -0.650649667,
        0.109849073,
        -0.298704237,
        -0.08862211,
        -0.531066537,
        0.5937083,
        0.317434,
        -0.9333139,
        0.112743504,
        0.6418906,
        -0.106731907,
        -0.043582093,
        -0.7479184,
        0.366340548,
        0.307489842,
        0.0669312552,
        -1.04281831,
        -0.09544,
        0.65871644,
        -0.704212368,
        -0.4828088,
        -0.8206471,
        0.8788902,
        0.197900087,
        0.400352657,
        -0.7037877,
        -0.443601668,
        0.00339551712,
        0.134741843,
        -1.62106061,
        -0.11049962,
        -0.3864725,
        0.0856728554,
        -0.7254417,
        0.5932769,
        -0.160590485,
        0.72316885,
        -0.0169223547,
        0.00297173066,
        0.8530035,
        1.21292186,
        -0.6666703,
        -0.383263558,
        0.638830066,
        -0.0241610855,
        0.06482519,
        0.008561057,
        0.07088693,
        -0.161742121,
        -0.2500941,
        -0.151699841,
        0.227955624,
        0.08015599,
        1.21194136,
        -0.629351,
        -0.136172771,
        -0.938423634,
        -0.06565037,
        -0.28653574,
        0.6905322,
        -0.1275733,
        -0.2285117,
        -1.53338861,
        -0.237465486,
        0.310303718,
        -0.202427641,
        -0.009936495,
        0.108547993,
        0.7648726,
        0.1253548,
        0.524015844,
        -0.225912422,
        0.04807255,
        0.7764537,
        0.455657274,
        -0.225108847,
        0.4468569,
        -0.5306215,
        0.6565643,
        -0.450259358,
        -0.4200477,
        -0.49555105,
        0.264611334,
        -0.200094312,
        0.158823863,
        -0.7974221,
        -0.4930132,
        -0.031192435,
        0.0197358839,
        0.3970227,
        0.258799285,
        -0.3713951,
        0.003931814,
        0.455797851,
        0.147471011,
        0.7791391,
        -0.8745466,
        0.7295271,
        -0.310394019,
        0.371646851,
        0.141786218,
        -0.617889464,
        0.864677966,
        -0.8570086,
        -0.03700393,
        0.420600653,
        -0.107719205,
        -0.290389448,
        -0.195835918,
        0.0353924036,
        -0.101405434,
        0.466166735,
        -0.461868078,
        0.2744138,
        -0.492566884,
        -0.6946017,
        -0.924671233,
        0.055475343,
        -0.109209232,
        -0.383750141,
        -0.202013835,
        0.07457928,
        -0.45201,
        -0.823873341,
        -0.01668824,
        -0.268956661,
        0.2375464,
        -0.267187148,
        0.07610138,
        -0.5089488,
        0.321378231,
        1.04875946,
        -0.4722615,
        -0.374146551,
        -0.5461274,
        -0.580561936,
        -0.29355967,
        -0.295462161,
        -0.0571492948,
        -0.8226441,
        0.2767105,
        -0.365861326,
        -0.443255156,
        0.346717536,
        -0.226144165,
        -0.203883544,
        -0.301403284,
        0.526339948,
        -0.0642873645,
        -0.285334915,
        0.2515509,
        -0.404774249,
        -0.131514862,
        -0.7008661,
        0.611086667,
        0.415052861,
        -0.174719229,
        -0.308733523,
        0.07363561,
        0.8286131,
        0.411897928,
        0.638246,
        0.23912552,
        -0.330011457,
        -0.6557217,
        -1.028526,
        -0.219304949,
        -0.03185999,
        -0.419605732,
        -1.00040114,
        -0.0206222814,
        -0.25320977,
        0.450092822,
        -0.4133393,
        0.03717938,
        -0.7445539,
        0.128797412,
        0.175541833,
        -0.467069477,
        0.219418466,
        1.04458809,
        -0.2040739,
        0.523942947,
        1.114343,
        0.112597883,
        -0.20950979,
        -0.115858309,
        0.255294025,
        -0.36985,
        -0.292915851,
        -0.348752439,
        -0.161137342,
        0.727496266,
        0.2602688,
        0.19584018,
        0.0245074369,
        0.279975474,
        -0.6113824,
        0.183138043,
        -0.531750858,
        -0.398898482,
        0.337848723,
        0.846533239,
        -0.2884369,
        0.353010029,
        -0.166558117,
        -0.06758242,
        -1.1075927,
        0.0196656752,
        0.369619638,
        -0.6090929,
        0.6040617,
        0.2797592,
        0.05692691,
        -0.2157398,
        0.0327685066,
        0.266709715,
        -0.9529627,
        0.232703477,
        0.0603146143,
        0.00316742179,
        0.149257913,
        0.8515893,
        0.626088262,
        -0.981830239,
        -0.668474257,
        -0.7542765,
        0.373538673,
        -0.292733163,
        0.306529552,
        0.3246845,
        0.6857591,
        -0.181224883,
        -0.148585469,
        -0.4643008,
        -0.288467139,
        -0.0503370948,
        -0.176058754,
        0.603211939,
        -0.19159779,
        -0.150043845,
        -0.632406056,
        -0.5775789,
        -0.108191729,
        0.439107955,
        0.172843218,
        0.322803736,
        -0.154198751,
        1.03773022,
        0.0110462606,
        -0.5292017,
        0.0617547221,
        0.278595418,
        -0.4129084,
        -0.205663636,
        -0.234536752,
        0.7730617,
        -0.868118763,
        0.08851257,
        0.07033324,
        0.6994988,
        0.7796282,
        0.32892,
        0.872670054,
        0.359047085,
        -0.3422311,
        -1.0967195,
        -0.297277868,
        0.036522042,
        0.9457876,
        0.07183893,
        -0.109647267,
        0.0599819943,
        0.4379177,
        0.3507333,
        0.238672525,
        -0.7987371,
        0.6320786,
        -0.2822225,
        -0.417624384,
        -0.06702681,
        0.2008636,
        -0.524553657,
        -0.35678646,
        -0.962714,
        -0.195282891,
        0.2556909,
        0.187874272,
        -0.0342324078,
        -0.0627354,
        -0.441327184,
        0.009285323,
        0.4740239,
        0.1387358,
        -0.08091398,
        -0.3805579,
        0.4295555,
        -0.3771111,
        -0.109922275,
        0.3653693,
        1.0102725,
        -0.7758203,
        0.214091182,
        0.65838176,
        0.07416312,
        0.542969644,
        0.248672649,
        -0.0152731761,
        -0.5403813,
        0.4679921,
        0.25772205,
        0.405620277,
        -0.2757379,
        -0.06646987,
        -0.0747250542,
        0.282049835,
        -1.11712849,
        0.569487035,
        -0.372890651,
        0.0177894067,
        1.15491474,
        0.198299214,
        0.04539608,
        0.2628762,
        0.1163774,
        -0.248162851,
        -0.31810537,
        0.625713348,
        0.5098327,
        -0.214871183,
        -0.3039851,
        -0.793874145,
        -0.3236414,
        0.391558319,
        0.249654934,
        0.0304641426,
        -0.51826787,
        -1.11919558,
        0.257372528,
        0.6479739,
        -0.7913978,
        -0.17218335,
        -0.15283823,
        -0.536653638,
        0.851211131,
        0.904394,
        -0.0476798639,
        0.276767,
        -1.14301181,
        -0.410845935,
        0.450948477,
        -0.306558132,
        -0.291815847,
        -0.257514358,
        0.106333792,
        -1.15132129,
        -1.1631124,
        -1.09674716,
        0.33484897,
        -0.46476227,
        0.377500683,
        -0.63799566,
        0.314435333,
        -1.04030037,
        1.00643444,
        -1.13503087,
        0.9674172,
        -0.3999927,
        -0.659797668,
        -0.23631303,
        -0.0828381553,
        0.5498457,
        0.0245966651,
        1.380256,
        1.06043959,
        0.267454773,
        1.59951413,
        -1.12171257,
        -0.6805354,
        -0.04724247,
        0.122789316,
        0.08559647,
        -0.00158585655,
        0.08078252,
        0.159835279,
        0.255666167,
        0.285074621,
        0.5168082,
        -0.550668359,
        -0.359456241,
        -0.4928156,
        0.8632917,
        0.14466399,
        -0.823332548,
        -0.389927179,
        -0.3022886,
        0.5630999,
        0.4548334,
        -0.03984962,
        0.265736431,
        0.389817744,
        1.09077728,
        -0.00270154327,
        0.424902022,
        0.104564145,
        0.36610043,
        0.465613633,
        -0.848405957,
        -1.15685225,
        -0.6661956,
        -0.2287466,
        -0.6694902,
        1.05023825,
        -0.5296426,
        -0.734438658,
        0.5897444,
        0.5773704,
        -0.748698,
        0.581913531,
        -0.481762558,
        0.45487228,
        -0.08710572,
        -0.453775227,
        0.420856953,
        -1.244794,
        0.0240721833,
        1.4485364,
        -0.09544722,
        0.38055107,
        -0.14443931,
        0.958360851,
        0.695936739,
        0.199737519,
        -0.274063468,
        -1.7700361,
        -0.0335932449,
        -1.843581,
        1.30010235,
        -0.3229998,
        -0.0678227246,
        0.6449928,
        0.330188274,
        0.304443568,
        -1.05833638,
        -0.09714369,
        -0.378470749,
        0.141914666,
        0.1784869,
        -0.5317469,
        -0.995757163,
        -0.314012885,
        -0.3420991,
        0.336437345,
        0.396754116,
        -0.7192226,
        0.730457366,
        0.382388979,
        -0.8938814,
        -1.1125499,
        0.9210027,
        -0.490270644,
        -0.5722006,
        0.8844424,
        -0.857926965,
        -0.5009119,
        0.256320268,
        -0.0731858462,
        0.867069662,
        0.461119622,
        -0.9012241,
        0.251942843,
        -0.8122526,
        -0.196108118,
        -0.3763441,
        -0.241082609,
        -0.756642759,
        0.8840594,
        0.116226956,
        0.02299594,
        -0.169018447,
        0.277798772,
        -0.721463144,
        0.405869454,
        0.4181018,
        -0.183993846,
        -0.2276037,
        -0.167563021,
        0.4162203,
        -0.212703481,
        -0.341299772,
        1.35340941,
        -1.43285394,
        -0.7369776,
        0.202004537,
        -0.5901017,
        -0.2785871,
        -0.1383784,
        0.6368752,
        0.509914935,
        -0.09447153,
        -0.5759791,
        0.015650887,
        -0.385235876,
        0.6830706,
        0.4145197,
        -0.6828323,
        -0.2795,
        0.0379436538,
        0.338527083,
        0.0520006046,
        -0.789475143,
        -0.04065067,
        -0.5865845,
        -0.5290671,
        0.01866318,
        1.37087083,
        -0.8901689,
        0.11709,
        0.6011163,
        0.22564818,
        0.4926929,
        -0.1756213,
        0.741054237,
        0.240979522,
        -0.0157134533,
        -0.318815082,
        0.08113916,
        -0.8987897,
        -0.8068501,
        -0.293912321,
        0.6557769,
        0.341984123,
        -0.6515053,
        -0.0680817962,
        0.1714122,
        -1.45719051,
        0.158760056,
        -1.462062,
        -0.03194906,
        0.255215257,
        -0.46424666,
        0.1126236,
        -0.635241866,
        0.6541533,
        -0.587134659,
        0.793780565,
        0.117397159,
        -0.172434717,
        0.203876883,
        0.7586483,
        -0.5098179,
        -0.2928947,
        0.480440229,
        0.0753775239,
        0.282547444,
        0.03266826,
        0.221639141,
        0.291012049,
        0.217654288,
        -0.9106448,
        -0.43809,
        0.1746451,
        -0.9835265,
        0.555615366,
        0.2672892,
        0.38731885,
        -0.5294188,
        -0.634335041,
        0.867844939,
        0.3931257,
        0.7452986,
        1.03339422,
        -0.8402719,
        0.144830063,
        0.9647559,
        -0.637926936,
        -0.216992274,
        -0.2804458,
        0.3065297,
        0.439311951,
        -0.3608304,
        0.3348545,
        0.281743228,
        -0.693064,
        1.04259574,
        1.2529068,
        -0.4034865,
        -0.36554265,
        0.868780851,
        -0.478933722,
        -0.294496179,
        -0.492059052,
        0.07301036,
        -0.14268811,
        0.5412558,
        0.500131965,
        0.344598651,
        0.5702642,
        0.408740729,
        0.1215339,
        -0.0301984288,
        0.0345071033,
        0.665567458,
        0.01810882,
        0.7936532,
        -0.336447954,
        0.06932686,
        -0.5224083,
        0.148904562,
        0.0613413937,
        -0.408978283,
        -0.3898862,
        0.300963432,
        0.179490283,
        -0.611139953,
        0.175610319,
        0.167053342,
        -0.11553254,
        0.2928667,
        0.249282688,
        0.23306939,
        0.410122037,
        0.9188197,
        -0.230223373,
        -0.318144619,
        -1.08050227,
        0.231149837,
        0.427169621,
        -0.111628272,
        -0.186751008,
        -0.5808965,
        -0.6071948,
        -1.17029011,
        0.532787859,
        0.250568241,
        0.0199288838,
        -0.666232,
        -0.363749474,
        0.5284803,
        0.147033021,
        0.00581460446,
        -0.623292446,
        -0.7815638,
        -0.6127095,
        1.19332337,
        -0.0510299578,
        -0.196990028,
        0.756055236,
        -0.09690422,
        0.4401624,
        0.332152873,
        0.339624166,
        -1.75989056,
        0.163559049,
        -0.3125597,
        0.288577527,
        0.0656149238,
        -0.295936882,
        -0.325236827,
        0.203148872,
        0.115696363,
        0.354744464,
        -0.6843994,
        -0.283828765,
        -0.687289536,
        -0.329689622,
        0.370908022,
        -0.9228847,
        0.0221867673,
        -0.0561445281,
        -0.0632551,
        -0.008818086,
        -0.5791866,
        0.291504025,
        0.724552631,
        0.0897175148,
        -0.496858835,
        0.171695083,
        0.233151063,
        -0.249941945,
        0.253503829,
        -0.2166562,
        -0.1822444,
        -0.252473146,
        0.142977968,
        0.05506358,
        -0.424804,
        -0.5086128,
        -0.329980671,
        -0.182994932,
        -1.385412,
        0.107768312,
        -0.03291866,
        -0.445901781,
        -0.9112851,
        -0.187036827,
        0.576061249,
        -0.178619474,
        0.100968391,
        0.370164484,
        0.311079055,
        -0.5939276,
        0.6001822,
        0.0597250462,
        0.24430947,
        0.181483388,
        -0.4931795,
        -0.6229392,
        0.301970035,
        -1.14542282,
        -0.328127176,
        -0.0205568224,
        -0.402336329,
        -0.212570384,
        0.511457562,
        0.775149941,
        0.4150177,
        0.197233319,
        -0.0329818465,
        0.221268013,
        -0.429398865,
        0.416109741,
        -0.481600344,
        0.812228858,
        -0.332293123,
        -0.06051513,
        0.242982537,
        -0.8483703,
        -0.963077962,
        0.0491230525,
        -0.81670326,
        -0.07143394,
        -0.23511374,
        -0.01822012,
        -0.249078631,
        0.3658648,
        -0.100917205,
        -0.48099032,
        0.143918648,
        0.437069178,
        -0.257770121,
        -0.50251615,
        0.5403122,
        0.208205879,
        -0.292843252,
        0.0430293158,
        -0.350057185,
        0.08401545,
        0.5071319,
        -0.392521948,
        0.8444214,
        0.2030144,
        -0.1072156,
        0.352408,
        0.479684442,
        -0.09327114,
        -0.0117416987,
        0.1960474,
        -0.105310038,
        0.30742538,
        1.59145212,
        0.5404533,
        -1.02654409,
        1.20197642,
        0.5433655,
        0.241297349,
        -0.378016084,
        -0.158759981,
        0.260637462,
        0.121487185,
        0.258020818,
        -0.181550026,
        -0.160312369,
        -0.3276148,
        0.7507135,
        -0.7966207,
        0.395732969,
        -0.0981384,
        0.333350927,
        0.0299378578,
        0.6245532,
        0.249182373,
        -0.780164063,
        0.0385653,
        -0.576862633,
        -0.7440221,
        0.0602726378,
        -0.3511978,
        -1.73397934,
        -0.30452773,
        -0.5206083,
        -1.22773731,
        -0.223972753,
        0.06153221,
        0.3873836,
        0.2829164,
        0.07941682,
        -0.0104353931,
        0.5373137,
        0.874110341,
        0.536076844,
        -0.8883396,
        0.9410147,
        0.187131062,
        1.01110864,
        -0.4364879,
        0.2691082,
        -0.507529855,
        0.5435162,
        -0.047409974,
        0.05805422,
        0.814568043,
        -1.00199211,
        -0.129511967,
        0.215435252,
        0.4180958,
        0.287309647,
        0.352857,
        0.110712953,
        -0.429937929,
        -0.308129132,
        -0.4437289,
        0.8095601,
        1.22899747,
        0.0166247115,
        -0.08502871,
        0.3303297,
        0.4945313,
        0.694981456,
        0.605299056,
        -0.04872044,
        -0.5972988,
        -0.563417137,
        -0.3289085,
        -0.4237499,
        0.0141250324,
        0.356868833,
        -0.753253639,
        -1.05233777,
        0.309930921,
        -1.399241,
        0.5138047,
        0.471759945,
        -0.5678344,
        -0.253739,
        0.321822941,
        0.891658664,
        0.0750534,
        1.25577855,
        0.441595435,
        1.56271183,
        -0.326587915,
        -0.203521788,
        -0.0516072847,
        0.7530687,
        -0.183707654,
        -0.314595222,
        0.427775353,
        0.439765245,
        -0.8773397,
        0.8507745,
        0.135508224,
        -0.4733934,
        -0.426934242,
        -0.289227039,
        -0.255766124,
        1.1198808,
        0.722531259,
        -0.581616044,
        0.200001821,
        -0.9261832,
        0.0114070754,
        -0.00593439955,
        0.823916852,
        -0.4710249,
        1.0391773,
        1.17714131,
        -1.27452338,
        -0.226730332,
        0.7099736,
        0.2881825,
        -0.6388735,
        0.4770405,
        -0.0162840988,
        -1.01116157,
        0.024907859,
        -0.6290207,
        0.416282862,
        -0.4690508,
        -0.414697349,
        -0.9844039,
        -0.0366731845,
        0.315781355,
        -0.9831362,
        -0.8429991,
        -1.15742171,
        0.09480737,
        -0.140410528,
        0.06255637,
        -0.334031522,
        0.380006254,
        0.112478353,
        -0.219161332,
        0.7856633,
        -0.0460389964,
        0.947120845,
        -0.296778649,
        -0.0219864883,
        0.16354984,
        -0.262808621,
        0.138839841,
        -0.5164164,
        0.9650449,
        0.151226953,
        -0.2853663,
        -0.6095868,
        -0.7031283,
        0.8090037,
        -0.0163357258,
        0.427653283,
        -0.906419337,
        0.426244855,
        -0.649519444,
        -0.140487045,
        -0.9308556,
        -0.951091468,
        -0.431857646,
        -1.0237658,
        -0.742078245,
        1.0843904,
        0.278250784,
        0.711236238,
        -0.5323314,
        -0.8016166,
        -1.2950201,
        0.41619125,
        -1.47131169,
        0.005557864,
        -0.350819141,
        0.88094,
        0.270402372,
        0.8080578,
        -0.6430988,
        -0.243276745,
        -0.273645878,
        0.6980095,
        0.157699347,
        0.338099271,
        -0.5093647,
        -1.02641773,
        0.238677159,
        -1.15275311,
        -0.317550838,
        0.415068775,
        0.0237467028,
        1.18968439,
        -0.242534474,
        -1.2307055,
        -0.609578967,
        -1.21664631,
        -0.364550322,
        -0.247235835,
        0.8628668,
        -1.11193347,
        -0.0383443832,
        0.1613761,
        0.463219821,
        -0.2802302,
        -0.3848993,
        -0.6861974,
        -0.07269199,
        -0.8419023,
        0.547973931,
        0.9859441,
        -1.74811888,
        -0.522574961,
        -0.657056749,
        -0.846930861,
        0.40873313,
        0.104170538,
        0.744887,
        -0.3368153,
        -0.8569726,
        -1.11747515,
        -0.176304087,
        -0.3941356,
        0.5132709,
        -0.246044487,
        -0.0796706155,
        -0.357492149,
        0.357175827,
        0.788313448,
        0.325991,
        0.150638908,
        -0.5582876,
        -0.8343011,
        -0.965964,
        1.11216652,
        -0.213375777,
        -0.4242214,
        -0.445798367,
        1.453833,
        0.30242452,
        0.286680669,
        0.03422171,
        0.2459522,
        0.09744323,
        0.43997705,
        -0.411005944,
        0.7964426,
        -0.836642146,
        0.913391,
        -0.5987448,
        0.0176557731,
        -0.0537498444,
        0.396580815,
        -0.171373829,
        -0.339596242,
        -0.3561941,
        -0.128444359,
        0.252637118,
        -0.05314065,
        0.6952576,
        0.1934641,
        0.117054492,
        -0.5755878,
        -0.1274967,
        -0.0704458356,
        -0.0229904279,
        -0.09343266,
        -0.8084591,
        -0.263205349,
        -0.8331649,
        -0.417718977,
        -0.336990774,
        0.461879432,
        0.6213387,
        -1.20561922,
        0.148346588,
        0.6544615,
        0.04452278,
        0.23334752,
        0.156581923,
        0.346517861,
        -0.100221962,
        -0.04187858,
        0.483580619,
        0.0908586159,
        -1.2177614,
        0.288802832,
        -0.000351428316,
        0.271094561,
        0.0833339,
        -0.39550525,
        -0.160738811,
        0.153664351,
        0.4398757,
        0.24720338,
        0.485587,
        -0.7685096,
        -0.5846326,
        0.173671514,
        -0.7856479,
        0.1610631,
        0.4793596,
        -0.254791439,
        0.374522626,
        0.8931684,
        -0.26530084,
        -0.591558,
        -0.463995934,
        0.5401525,
        -0.356163681,
        0.786138356,
        0.179371476,
        0.443335474,
        0.229854882,
        0.658533454,
        0.8055533,
        -0.08620425,
        -0.0404086448,
        0.478870124,
        0.121619813,
        -0.223735526,
        0.7191398,
        -0.266988069,
        -0.09746205,
        1.067424,
        0.224370331,
        0.338805318,
        -0.492720336,
        -0.458759964,
        0.3614673,
        0.457623333,
        0.871966243,
        -0.09886543,
        0.5629426,
        0.5645962,
        0.4209026,
        0.437430769,
        -0.342746884,
        0.180793,
        0.46453625,
        -0.505859435,
        -0.715927,
        0.3502902,
        0.271658182,
        0.9256577,
        0.641566,
        -0.4425513,
        -0.7927804,
        0.249562368,
        -0.8688566,
        1.28060567,
        0.197530419,
        -1.31270254,
        -0.5010305,
        0.289348453,
        0.6457086,
        -0.8603295,
        0.06381429,
        -0.1443802,
        -0.180078462,
        -0.321467966,
        0.3183633,
        0.5089705,
        -0.124457754,
        -0.4314186,
        0.505534,
        -1.01238656,
        -0.06239521,
        -0.000701409765,
        -0.748671949,
        0.024472,
        1.09820056,
        -0.27830863,
        -0.8772384,
        0.178623021,
        -0.430321723,
        -0.401080251,
        0.0121653974,
        -0.4651002,
        -0.316122472,
        0.398909718,
        -0.246984825,
        0.104883477,
        -0.228342652,
        -0.2241649,
        -0.2686413,
        0.313149333,
        0.9336899,
        0.358527631,
        -0.4540157,
        -0.254225552,
        0.8565002,
        -0.6377275,
        -0.3661914,
        0.254827976,
        -0.0571638122,
        -0.243032277,
        -0.6529964,
        0.3334176,
        -0.9095238,
        0.6466238,
        0.452433169,
        1.10115039,
        -0.251285285,
        -0.213255569,
        0.06834722,
        1.04502678,
        -0.8215967,
        -0.126977876,
        0.5708218,
        0.09553089,
        -0.2254856,
        0.344556272,
        0.479311675,
        -0.236368313,
        0.04564493,
        0.5811454,
        0.586931467,
        -0.690955937,
        -0.202586412,
        -0.343873918,
        0.278616935,
        -0.0692752,
        -0.06144502,
        -0.381964326,
        -0.1939031,
        0.08964225,
        -0.155805632,
        -0.158483908,
        -0.555005431,
        -0.393289715,
        0.519778132,
        0.108695984,
        -0.222010016,
        0.3946394,
        -0.399346232,
        0.0256632213,
        -0.0566489771,
        -0.06541173,
        0.375899732,
        -0.151111692,
        -0.164824262,
        0.037191,
        -0.115008324,
        0.0756136253,
        -0.07179738,
        -0.41349414,
        -0.8162487,
        0.44467625,
        -0.4644474,
        0.511537,
        0.52883935,
        -0.255587935,
        0.020593321,
        -0.685441,
        0.253286034,
        -0.524878442,
        -0.0171272345,
        -0.5459935,
        0.494343221,
        -0.120668657,
        -0.174133748,
        -0.7447102,
        -0.7957265,
        0.4463677,
        0.949979365,
        -0.5185025,
        1.11811376,
        1.30844319,
        -0.255802333,
        0.02921169,
        0.115700491,
        1.63425207,
        -0.4524686,
        -0.2204598,
        0.969931662,
        -0.5173449,
        0.411944926,
        -0.256780356,
        -0.470764428,
        -0.0333455279,
        -0.406654716,
        0.140981555,
        -0.5854916,
        -0.8418432,
        0.2657829,
        0.4187258,
        0.08628195,
        0.151047781,
        -0.43095088,
        -1.25570428,
        -0.07858447,
        1.00018,
        0.663992167,
        -0.9439789,
        0.234742835,
        -0.189179182,
        0.266836345,
        0.280177385,
        0.2576862,
        0.7803789,
        0.0406183079,
        -0.006613891,
        -1.212596,
        0.6146054,
        -0.5745503,
        1.49943781,
        0.186353773,
        -0.241882,
        -0.08516381,
        -0.03987588,
        0.407866,
        0.014289761,
        0.0203527976,
        -0.6810475,
        0.184321672,
        -0.6023749,
        0.2817441,
        -1.1312021,
        -1.25959611,
        0.1972557,
        0.176813841,
        -0.9968208,
        0.254953831,
        0.233410075,
        0.9148077,
        0.440686017,
        0.09069892,
        -0.164270923,
        -0.4129052,
        -0.31471616,
        0.663891,
        0.609946668,
        0.36706394,
        -0.2234943,
        -0.224427,
        -0.340702444,
        0.06265511,
        -0.875044942,
        -0.649738669,
        0.9114591,
        -0.5594326,
        0.0767485052,
        0.0767321438,
        -0.163533822,
        0.0624895059,
        -0.7744895,
        -0.564582467,
        0.352744251,
        -0.314604431,
        0.0444749668,
        -0.342443556,
        -0.450909585,
        -1.01811755,
        -0.823653758,
        -1.05630589,
        -0.9558182,
        0.9755474,
        0.228005111,
        0.734723568,
        0.483000726,
        1.1575073,
        1.37370861,
        -0.65509,
        0.6434285,
        -0.3219084,
        0.4428583,
        -0.0546451472,
        -0.9059457,
        -0.056056533,
        0.6151359,
        -1.17075849,
        0.302528828,
        0.272978246,
        0.46457085,
        -0.489789844,
        0.6751648,
        -0.7612715,
        1.31088483,
        0.113164835,
        -0.381286383,
        -0.280744016,
        -0.708623946,
        0.803329051,
        0.797234237,
        0.628433943,
        0.37227124,
        0.3813411,
        0.5949864,
        -0.458545625,
        0.228367642,
        0.1225048,
        -0.741774,
        -0.8874477,
        -0.433545053,
        0.450817555,
        -0.4291001,
        0.319838315,
        -0.67004323,
        -0.2521312,
        -0.988958538,
        -0.233562008,
        -0.537368059,
        0.282859385,
        0.363197923,
        -1.35791016,
        -0.4932693,
        -0.233991653,
        0.6371793,
        -0.2760615,
        -0.059513215,
        0.3575521,
        -0.242074072,
        1.92232156,
        -0.6323887,
        -0.0910571143,
        0.0994241,
        -0.06651122,
        0.833772957,
        0.00487307552,
        -0.9361706,
        -0.525226831,
        -0.184418082,
        -0.707070768,
        -0.5438309,
        -0.639267564,
        -0.3904925,
        -0.954770267,
        0.6436405,
        0.0216295384,
        0.128245011,
        -1.15466392,
        -0.803509235,
        -0.316945046,
        1.13668621,
        0.5403957,
        -0.281787843,
        -0.715728045,
        0.8798354,
        -1.23026848,
        0.242613465,
        0.3249528,
        -0.508059561,
        -0.220632643,
        -0.6363388,
        0.167875156,
        -0.108253419,
        0.1959815,
        -0.185614944,
        -0.0540794246,
        -0.210155681,
        -0.16546309,
        0.09338066,
        0.137621209,
        0.633807361,
        -0.87782836,
        -0.47514233,
        -0.416222453,
        0.232246339,
        -0.496419966,
        0.008941086,
        -0.7542055,
        0.3827877,
        -0.341264457,
        0.187275857,
        -0.0537024476,
        0.3390483,
        1.1378001,
        -0.9124092,
        -0.273177683,
        0.0499902181,
        0.4281032,
        -0.744044363,
        -0.01878239,
        -0.20860748,
        -0.07832281,
        0.370984375,
        0.0417046845,
        -0.481661767,
        -0.301930457,
        0.17002593,
        -0.04689798,
        -0.459481716,
        -0.0268435683,
        0.856730759,
        -0.107283384,
        -0.2701583,
        0.4193087,
        -1.14186168,
        -0.225334615,
        0.126961827,
        -0.393972725,
        0.704004645,
        0.175229013,
        -0.3240986,
        -0.6928568,
        -1.27317929,
        -0.6693338,
        0.452949435,
        -0.339703858,
        -0.899861455,
        0.446559459,
        -0.09011763,
        0.66417855,
        -0.445768058,
        0.18035391,
        -0.9195755,
        0.4851274,
        -0.412261128,
        0.735298455,
        0.3977222,
        -0.5292083,
        0.0614676736,
        -1.46069741,
        -0.9264303,
        0.5229852,
        -0.562348843,
        0.9291627,
        0.327476352,
        -0.730671763,
        -0.04240587,
        -0.6237218,
        0.5821615,
        0.09105014,
        0.8657208,
        -1.06630421,
        -0.11814139,
        0.148201078,
        0.8436797,
        -0.3820198,
        0.26947102,
        -0.224846631,
        -0.380704433,
        -0.1370859,
        1.112422,
        0.364576817,
        -0.39185676,
        -1.75912654,
        -0.08741855,
        0.370842,
        1.24867141,
        0.0269548353,
        -0.4929785,
        0.1075805,
        0.104081936,
        -0.0650331751,
        -0.442272455,
        -0.44464767,
        0.6840888,
        0.10703028,
        0.0260568485,
        0.02167963,
        0.800387,
        -0.7549526,
        -0.0163277145,
        0.5917742,
        -0.419544637,
        -0.339509338,
        -0.161208987,
        -0.320535928,
        0.3048709,
        -0.317553163,
        -0.736863852,
        -0.207749769,
        -0.310434759,
        0.28862676,
        -0.1972406,
        0.34981373,
        0.0199571941,
        0.381332785,
        -0.0774781555,
        -0.06743448,
        -0.252488,
        0.51527,
        0.117986061,
        -0.283703327,
        0.5854192,
        0.4884248,
        0.15408051,
        -0.105740167,
        0.236370564,
        0.00481665228,
        -0.246536374,
        -0.7565952,
        0.430686355,
        0.9565567,
        0.16426681,
        -0.008736446,
        0.7571668,
        0.0325536951,
        0.449338228,
        0.292214364,
        0.019802073,
        -0.207345262,
        0.5973004,
        0.1034437,
        0.6038081,
        0.4939233,
        -0.229973316,
        0.0218063463,
        -0.06839161,
        0.168093681,
        -0.158177659,
        -0.5112246,
        -0.404449,
        -0.220335722,
        -0.1028794,
        -0.350789875,
        -0.225549087,
        0.3798926,
        0.08155626,
        0.800170541,
        -0.851933956,
        0.146352142,
        -0.432228655,
        0.4905078,
        1.26112509,
        0.3207177,
        0.218132615,
        -0.3423799,
        -0.456491143,
        -0.247355774,
        0.373581529,
        0.194020465,
        -1.35121715,
        -0.409025759,
        0.432385176,
        -0.7238653,
        0.218283951,
        -0.441954881,
        0.3549649,
        0.5554846,
        0.299466074,
        0.844560266,
        -0.344198,
        -0.16871132,
        0.273111463,
        0.4855892,
        -0.5904543,
        0.186013356,
        1.45901525,
        -0.6047928,
        0.8831601,
        0.0243234336,
        0.2522848,
        -0.2845503,
        -0.2333084,
        0.25890702,
        0.132041767,
        0.464371651,
        0.5272228,
        0.0756543353,
        -0.6093307,
        -0.560065448,
        -0.007123017,
        -0.303205818,
        0.06619093,
        -0.364975,
        0.291970521,
        0.09985338,
        -0.7563557,
        -0.1735009,
        -0.3392401,
        -0.3951152,
        0.7217028,
        -0.283213466,
        -0.0618254542,
        0.462741047,
        0.6598393,
        -0.747100532,
        -0.8423731,
        0.8343155,
        -0.617364943,
        0.7839429,
        0.677333,
        -1.15336776,
        0.3392321,
        -0.294847757,
        -0.04297876,
        0.394694984,
        -0.205358654,
        -0.0906512737,
        0.0584545434,
        0.08031084,
        0.0017608701,
        0.0871766657,
        0.262951463,
        -0.5527891,
        -1.02949476,
        0.939206362,
        0.917406559,
        -0.0267487336,
        -0.07459896,
        0.07304083,
        -0.08627117,
        0.2882403,
        -0.657032847,
        0.0601243749,
        -0.6017128,
        0.172961146,
        0.595783651,
        0.07892904,
        0.8256417,
        -1.00920045,
        -0.9325472,
        -0.317581356,
        -0.008646904,
        -0.05823191,
        0.7880763,
        0.329448968,
        -0.158623949,
        -0.5665334,
        -0.0267344415,
        0.74412477,
        0.2949812,
        -1.228342,
        0.291429132,
        -0.214627028,
        -0.009838819,
        -0.731104255,
        -0.414852619,
        0.05966152,
        0.174243838,
        0.6136274,
        0.2433278,
        -0.487950981,
        -0.161028132,
        0.315915257,
        -0.8056772,
        -0.281151772,
        -0.0923189744,
        -0.190076858,
        0.8818556,
        -0.13008979,
        -0.9055773,
        -0.133016109,
        0.369612068,
        -0.707904041,
        -0.253175378,
        -0.103526182,
        0.208584219,
        0.247765511,
        -0.178894624,
        0.8055738,
        -0.2209136,
        -0.5939342,
        0.0418175235,
        0.665336132,
        0.2883307,
        -0.0462803431,
        -0.227385864,
        -0.568798,
        0.776330769,
        0.7990495,
        -0.175219685,
        0.157700643,
        0.929122031,
        0.268751353,
        -0.12280383,
        1.09658122,
        0.045123335,
        0.5621702,
        0.06627447,
        -0.530455351,
        -0.389774442,
        -0.141249135,
        0.550260365,
        0.186261669,
        0.61998,
        -0.182936668,
        -0.9955343,
        -0.561176,
        0.6690042,
        -0.6236046,
        -0.635995567,
        0.159360662,
        -0.0272843782,
        0.6663054,
        -0.689578,
        -0.08661177,
        0.0425099656,
        -0.665973842,
        0.0594089478,
        -0.238621354,
        0.348746,
        -0.0761683956,
        -0.345567763,
        -0.490244,
        -0.055052802,
        0.5611893,
        -1.63633871,
        -0.0275117327,
        0.491046846,
        -0.564539433,
        -0.04445425,
        -0.10187415,
        0.758600652,
        -0.8666006,
        -0.77367264,
        -0.5156994,
        0.135651156,
        -0.09279346,
        -0.5005725,
        0.07946246,
        -0.758176565,
        0.367382765,
        -1.26082253,
        0.823342443,
        -0.416915953,
        -0.582127333,
        0.150348932,
        0.000928271445,
        0.151776761,
        -0.4445216,
        0.324772447,
        -0.338900656,
        -0.66661483,
        0.0485025048,
        -0.03200288,
        -0.52787596,
        0.444317758,
        -1.16606009,
        -0.8592503,
        1.1153928,
        -0.350395828,
        0.00381146674,
        0.07553935,
        -0.285306633,
        -0.321753,
        -0.0210099015,
        -0.3178912,
        -0.349897832,
        0.861784756,
        -0.7193833,
        -0.494923085,
        0.3471785,
        0.3748365,
        0.3942276,
        0.474015325,
        0.1840278,
        -0.3724174,
        0.351178735,
        -0.6028405,
        0.108866408,
        -0.462742418,
        0.285685927,
        0.0449892879,
        -1.45587969,
        0.057654608,
        -0.5631696,
        -0.0155278258,
        0.398839921,
        0.218854532,
        0.181058154,
        -0.229727879,
        -0.0948390439,
        1.04826152,
        0.260602236,
        0.460362166,
        -0.206397,
        0.760391,
        -0.0791635141,
        0.394149065,
        -0.3631167,
        0.033074446,
        0.743309557,
        0.0453192927,
        -0.0500698723,
        -0.154874384,
        -0.187578782,
        -0.117588937,
        0.200767338,
        0.0118103586,
        0.412585825,
        0.0119983526,
        -1.84247756,
        0.6689178,
        0.474933,
        0.555113554,
        0.10544093,
        -0.223222822,
        1.118877,
        -1.23054051,
        -0.296652138,
        0.225945055,
        0.9879099,
        -0.05638322,
        0.7886103,
        0.715273,
        -0.405469716,
        -0.875140965,
        0.5506341,
        -0.00166647357,
        -0.651527,
        0.279506773,
        0.171223447,
        0.7360714,
        0.235872462,
        -0.164256945,
        -0.628338337,
        -0.4266486,
        -0.454604268,
        0.00557534862,
        0.0514844432,
        -0.03494155,
        -1.52363586,
        -0.14817822,
        -1.18258345,
        0.4476816,
        0.5072554,
        0.646125734,
        -0.748209357,
        0.8105731,
        0.214377046,
        -1.08515346,
        0.477151215,
        0.8259657,
        1.35121989,
        0.612231,
        -0.453316569,
        0.5946374,
        0.40278706,
        0.241266146,
        -0.411700457,
        0.9091387,
        -0.801097631,
        -0.8548751,
        -0.759467661,
        -0.0172028951,
        0.5305615,
        -1.36594653,
        -0.7926482,
        0.105679251,
        -0.913711548,
        0.335358679,
        -0.299172938,
        -0.5818785,
        0.2282983,
        -0.640274465,
        -0.558743656,
        -0.255289435,
        1.31177258,
        -0.212304428,
        0.401308775,
        0.55141896,
        -0.734531462,
        -0.257647038,
        0.712200463,
        -0.340889126,
        -0.11761459,
        -1.04263747,
        -0.25404337,
        -0.395086646,
        -0.13670817,
        0.2694507,
        -0.9333943,
        -0.744991541,
        0.155208945,
        0.02693556,
        -0.436687559,
        -0.210097671,
        -0.313460529,
        -0.165357038,
        -0.100815013,
        0.4222465,
        0.4229966,
        -0.5016795,
        0.633732736,
        0.9417858,
        -0.7863651,
        -0.232872143,
        -0.3901254,
        -0.3397978,
        0.462255031,
        0.398883969,
        0.154615372,
        -0.452279419,
        0.299550116,
        0.09033179,
        0.468360931,
        -0.119962931,
        -0.4290979,
        -0.143339515,
        -0.217419952,
        -0.0782398954,
        -0.347680271,
        0.429265648,
        0.373975575,
        -0.708438,
        -0.9041194,
        0.0656682849,
        -1.395313,
        0.702400148,
        0.40572238,
        -0.24982588,
        -0.5931974,
        -2.03622174,
        -0.195852071,
        -0.0121645555,
        0.1091221,
        -0.4825833,
        0.448418438,
        0.6676526,
        0.299737662,
        -0.4451592,
        -1.12928593,
        -0.669489741,
        -0.3517988,
        -0.114327639,
        0.6693682,
        -0.773207843,
        0.255189121,
        -0.13183032,
        -0.8008421,
        0.05631246,
        0.171317309,
        -0.0940553844,
        1.43340313,
        0.248696521,
        -0.09204967,
        -0.02148196,
        -1.77079654,
        -0.4007594,
        0.5978966,
        0.4331382,
        -0.322165847,
        0.0453324877,
        -0.349853754,
        0.650934041,
        0.324214965,
        0.140806839,
        -0.9116559,
        -0.462806761,
        -0.388932884,
        -0.454372376,
        0.6020479,
        -0.6231715,
        -1.14240384,
        -0.33903,
        0.13434431,
        1.0038538,
        -0.549440444,
        0.10489887,
        0.788174748,
        0.2670036,
        -0.149218991,
        -0.03296775,
        0.120221652,
        0.7718521,
        0.6436393,
        -0.314296275,
        0.2763676,
        0.620972753,
        0.288444161,
        -0.0311004128,
        0.5207235,
        -0.7868968,
        0.287729472,
        -0.732661664,
        1.07037652,
        0.540013552,
        0.209279731,
        -0.799943268,
        0.392242,
        0.3318197,
        0.424049228,
        -0.5541531,
        -0.6611842,
        0.3699929,
        -0.6305474,
        0.42267698,
        -0.427835584,
        -0.348852336,
        0.281730115,
        -0.111306712,
        0.245521232,
        0.5700539,
        0.9272325,
        0.0237069037,
        0.543701,
        -0.07570519,
        0.141584486,
        -0.0308607779,
        -0.421365947,
        -0.0625588149,
        -0.240606263,
        0.4953787,
        0.704211,
        -0.391133428,
        -0.114511788,
        -0.4648449,
        0.03923301,
        0.156368479,
        0.251581341,
        -0.106522746,
        -0.250962436,
        -0.618717551,
        -0.140966564,
        -0.542876959,
        -0.890332341,
        -0.264492869,
        0.04769851,
        -0.0502369553,
        -0.6866116,
        0.372803867,
        0.343035728,
        -0.340314537,
        -0.155393451,
        0.680446565,
        0.496063977,
        -0.7536065,
        1.52742934,
        0.252977,
        -0.0192685146,
        -0.2204819,
        0.09035568,
        0.446125984,
        0.4827146,
        0.435857922,
        0.6849183,
        -0.152579382,
        0.5146706,
        0.360204458,
        -0.0586407147,
        -0.193591371,
        0.0978026763,
        -0.6392481,
        -0.3157429,
        0.13527751,
        -0.5262047,
        -0.133868381,
        -0.922580838,
        -0.6084088,
        0.2653352,
        -0.435266078,
        -0.08619715,
        0.260343,
        0.661027968,
        -0.9472419,
        0.3856059,
        0.7785684,
        -0.146919772,
        -0.392015129,
        -0.5909801,
        0.660983145,
        0.17636621,
        0.2665066,
        -0.31371218,
        0.0840334147,
        0.97366935,
        1.296298,
        1.13885474,
        -0.4928712,
        0.394813955,
        0.288787782,
        0.2461161,
        -0.428488,
        -0.450492978,
        -0.388869166,
        0.95876503,
        0.172218248,
        0.434314668,
        0.02590599,
        1.13823307,
        0.106388725,
        0.0708452,
        -0.547431648,
        1.08309376,
        -0.08651847,
        -0.141195133,
        -0.009985583,
        -0.6378799,
        0.286432624,
        0.535508037,
        -0.101437964,
        0.291398585,
        1.16768348,
        -0.191235572,
        0.557899237,
        -0.190687686,
        -0.359895557,
        -0.349214882,
        -0.943663657,
        0.7741093,
        -0.8482313,
        0.0824656,
        -0.112993978,
        0.371974558,
        0.6315136,
        -0.5116485,
        0.212928057,
        -0.283153176,
        0.5415604,
        -1.07068062,
        -0.73404336,
        0.960799158,
        1.20711982,
        0.0387649946,
        0.5074984,
        0.19569777,
        -0.713517547,
        0.141962439,
        0.04594924,
        0.798532963,
        -0.13699691,
        -0.09078297,
        0.488630116,
        -0.411383331,
        0.286104679,
        -0.06811738,
        1.78408945,
        0.114409082,
        -0.9059412,
        0.202179775,
        0.437912881,
        -0.288150519,
        -0.3698043,
        -0.8058237,
        0.213347092,
        -0.147142872,
        -0.250074834,
        0.963206232,
        0.517640769,
        0.4229637,
        0.421766549,
        -0.198659673,
        0.1879818,
        -0.216158152,
        -0.5619826,
        -0.422917932,
        -0.455403864,
        -0.9407189,
        0.644620538,
        -0.280477881,
        -0.00418591453,
        0.24642466,
        0.6096863,
        -0.2703118,
        -1.01195133,
        0.181294456,
        0.2644309,
        -0.152929559,
        -0.276164,
        0.8355841,
        0.0602834374,
        -1.04353821,
        0.508085668,
        -0.579798937,
        0.0940034,
        0.1674946,
        1.17237067,
        0.233279034,
        0.949664533,
        -0.254149437,
        -0.429036319,
        0.294405967,
        0.319442749,
        -0.209430158,
        -0.417516917,
        0.4405213,
        0.542366445,
        0.257121444,
        -0.55104506,
        0.366669059,
        0.04265189,
        0.04569245,
        -1.22330022,
        -0.09711013,
        0.414400339,
        0.212577224,
        0.200792536,
        -0.339024961,
        -0.8317902,
        -0.5615465,
        -0.591693461,
        0.9057089,
        -0.6002571,
        0.275575727,
        -1.54802525,
        -0.164675072,
        1.16523373,
        -0.09418427,
        0.3450682,
        -1.04930627,
        0.6511356,
        0.0384707,
        0.173950985,
        0.233611435,
        0.06085395,
        0.4172769,
        -0.552978,
        -0.484798372,
        -0.196197644,
        -0.676697969,
        -0.4653884,
        0.6253493,
        0.5449405,
        -1.027494,
        -0.116252139,
        -0.06365384,
        0.3032439,
        -0.0592058077,
        0.256672442,
        0.213395149,
        -0.284147143,
        1.05420589,
        0.695603967,
        -0.6557219,
        0.9606652,
        0.154438734,
        -0.5777277,
        1.27188933,
        0.316676348,
        0.353029668,
        -0.1941596,
        0.29453373,
        -0.5401661,
        -0.137415037,
        -0.6461454,
        -0.323795021,
        -0.227700308,
        0.8101444,
        -0.6792705,
        -0.525977254,
        -0.04569677,
        0.7888971,
        0.52567637,
        -0.905856252,
        -0.6097759,
        -0.125939339,
        0.784171,
        0.03706546,
        0.156263664,
        0.424231261,
        -0.0424143523,
        0.164729714,
        0.847093165,
        0.554751456,
        -0.7397302,
        0.7684082,
        -0.243884727,
        -0.960010648,
        0.457429945,
        0.0217948183,
        0.537018359,
        -0.570394754,
        0.03838425,
        -1.24749577,
        0.17715,
        -0.179949209,
        0.996078253,
        0.4952261,
        -0.55484885,
        -0.515565753,
        -0.924370348,
        1.28811491,
        -0.365624815,
        -0.09531241,
        0.402803,
        0.0624994338,
        1.39967513,
        -0.2591576,
        0.456938177,
        0.408795536,
        0.2606314,
        0.7550621,
        0.7991225,
        0.412507147,
        -1.31564188,
        0.924248636,
        -0.42037344,
        1.24169743,
        0.191442251,
        0.7936266,
        -0.124560907,
        -1.14283216,
        -0.6309038,
        -0.268733174,
        1.03875828,
        0.2154164,
        -0.200462416,
        0.014223461,
        -0.9247011,
        -0.50730294,
        0.446477771,
        -0.178331509,
        0.636873364,
        0.9243303,
        0.384777248,
        -0.6847238,
        -1.20137787,
        -0.056184262,
        -0.256896079,
        0.136933833,
        1.14870059,
        0.8863929,
        0.962948,
        -0.258681566,
        0.03421979,
        -0.0770846456,
        -1.63374269,
        -0.3451857,
        -0.8984709,
        0.457281083,
        1.08059061,
        -0.7737372,
        0.23537223,
        -0.534779251,
        -0.6176867,
        -0.388313442,
        0.128627151,
        -0.840245366,
        -0.805627644,
        0.190062284,
        -0.950398862,
        -0.779909253,
        -0.488692522,
        0.197248936,
        0.5194145,
        1.11190581,
        -0.04875488,
        -0.09313809,
        -1.05400109,
        0.304874063,
        -0.3653442,
        -0.886864543,
        -0.327291876,
        -0.04871601,
        0.245731577,
        0.5107747,
        -0.4106605,
        0.178585365,
        1.07616687,
        0.197782367,
        0.539555252,
        0.430072665,
        -0.2474592,
        0.06878538,
        -0.137411624,
        -1.1219573,
        -0.5991783,
        -0.4252566,
        -0.7078596,
        0.5544298,
        -0.255642563,
        -0.5830622,
        -0.0165419988,
        -0.388549119,
        -0.949092269,
        -1.07787061,
        -0.634167254,
        -0.04302512,
        1.30415654,
        0.669483066,
        0.06680802,
        -0.5536465,
        -0.209408119,
        0.9806904,
        -0.791041851,
