{
  "name": "Handwritten Digits Classification",
  "neuronCounts": [
    400,
    25,
    10
  ],
  "hiddenLayers": [
    {
      "inputs": 400,
      "outputs": 25,
      "bias": [
        -0.154937088,
        -0.590325654,
        -0.653210461,
        0.168527558,
        -0.265136778,
        -0.349810183,
        0.124919839,
        -0.335993528,
        -0.2247361,
        1.65198076,
        -0.2612371,
        0.112114593,
        0.318362266,
        -0.363287568,
        0.1006568,
        -0.102762766,
        -0.261735469,
        -0.872329,
        -0.1668076,
        -0.7096553,
        0.9445102,
        -0.030461397,
        0.434268445,
        -0.455775857,
        -0.167355165
      ],
      "weights": [
        0.648115933,
        0.4364565,
        0.371134669,
        -0.348956853,
        -0.399725944,
        -0.5467779,
        0.7328601,
        -0.9216097,
        -0.605599761,
        0.317476481,
        -0.07223242,
        0.117875025,
        0.4690119,
        0.160045281,
        -0.2588911,
        -0.199833214,
        0.730728745,
        -1.03228521,
        0.0406114049,
        -0.853015661,
        0.8839672,
        -0.0241503119,
        -0.0980658,
        1.144994,
        0.119395457,
        0.1418269,
        -0.263069779,
        -0.306961775,
        -0.00142768829,
        0.389277041,
        -0.428693056,
        0.2267665,
        -0.9968641,
        0.384587526,
        -0.561575353,
        -0.328199059,
        -0.178648666,
        -0.0179796517,
        -0.146235168,
        0.539923131,
        0.3467339,
        -0.446904123,
        -0.5934455,
        0.8902432,
        -0.8317318,
        -0.543695033,
        0.087455444,
        0.131274849,
        0.5801349,
        -0.002031634,
        -0.3684596,
        -0.124830812,
        0.439000636,
        0.4707505,
        0.214834586,
        0.0363937169,
        -0.561962962,
        0.6313126,
        -0.273480952,
        0.8669855,
        -0.418987,
        -0.220029354,
        0.29538402,
        -0.340524137,
        0.5347521,
        -0.3778119,
        -0.187665373,
        0.6323944,
        -0.0818011,
        -0.110020041,
        1.48410153,
        0.5436227,
        -0.8117695,
        -0.333834648,
        -0.324086666,
        -0.1470937,
        0.262684464,
        0.225887865,
        0.228463128,
        0.0551634654,
        0.5615562,
        0.892177343,
        0.585298657,
        0.597085,
        1.07287693,
        -0.339370877,
        -0.00161133008,
        -0.313177049,
        -0.09479898,
        -0.2717381,
        -0.7043942,
        -0.10421671,
        -0.173002,
        -1.79035926,
        -0.0314864852,
        -0.143453658,
        0.15264529,
        0.507721663,
        0.225906745,
        -0.35627383,
        -0.009374138,
        0.208224073,
        -0.223500028,
        -0.2889327,
        0.379223675,
        0.453906715,
        0.112642065,
        0.134130076,
        -0.296412468,
        -0.132134229,
        -0.018032413,
        0.164023638,
        0.609177947,
        0.308562726,
        0.402659267,
        -0.283288449,
        0.232628092,
        0.390150815,
        -0.070898436,
        0.469256252,
        -0.126254514,
        -0.506129146,
        -0.5705527,
        0.025801681,
        0.135511041,
        0.4395654,
        0.412856549,
        -0.0198598355,
        0.465569645,
        0.4571195,
        -0.733994,
        -0.220813259,
        -0.304420739,
        -0.116697364,
        -0.133566871,
        0.003756574,
        -0.04350488,
        -0.8549472,
        -0.277080476,
        -0.0292586349,
        -0.476803482,
        1.00724161,
        0.238967255,
        -1.01952064,
        0.743583441,
        0.284838885,
        0.455649465,
        -0.7178127,
        -0.259435236,
        -0.310222238,
        0.445058584,
        0.0310892947,
        -0.138025418,
        -0.402911037,
        -0.488979548,
        -0.3416076,
        0.28071624,
        -0.0566182323,
        -0.450503,
        0.148847342,
        0.170489177,
        -0.254541337,
        0.7789969,
        0.009372944,
        -0.005536572,
        0.140157223,
        -0.904281259,
        0.4909801,
        0.209425837,
        -0.3242935,
        -0.020635033,
        0.703688145,
        -1.35679042,
        -0.357769132,
        -0.5202203,
        -0.1777441,
        -0.135845765,
        -0.54693073,
        0.1912639,
        -0.3952849,
        0.132549435,
        0.9927764,
        -0.00195977162,
        -0.07740337,
        -0.422985852,
        -0.447264582,
        -0.14782691,
        -0.373888135,
        -0.8199482,
        -0.7889566,
        -0.230784446,
        -0.0638338849,
        0.65560323,
        0.338137031,
        0.182562664,
        0.73951143,
        0.184403062,
        -0.222176045,
        0.104033805,
        0.398672432,
        0.672088444,
        0.7034389,
        -0.18311882,
        1.0825429,
        0.248567477,
        0.577345,
        -0.328398734,
        -0.1370378,
        -0.348192245,
        -0.518082142,
        0.136446312,
        -0.335136056,
        0.380808175,
        -0.574072838,
        -0.186334044,
        0.9360682,
        0.00244194129,
        -0.24008885,
        -0.167071477,
        0.7321327,
        0.9066688,
        -0.6134085,
        -0.422332555,
        -0.725019336,
        0.117612965,
        -0.04777866,
        -1.074725,
        0.226237327,
        0.234120339,
        1.17438149,
        0.272639781,
        1.14422154,
        1.13916361,
        0.331460685,
        -0.2737294,
        0.04663359,
        -0.490896016,
        0.55970645,
        -0.357370734,
        0.03238735,
        1.35136044,
        0.2607127,
        -1.03140235,
        0.802998364,
        0.134286672,
        0.29482013,
        -0.7563456,
        0.821022153,
        -0.479358554,
        0.320021927,
        -0.177352384,
        0.7282609,
        0.203824818,
        0.15637219,
        0.903801,
        -0.264652878,
        0.04448235,
        -0.306084663,
        0.09574739,
        0.326629162,
        0.104279816,
        0.292776942,
        0.48217833,
        0.4926379,
        0.122572377,
        -0.236403212,
        0.03483269,
        0.0367795676,
        0.143434256,
        0.1130901,
        0.53711313,
        0.177579761,
        -0.7138196,
        -0.144675583,
        0.214435369,
        0.5428628,
        0.786495566,
        -0.801836669,
        -0.24458313,
        -0.142129,
        0.926322937,
        0.117996715,
        0.4851525,
        -0.4419173,
        0.03055724,
        -0.8861088,
        -0.7586732,
        -0.5581602,
        -0.8406552,
        -0.0842509,
        0.5002866,
        -0.0244372729,
        -0.9694733,
        0.5419255,
        0.182118073,
        0.612424552,
        -0.7440596,
        0.177810058,
        -0.409946442,
        0.324077845,
        -0.131040961,
        -0.751058459,
        0.570204258,
        -0.2029187,
        -0.284712821,
        -0.316828132,
        0.162182122,
        -0.024268087,
        -0.49040097,
        0.408983767,
        -0.126927152,
        0.355729371,
        0.908909857,
        0.004240094,
        -0.398769855,
        0.6553602,
        0.08851494,
        -0.578091264,
        0.470597535,
        0.222371668,
        -0.223191872,
        0.0129274186,
        0.1645531,
        0.367432922,
        1.00582576,
        0.5278077,
        -0.364913136,
        0.6090232,
        -0.347467631,
        0.08105709,
        0.211475119,
        0.101504639,
        -0.5294854,
        0.4250689,
        -0.0260313489,
        1.49062,
        0.6345506,
        0.535206258,
        -0.517069459,
        0.3410612,
        -0.429266065,
        -0.103231363,
        -0.225328684,
        0.408998251,
        0.8858427,
        -0.0265102983,
        0.131758258,
        0.09701701,
        -0.464783758,
        -0.316571474,
        0.615380645,
        -0.487778574,
        0.803621352,
        -0.940127,
        -0.434305,
        -0.0140720205,
        0.6307188,
        -0.181349024,
        0.132609054,
        -0.601067066,
        -0.5957737,
        -0.0280403811,
        -0.0292550735,
        0.580152035,
        0.475244373,
        -0.6597911,
        0.1345842,
        -0.0399114378,
        0.328064024,
        -0.324791819,
        -0.8458801,
        -0.0245633628,
        -0.212489858,
        -0.0422192737,
        0.209255442,
        -0.3629303,
        0.04040825,
        1.12824738,
        -0.07998785,
        -0.713482857,
        0.204166815,
        0.178400531,
        0.109131411,
        -0.118984468,
        0.401732147,
        -0.512656569,
        -0.789682269,
        0.8035227,
        0.191957727,
        0.2011802,
        0.317342371,
        -1.03564656,
        -0.5722411,
        0.15825887,
        -0.525449336,
        -1.1253897,
        -0.0457692333,
        0.668858469,
        -1.01348567,
        -0.6914211,
        1.059769,
        0.08073448,
        -0.9312947,
        0.312529951,
        0.8196186,
        0.248756573,
        0.32131058,
        0.263963878,
        1.574632,
        0.930579543,
        -0.173986748,
        0.146628946,
        -0.132013932,
        -0.448453039,
        0.315097749,
        0.312149,
        -0.2510554,
        0.6741309,
        0.129205242,
        -0.431879818,
        -0.6084049,
        0.566724062,
        0.968713462,
        -0.3731978,
        -0.2910473,
        0.6482762,
        0.799516141,
        -0.174595416,
        -0.0192861184,
        -0.0521481633,
        0.646281242,
        -0.9582966,
        -0.0400711671,
        -0.684839964,
        0.396869749,
        -0.0461359732,
        -0.1345684,
        0.60200727,
        -0.9902279,
        -0.154225945,
        0.278759569,
        0.770940363,
        0.531278551,
        0.2933866,
        -0.474486828,
        -0.317665875,
        0.07005217,
        0.210395083,
        0.825143754,
        0.6348312,
        -0.3069492,
        0.5910046,
        -0.428010046,
        -0.6071484,
        -0.258538246,
        -0.5411323,
        0.48977983,
        0.191107258,
        0.116763808,
        0.141246378,
        -0.4913617,
        1.00792468,
        0.384845346,
        -0.26295945,
        -0.8810812,
        -0.03130699,
        -0.0546294972,
        -0.151417628,
        -0.8612902,
        -0.106267571,
        -0.218798712,
        0.222842366,
        -0.9240811,
        -0.07972491,
        0.00317696016,
        0.240617633,
        -0.1893555,
        -0.656647861,
        -0.8996975,
        -0.4925314,
        0.578500748,
        0.696471035,
        -0.230445817,
        0.0223992877,
        -0.255252719,
        0.200464785,
        1.03184652,
        0.431161344,
        0.2162199,
        -0.347137451,
        -0.2772045,
        0.386289269,
        0.175418764,
        0.37487188,
        1.24869835,
        0.137625158,
        -0.1040701,
        -0.155217081,
        0.406365663,
        -0.132739753,
        -0.0331121273,
        0.0302145239,
        -0.0589305758,
        0.535502553,
        -0.7196091,
        -0.405553281,
        -0.8049002,
        -0.309274763,
        -0.8529969,
        -0.372439653,
        0.451627016,
        0.213191032,
        -0.839701355,
        -0.457445234,
        0.360791028,
        0.709816337,
        -0.716098,
        0.114712186,
        -0.45972,
        -0.416206449,
        -1.14063525,
        -0.326542348,
        0.6625804,
        -0.0971731246,
        1.096942,
        0.363046378,
        0.5861957,
        0.338339984,
        -0.3829528,
        -0.8504627,
        0.392745674,
        -0.621951044,
        -0.217880726,
        0.347444922,
        0.51952213,
        -0.6622335,
        -0.7827366,
        0.378184527,
        0.126431555,
        -0.6818319,
        0.0984493941,
        -0.5287133,
        -0.0374856777,
        -0.616357863,
        -0.5803938,
        0.145486742,
        0.177273318,
        -0.6297196,
        0.176791474,
        -0.0793643445,
        0.149585292,
        0.530418754,
        0.5034083,
        -0.325746745,
        0.3944709,
        -0.145003825,
        -0.425538749,
        -1.0202955,
        -0.28251332,
        -1.04490125,
        -0.60353905,
        -0.133373767,
        0.38040933,
        0.109532788,
        0.508428931,
        -0.0114163309,
        -0.304354042,
        0.07859152,
        -0.007849482,
        0.6434435,
        0.199583545,
        -0.331382364,
        -0.291233361,
        -0.10024301,
        -0.8414421,
        -0.129119158,
        -0.325255215,
        0.398355037,
        0.006446548,
        0.20708555,
        0.8991027,
        -0.1952683,
        1.03938782,
        0.2858351,
        -0.414304942,
        0.143992886,
        0.1708478,
        -0.3492394,
        0.297625631,
        0.461193,
        0.6757306,
        0.5237598,
        -0.6361429,
        0.2344175,
        -0.536114335,
        0.0979490355,
        -0.4768706,
        -0.417514324,
        0.5693541,
        -0.03464904,
        -0.0144384615,
        0.03221839,
        0.416203618,
        0.7320667,
        0.6316924,
        -0.297623754,
        0.02441783,
        -0.8312344,
        0.285955876,
        0.129021332,
        0.389010459,
        -0.0350935757,
        -0.5023241,
        0.3458164,
        0.22889474,
        -0.8413491,
        0.28074944,
        -0.244933248,
        0.8148391,
        -0.25033775,
        0.172175139,
        -0.5950163,
        -0.2326501,
        -0.320610076,
        0.697729766,
        0.245007724,
        0.7976336,
        0.3306376,
        -0.296753079,
        -0.325908571,
        0.106908984,
        -0.0142201036,
        0.7252601,
        0.0833860859,
        -0.108277492,
        0.89678514,
        -0.008548165,
        -0.9559911,
        -0.225306228,
        -0.54419744,
        -0.326755673,
        -0.5643802,
        -0.183653668,
        -0.0382387452,
        0.4992195,
        -0.119005136,
        -0.132636845,
        0.6506328,
        -0.332870454,
        -0.4315268,
        -0.3090314,
        -0.4007987,
        -0.45112884,
        0.130766764,
        -0.417660326,
        -0.165291727,
        -0.0589404367,
        -0.7141134,
        0.247881219,
        0.0124120275,
        0.357681841,
        0.227296233,
        -0.0487683937,
        0.710818,
        0.0634536147,
        -0.08760055,
        0.8420021,
        -0.2818595,
        -0.3280789,
        -0.0568127632,
        -0.4577547,
        -0.159912974,
        0.7600512,
        0.349288046,
        -0.143904015,
        0.240520477,
        -0.2506803,
        -0.433221459,
        -0.113249205,
        -0.488582045,
        -0.498612732,
        -0.4093779,
        -0.186551839,
        -0.4964022,
        -0.333757162,
        0.322951227,
        -0.4699679,
        -0.679585755,
        0.0279700048,
        -1.29709232,
        -0.002512684,
        0.6057551,
        -0.370391846,
        0.212321579,
        0.07782044,
        -0.115944631,
        -0.108929954,
        -0.17914924,
        -0.11464867,
        -1.04503441,
        -0.2169988,
        0.302372634,
        0.519570768,
        0.302391261,
        -0.03942087,
        0.9007774,
        0.504282534,
        0.77594465,
        0.52311635,
        -0.117163524,
        0.259969145,
        0.503412366,
        -0.4010556,
        1.00187957,
        0.0129313972,
        -0.415583372,
        0.806583,
        0.522469163,
        -0.402764529,
        -0.867560267,
        -0.165309355,
        -0.213108823,
        1.37925589,
        0.3984869,
        -0.004878507,
        -0.8223838,
        0.222524434,
        0.6816736,
        0.5528644,
        -0.3099519,
        -0.104027227,
        -0.216327608,
        0.346186042,
        -0.338732332,
        -0.0731334537,
        0.891911864,
        -0.6654459,
        -0.9460863,
        0.235056072,
        0.478778332,
        -0.04600313,
        -0.07279234,
        -0.459953129,
        0.6201386,
        -0.5234355,
        -0.544237137,
        0.429032683,
        0.3679547,
        0.04672333,
        -0.193340376,
        0.1273214,
        -0.2657339,
        -0.024524305,
        -0.5954537,
        -0.288743943,
        -0.5123567,
        -0.162452519,
        -0.06544011,
        -0.383218944,
        0.03952881,
        0.540712833,
        -0.0954117551,
        -0.886907756,
        -0.252455533,
        -0.3673187,
        0.191360384,
        0.483923644,
        0.0104910573,
        -0.0176182836,
        0.249263391,
        0.155150756,
        -0.192024752,
        0.3451219,
        -0.007572248,
        -0.305479735,
        0.26736173,
        -0.491710633,
        0.390164673,
        -1.694652,
        -0.471369267,
        0.967365444,
        0.895208061,
        -0.112891905,
        0.808368444,
        0.3862536,
        -1.17084718,
        -0.462430179,
        -0.3908022,
        -0.37439394,
        -0.017303817,
        -0.0448007621,
        0.0619046,
        -0.9063614,
        0.8567343,
        0.6953246,
        0.3000675,
        -0.3178557,
        -0.7588669,
        -0.663811743,
        0.4066183,
        -0.762590468,
        0.163046464,
        0.245268956,
        0.02534849,
        0.178163335,
        -0.06115492,
        0.5888578,
        0.1471493,
        0.23015669,
        0.0194260124,
        0.224059284,
        0.123701282,
        -0.4047331,
        1.09380841,
        0.00401340658,
        0.07878722,
        -0.0540380664,
        0.06698005,
        -0.3489673,
        -0.198931918,
        -0.5013638,
        -0.478841245,
        -0.599432468,
        0.672176957,
        -0.2727994,
        -0.138522282,
        -0.286152035,
        0.4319628,
        0.009703524,
        0.208789513,
        -0.390844077,
        -0.424761146,
        -0.9586352,
        0.103418551,
        0.5228028,
        -1.38574231,
        -0.399831,
        -0.0571016669,
        0.127901465,
        0.336462,
        -0.263030231,
        0.2220677,
        0.397711843,
        -0.274471,
        -0.252858549,
        -1.07204473,
        -0.123078465,
        0.5970552,
        0.5614562,
        0.49104932,
        -0.446164161,
        -0.30992648,
        -0.04256574,
        0.174707025,
        -0.0868721753,
        1.0012455,
        -0.0713114962,
        -0.738999069,
        -0.109223329,
        0.298230231,
        -0.09503082,
        0.85669893,
        0.497948349,
        0.294532359,
        0.7389596,
        -0.705150366,
        -1.06917894,
        -0.16608499,
        0.558290839,
        -0.480695367,
        -0.008021174,
        -0.192270309,
        -0.197322369,
        -0.497080415,
        0.612317,
        -1.11278474,
        0.2263406,
        1.16308272,
        -0.355937,
        -0.5633734,
        0.174502984,
        0.124966718,
        0.3399574,
        0.226427272,
        0.0459340326,
        0.3475732,
        -0.033712253,
        0.456846,
        0.411225915,
        0.3215962,
        0.198013663,
        0.81394273,
        -0.551072955,
        -0.327341,
        -0.472558647,
        0.6284466,
        -0.9079491,
        -0.158304483,
        -0.271607041,
        -0.373392463,
        0.151762649,
        0.188885242,
        -0.07505274,
        -0.284034252,
        0.5534595,
        0.545734644,
        0.2648259,
        -0.730960846,
        0.54582715,
        0.5962273,
        0.664663255,
        0.378548682,
        -0.148856372,
        1.37550318,
        0.37528,
        -0.7057392,
        -0.3025743,
        0.656180143,
        0.597539067,
        0.116027571,
        -0.6368302,
        0.269002557,
        0.205513909,
        0.622841954,
        -0.260317773,
        -0.269319952,
        -0.742938,
        0.388805836,
        0.310585916,
        0.06534219,
        0.271496534,
        0.216701925,
        0.112719923,
        0.160596952,
        -1.10306656,
        -0.0242753215,
        -0.349303544,
        0.386781216,
        -0.924074054,
        0.271855354,
        0.29758352,
        0.230945,
        -0.4448084,
        -0.00988206,
        -0.6793265,
        0.598452032,
        0.252681941,
        -0.2976455,
        -0.7993444,
        0.254073262,
        0.5721194,
        0.008411326,
        -0.0303666834,
        0.159269825,
        -0.119995385,
        -0.2533794,
        0.520065963,
        0.1438601,
        0.58510673,
        0.871968567,
        0.0202471353,
        -0.341802746,
        -0.606900752,
        0.399228573,
        0.225749031,
        0.817702055,
        0.599003732,
        0.226893052,
        -1.0749017,
        0.1107233,
        0.0220126379,
        0.410765439,
        0.0234163459,
        -1.11010551,
        -0.08668064,
        -0.535675764,
        -0.094921194,
        0.0751716942,
        0.3616016,
        0.456217438,
        0.3820226,
        0.667201161,
        -0.5640476,
        -0.7390247,
        0.4049613,
        -0.4722451,
        -0.6385167,
        -0.08847599,
        -0.135609791,
        -0.09905215,
        -0.130896866,
        -0.457554162,
        1.16315186,
        0.332811832,
        0.392973363,
        -0.382076949,
        -0.4070316,
        -1.09450006,
        1.33492291,
        -0.1910353,
        0.09668947,
        0.8784048,
        -0.0367604457,
        0.7432729,
        -0.338342428,
        0.3727495,
        0.116272785,
        0.2666342,
        -0.8317456,
        0.813253641,
        0.3635529,
        0.480276853,
        -0.0985404,
        -0.2694147,
        0.438941121,
        -0.294299215,
        -0.1784928,
        -0.553760231,
        -0.260367334,
        -0.2657023,
        -0.0674372,
        -0.0145881353,
        1.29614711,
        -0.3253613,
        -1.16038382,
        0.3944817,
        0.00170871918,
        0.109242544,
        0.694953263,
        -0.3032425,
        0.018741997,
        0.228372067,
        1.20418394,
        -0.3834143,
        -0.080596894,
        -0.231926218,
        0.490528435,
        -1.07377946,
        0.2755784,
        -0.8580069,
        -0.381217718,
        -0.129382521,
        0.1786376,
        -0.003924461,
        0.312975347,
        0.7838766,
        -0.298990339,
        -0.301646143,
        -0.294003755,
        0.0234788638,
        -0.22816962,
        -0.243280888,
        -0.134939969,
        0.235434,
        -0.065604195,
        0.194364771,
        0.05206715,
        0.611895263,
        -0.332835585,
        -0.519406438,
        0.240410179,
        -0.8289867,
        -0.274167955,
        -0.419765323,
        -0.0329526477,
        -0.115478896,
        -0.317751348,
        0.01707913,
        0.39053753,
        -0.00899570249,
        -0.158572063,
        -0.3204223,
        -0.097416766,
        -0.559864163,
        0.264823824,
        0.278908938,
        0.17869094,
        -0.0388869531,
        -0.139490873,
        -0.6145678,
        0.523222,
        0.236652449,
        0.859865546,
        -0.226889476,
        0.7946741,
        0.3696486,
        0.339155644,
        0.215377614,
        0.4552767,
        0.3284198,
        -0.663291037,
        -0.189328954,
        -0.120866127,
        -0.371171445,
        0.508842051,
        0.314551443,
        -0.8453758,
        0.196976572,
        -0.0712294951,
        -0.109282166,
        0.185579091,
        -0.289493561,
        -0.379646957,
        0.239895165,
        -0.266849846,
        -0.3392521,
        -0.4502619,
        0.6668284,
        -0.800031543,
        0.423323542,
        0.509046555,
        -0.285281152,
        0.933240652,
        0.560146749,
        -0.5096938,
        0.0755549744,
        -0.510293543,
        -0.6295715,
        -0.3051091,
        -0.107334085,
        -0.155112579,
        0.8360834,
        -0.5242403,
        -0.608356,
        0.3785367,
        0.0915678144,
        0.4324938,
        1.05666792,
        -0.08804683,
        -0.5438162,
        0.3342269,
        0.417809516,
        0.805253565,
        0.658148,
        -0.3103627,
        0.103922106,
        0.238027781,
        -0.290690273,
        0.300164282,
        0.174047917,
        0.6839918,
        0.211948529,
        -0.3432413,
        -0.4216775,
        -0.592055738,
        0.158184543,
        0.549626946,
        0.250645846,
        0.5222842,
        -0.06208549,
        0.485483348,
        -0.14066045,
        0.253994584,
        0.111837015,
        -0.0241874214,
        0.145341039,
        -0.2985134,
        0.568598,
        -0.109583341,
        -0.668831944,
        0.106427357,
        -0.013468354,
        0.4909214,
        0.3186943,
        0.6136905,
        0.7723704,
        0.5212998,
        0.05935603,
        0.263421416,
        0.101409271,
        0.0221327133,
        0.5555821,
        0.377298653,
        -0.0207715444,
        -0.447384864,
        0.185613781,
        -0.137333587,
        0.0172742754,
        0.587776363,
        0.197344691,
        -0.9840169,
        -1.1303376,
        -0.400887549,
        0.5259807,
        -0.08360914,
        0.576791942,
        0.263562053,
        -0.607722,
        0.46551773,
        -0.7644361,
        -0.21798794,
        -0.6864178,
        -0.5906224,
        0.148210317,
        -0.5065916,
        -0.04305532,
        -0.007768732,
        -0.7005393,
        -0.129826173,
        0.6995146,
        0.6569711,
        0.377511144,
        -0.6180382,
        -0.159988955,
        -0.361795634,
        -0.438431621,
        -0.456828147,
        0.292282015,
        0.400402248,
        0.5359653,
        0.7070076,
        0.0265988838,
        0.5164109,
        0.0434527248,
        0.212229222,
        0.0436676852,
        -0.234731272,
        -1.16119385,
        0.393360525,
        0.5265295,
        0.782432139,
        0.066700615,
        -0.528370738,
        0.8707433,
        0.116678707,
        -0.486199528,
        -0.312793165,
        0.005409934,
        0.0731684,
        -0.0824896,
        -0.361367553,
        -0.358638674,
        0.459261745,
        -0.6575269,
        0.105913743,
        -0.0467060767,
        0.149264917,
        -0.0923634544,
        0.770776868,
        0.697479665,
        0.2304766,
        -1.13746727,
        0.322772324,
        -0.115567714,
        0.0461066,
        0.153841272,
        0.254370064,
        -0.323566675,
        0.579788268,
        0.287161171,
        0.09437081,
        -0.06622335,
        -0.334211618,
        -0.658103645,
        0.5031094,
        0.586842358,
        -0.590867341,
        -0.0829043761,
        0.6751098,
        -0.2034495,
        0.3089102,
        -0.538901865,
        -0.184799552,
        -0.33142978,
        -0.9300421,
        -0.559152,
        -0.3946306,
        -0.390092522,
        0.5522154,
        0.631032765,
        0.30562,
        -0.8869007,
        -0.2439739,
        -0.7555989,
        -0.315724939,
        0.1336619,
        -0.87251097,
        0.04922637,
        0.0160011929,
        -0.345386833,
        0.01771223,
        0.1708322,
        -1.01713741,
        -0.699090064,
        -0.574670434,
        0.378082067,
        -0.5191608,
        0.36015895,
        -0.282300353,
        0.248565286,
        -0.747390449,
        -0.136640832,
        0.105083115,
        -0.703744948,
        -0.0854412,
        0.223412916,
        0.7687934,
        0.231594324,
        0.708547533,
        -0.3435256,
        -0.110493347,
        -0.511078,
        -0.488731265,
        -0.627890468,
        0.43767935,
        0.160560817,
        -0.006004342,
        -0.483861178,
        -0.296383321,
        1.03056574,
        0.458661467,
        0.269525945,
        0.174256071,
        0.221851751,
        0.363199085,
        0.170772836,
        -0.7048696,
        0.179137468,
        -0.0487916954,
        -0.462851375,
        0.2921501,
        -0.160268009,
        0.3656383,
        0.141434088,
        0.09690585,
        -0.16962868,
        1.07576883,
        -0.0140780555,
        0.123373345,
        -0.466911554,
        0.583260953,
        0.950004041,
        0.178431779,
        -0.67630285,
        -0.8527493,
        0.4559859,
        -0.152743667,
        0.6997034,
        -0.931806445,
        0.8001725,
        0.0963851959,
        -0.178492352,
        0.0453293,
        0.130688891,
        -0.369441569,
        -0.05216566,
        0.507228851,
        0.201221541,
        0.34919098,
        -0.305879116,
        -0.114912629,
        0.147228256,
        -0.313655436,
        -0.233813286,
        -0.28925094,
        0.129533976,
        -0.434890062,
        -0.329068035,
        -0.0513099246,
        -0.3430384,
        0.010282631,
        0.492114455,
        -0.0511329137,
        -0.11624337,
        0.5931667,
        -0.228348821,
        0.215033159,
        0.224395975,
        -0.112458572,
        -0.5669067,
        -0.3037768,
        0.607050538,
        0.383735865,
        0.0102847712,
        -0.308875769,
        0.0450677834,
        0.834067762,
        0.4498124,
        0.119281314,
        -0.411902517,
        -0.188724145,
        -1.400837,
        0.9978423,
        -0.264615029,
        0.104347646,
        -0.401260257,
        0.0564346239,
        -0.0907544,
        -0.164140835,
        0.176620767,
        -0.07347834,
        0.7411333,
        0.2802172,
        -0.166255027,
        0.157478437,
        -0.07515204,
        -0.8990316,
        -0.717172563,
        -0.4655278,
        1.10775125,
        -0.5960753,
        -0.09602178,
        -0.507024467,
        0.679803,
        0.420338959,
        0.1284793,
        -0.832496047,
        -0.009711834,
        0.134975284,
        -0.0942828,
        -0.433637381,
        -0.289051741,
        -0.111208886,
        -0.5754751,
        0.238087431,
        0.5422643,
        1.01719093,
        -0.102636665,
        0.5966912,
        -0.644567132,
        -0.8209791,
        0.279085338,
        0.418569148,
        -0.0604750738,
        0.08591667,
        -0.126776129,
        -0.13443312,
        0.7279488,
        0.330750555,
        -0.166876,
        0.290773124,
        -0.07727206,
        -0.699792147,
        0.8532816,
        0.183097363,
        -0.25272274,
        0.7429155,
        -0.103568509,
        -0.5049936,
        0.590601265,
        -0.0492291935,
        -0.165018976,
        -0.351977855,
        -0.9439807,
        0.00543852942,
        -0.09420513,
        0.0350353271,
        -0.5426235,
        0.370872617,
        -0.0340219662,
        0.199088,
        1.36496139,
        0.338337243,
        1.0117743,
        -0.511281967,
        -0.420522928,
        0.2894238,
        -0.153582811,
        -0.9977837,
        0.458618045,
        0.320166558,
        0.114367686,
        0.150676548,
        0.206050664,
        -1.10102892,
        1.05367541,
        0.397886276,
        -0.774361432,
        0.09706122,
        -0.233598068,
        0.7600226,
        -0.289592177,
        -0.996157467,
        0.371825665,
        0.09762804,
        0.196999416,
        0.89796,
        0.451491445,
        0.244493186,
        -0.604794,
        0.4347828,
        0.0133444211,
        0.7792833,
        0.0883658454,
        -0.2777028,
        0.559251845,
        -0.176795185,
        0.129119247,
        0.216427863,
        0.8254357,
        0.0325793847,
        0.290056169,
        0.420168728,
        0.1694935,
        0.174630746,
        -1.4583112,
        0.102568664,
        -0.110489212,
        -0.541102469,
        0.5338479,
        0.0358012728,
        0.20573847,
        -0.690712154,
        -0.832066953,
        -0.451987237,
        -0.427232981,
        0.4534602,
        -0.747972548,
        -0.495809883,
        0.245576322,
        0.06400696,
        0.129029527,
        -0.863883555,
        0.2869052,
        -0.08836436,
        0.3063496,
        0.193125829,
        -0.413589627,
        -0.312121,
        0.632733047,
        0.04523987,
        0.183276862,
        -0.119232252,
        -0.49304837,
        0.5962597,
        -0.280347258,
        -0.08937062,
        -0.9062029,
        -0.03268166,
        0.6084918,
        0.155193582,
        0.270139217,
        0.350534528,
        0.234563038,
        0.7934753,
        0.401336074,
        1.19325364,
        -0.39812842,
        0.4411013,
        -0.5038556,
        0.0563543774,
        -0.6347272,
        0.629327953,
        0.301807135,
        0.00175722118,
        -0.4468548,
        0.5079956,
        0.8417376,
        -0.3994151,
        -0.3596377,
        0.08106319,
        -0.777522743,
        -1.28340566,
        -0.747945845,
        0.402697742,
        -0.0186066683,
        -0.615255,
        -0.725514352,
        0.0898171738,
        -0.572179735,
        -0.225888044,
        -0.327733874,
        -0.242669821,
        0.242001191,
        -0.716989338,
        -0.263632774,
        -1.19046593,
        -0.124045178,
        0.990697145,
        -0.220106855,
        -0.5390121,
        0.7056976,
        -0.468549848,
        0.00302075432,
        -0.0162212718,
        0.00499794772,
        -0.0565706,
        0.471731871,
        0.9623946,
        -0.5715716,
        0.3434318,
        0.09771768,
        0.3464512,
        0.478549361,
        -0.05737856,
        0.46631974,
        -0.07977469,
        -1.18890691,
        -0.09991877,
        -0.3795949,
        0.1620821,
        -0.318967432,
        0.7033271,
        -0.3603045,
        0.0360681228,
        -0.3389269,
        -1.2674284,
        -0.488818973,
        -0.210259914,
        -0.14448148,
        0.106799975,
        -0.9142026,
        -0.339446753,
        -0.45979467,
        -0.505076766,
        -0.0307299923,
        -0.617027938,
        -0.638866365,
        0.199306265,
        -0.9305748,
        -0.004602241,
        0.159123361,
        0.354380369,
        0.34571,
        -0.4840493,
        0.520872355,
        -0.4839454,
        -0.08368794,
        -0.03812815,
        -0.6423458,
        -0.59811306,
        0.747368634,
        -0.47450906,
        -0.07019924,
        0.442335933,
        -1.17923594,
        0.490225583,
        -0.720723748,
        -0.9192558,
        -0.0294144824,
        -0.00572589552,
        -0.276349425,
        -0.271911323,
        0.504350543,
        0.7176122,
        -1.07441509,
        -0.490982831,
        0.336901039,
        -0.358844936,
        0.251172155,
        1.20772755,
        0.700696766,
        0.468217582,
        -0.6017189,
        -0.8245014,
        -0.0221209228,
        0.6431035,
        -0.148419559,
        0.0212957673,
        0.0009744251,
        0.4485138,
        0.295411736,
        0.1773058,
        0.382072479,
        -0.345991969,
        0.248902813,
        -0.919782937,
        0.635877132,
        -0.245593116,
        -0.5858409,
        0.407509953,
        -0.353482246,
        -0.5415326,
        0.754463136,
        0.2475519,
        -0.144055843,
        -0.175411463,
        0.335486978,
        -0.392590582,
        -1.18206632,
        -0.213308632,
        0.3480127,
        -0.282055825,
        -0.14306204,
        -0.7001604,
        0.05092433,
        0.711405,
        -0.3607247,
        -0.155949235,
        0.480511963,
        -0.51459676,
        0.180574611,
        -0.34614113,
        0.431117684,
        -0.719225168,
        0.261141628,
        -0.563303947,
        -0.03701236,
        -1.14987731,
        -0.008751876,
        -0.361601919,
        0.429386735,
        -0.506552756,
        -0.7988053,
        0.290716648,
        -0.78272146,
        0.03711286,
        0.05423056,
        -0.400041819,
        -1.486475,
        0.5718198,
        0.452519953,
        -0.187989488,
        -0.486442029,
        -0.205768913,
        0.0314943828,
        0.08317537,
        -0.122765906,
        0.6094087,
        -0.2391442,
        0.0685039,
        -0.221441969,
        0.7317731,
        -0.7419171,
        0.213364154,
        0.325374961,
        -0.205047145,
        0.6939121,
        0.5397116,
        -0.1460914,
        0.0494068,
        -0.109790228,
        -0.4960962,
        0.255680233,
        0.5350922,
        0.0642150939,
        -0.32800743,
        -0.7365923,
        0.352765173,
        0.06288254,
        -0.74260956,
        -0.2754274,
        0.7267668,
        1.33152127,
        -0.548377,
        0.427948743,
        -0.0909754261,
        0.295434,
        -0.00473099248,
        -0.0471786521,
        -0.173582613,
        -0.333027869,
        -0.483965784,
        -0.442105383,
        -1.00713027,
        -0.197505534,
        -1.315751,
        -0.136088341,
        0.2800754,
        -0.146044463,
        0.388649583,
        -0.302114516,
        0.1588785,
        -0.4512262,
        0.343725979,
        0.3889435,
        0.841064751,
        0.128344432,
        -0.2384583,
        -0.723660946,
        -0.04199142,
        -0.235965,
        -0.339920461,
        -0.276517719,
        0.09415038,
        -0.173684672,
        -0.242061853,
        -0.4407891,
        -0.1563066,
        -0.5756098,
        0.3816719,
        -0.0663781,
        0.794923246,
        -0.220737353,
        0.120007724,
        -0.9365358,
        0.209713191,
        -0.774767756,
        -0.303414583,
        -0.07984198,
        -0.2959097,
        0.13643828,
        0.6981384,
        -0.381710827,
        -0.0345904119,
        -0.754702866,
        0.5295334,
        -0.3999016,
        0.0540294833,
        -0.269845843,
        0.5605905,
        0.636442661,
        -0.366525173,
        0.788699269,
        -0.7052735,
        0.3520323,
        0.6379907,
        -0.05038402,
        0.284235239,
        -0.4190752,
        0.0575624928,
        0.2811936,
        -0.447671741,
        0.9325652,
        0.0359679647,
        -0.007108537,
        0.48495394,
        -0.5015134,
        -0.7822906,
        0.852689564,
        -0.0199121349,
        -0.532924056,
        0.382745534,
        -0.1912965,
        0.376200765,
        -0.0309759267,
        0.0699004456,
        0.5153966,
        0.591425538,
        -0.4066904,
        -0.4137387,
        1.09952736,
        0.04585126,
        0.0759752,
        0.0563985519,
        -0.4598073,
        0.08461133,
        -0.06511103,
        0.08698562,
        -0.5301445,
        -0.275681,
        0.6336585,
        -0.5169223,
        -0.92136085,
        0.446755648,
        -0.6202388,
        -0.9091959,
        0.216833621,
        -0.473014623,
        0.515826344,
        -0.08262643,
        -0.49704656,
        -0.444849581,
        -0.17271246,
        0.6069836,
        0.9396998,
        0.111428723,
        -0.163489431,
        0.6743754,
        -0.242722958,
        -0.476760477,
        0.505594969,
        -0.279943645,
        -0.0607175,
        -0.403728247,
        -0.0326243,
        -0.638547659,
        0.5283162,
        0.1519393,
        -0.3872127,
        -0.401642233,
        0.256831467,
        0.544100165,
        -0.145145223,
        0.6505834,
        -0.4197679,
        0.31859237,
        -0.1442455,
        -0.283772767,
        0.374024838,
        -0.138488725,
        -0.436045319,
        -0.540166438,
        0.228867233,
        -0.243055433,
        0.251774371,
        -0.81722647,
        -0.622609,
        -0.360792071,
        -0.06938969,
        -0.0744181946,
        0.647563159,
        -0.184661776,
        -0.5609314,
        -0.7871483,
        -0.237741739,
        0.8499647,
        0.072683,
        -0.9234467,
        0.904226363,
        0.212498665,
        -0.2964336,
        -0.197506249,
        0.407592416,
        0.327181727,
        0.08528241,
        0.554808438,
        -0.5534013,
        -0.262901932,
        -0.6904482,
        0.5605223,
        0.7156496,
        -0.54211247,
        0.10435231,
        0.17347911,
        -0.4949019,
        -0.287595,
        0.614159,
        -0.4427322,
        0.0223620739,
        0.4739533,
        -0.0260961,
        0.08675422,
        0.688130856,
        0.08005409,
        0.320075572,
        0.01686934,
        0.0880622044,
        -0.308115542,
        -0.6350656,
        -0.266214758,
        -0.4156803,
        -0.255983829,
        -0.62153995,
        -0.337287247,
        -0.279614359,
        -0.5745988,
        0.124618545,
        -0.136073813,
        0.0362228043,
        0.36188817,
        0.268085837,
        0.184760123,
        -0.0996914655,
        0.13725549,
        0.176715463,
        0.0535646565,
        -0.353927463,
        -0.8878735,
        0.1751583,
        -0.8060319,
        0.201834038,
        0.546784341,
        0.308135122,
        -0.8323069,
        -0.2521414,
        -0.278524041,
        0.220726088,
        0.09785579,
        -0.222149864,
        -0.160905376,
        0.7476521,
        0.7435428,
        -0.02480175,
        -0.131297842,
        -0.7350502,
        0.316224784,
        0.4871727,
        0.66052264,
        0.48733905,
        0.386705071,
        -0.245247081,
        -0.0170967337,
        0.360633343,
        -0.5987386,
        -0.5827806,
        0.19740279,
        0.0675960854,
        -1.05759609,
        -0.6318394,
        -0.0617915131,
        0.5043799,
        -0.684728861,
        -0.8990477,
        0.261798739,
        -0.691134,
        0.00370391761,
        -0.5676068,
        -0.04786747,
        -1.26734233,
        0.06285535,
        -0.215180591,
        0.650918365,
        -0.07965473,
        0.639484167,
        0.531067967,
        -0.118354633,
        -0.008227276,
        -0.918455839,
        -0.5852916,
        -0.48716867,
        0.120559819,
        0.515706,
        -0.261017323,
        -0.5091887,
        -0.8888352,
        -0.262316048,
        0.0286449846,
        0.512312055,
        -0.312619269,
        -0.581179,
        0.256485581,
        0.970610261,
        0.439870775,
        -0.590564966,
        -0.11649172,
        -0.628631055,
        0.04589897,
        0.2590815,
        -0.246524975,
        0.102429688,
        0.231185928,
        -0.240770578,
        -0.001939759,
        0.7810542,
        -0.95001924,
        -0.694523156,
        -0.8865807,
        0.232749328,
        0.7326433,
        0.0543521754,
        0.7934661,
        -0.827622831,
        0.0123199746,
        -0.1440134,
        -0.0167110674,
        -0.171071947,
        0.321793616,
        0.6188761,
        -0.09557129,
        -0.18913056,
        -0.58572036,
        0.3114192,
        -0.413790464,
        0.3359273,
        -0.922168434,
        -0.54185915,
        0.7797594,
        0.03939431,
        -0.0104306191,
        0.736679137,
        0.163071528,
        0.167199865,
        -0.8160812,
        0.544712961,
        -0.152687147,
        -0.444197863,
        0.11595989,
        0.994540155,
        0.1369983,
        -0.11787878,
        0.172147959,
        0.5736485,
        0.5152697,
        0.0413754173,
        0.2316356,
        -0.241468981,
        0.532435358,
        -0.4201151,
        -0.615421534,
        -0.1761079,
        0.519048452,
        1.14685476,
        -0.462656826,
        -0.872147858,
        -0.190120727,
        -0.25221163,
        -0.03961504,
        -0.3532308,
        -0.9740206,
        0.0153026674,
        -0.2868503,
        -0.435213149,
        -0.0237219725,
        -0.5034799,
        -0.6179619,
        -0.426287472,
        0.315241277,
        0.361216873,
        0.0594591945,
        -0.00504697533,
        0.704763353,
        0.372434527,
        -0.8778939,
        -0.406519741,
        0.13553521,
        0.2215922,
        -0.5070232,
        0.184991956,
        1.16203761,
        0.279885828,
        -0.6906464,
        -0.48186332,
        -0.5311044,
        0.27579987,
        0.4972669,
        -0.1341471,
        0.08650024,
        0.272412777,
        -0.5479083,
        -0.212117627,
        -0.267032981,
        -0.470416635,
        -0.180289015,
        -0.424163938,
        -0.8395596,
        0.4918391,
        0.8257725,
        -0.6256089,
        -0.246648625,
        0.412412554,
        0.115132377,
        0.440441519,
        0.3066635,
        0.9684613,
        0.5745176,
        -0.190337911,
        -0.439684778,
        0.04776986,
        0.09613504,
        -0.616272867,
        1.2340585,
        -0.23979038,
        -0.5119263,
        -0.6439591,
        -0.3146447,
        -0.317830324,
        0.6939809,
        0.32964918,
        -0.492560416,
        -0.6038132,
        -0.09491744,
        0.3618076,
        -0.80848515,
        0.305350125,
        -0.363459051,
        0.24427481,
        1.24688709,
        0.838433564,
        1.06329834,
        -0.286868364,
        0.140481621,
        -0.317596257,
        -0.0246632136,
        -0.7983356,
        -0.175530747,
        0.600087941,
        -0.572244942,
        0.865751266,
        -0.3622289,
        0.16734609,
        0.440658122,
        -0.6534052,
        -0.100088641,
        0.05218353,
        0.326265574,
        -0.546231031,
        0.189123139,
        0.326397032,
        0.208094835,
        -0.104144387,
        0.662916958,
        -0.716423631,
        0.8239996,
        -0.3519117,
        -0.3962722,
        0.290567726,
        -0.7424869,
        0.00158814155,
        0.2337966,
        0.243122026,
        0.489844531,
        -0.689058959,
        -0.07029936,
        -0.8442423,
        0.2778323,
        0.144304737,
        0.07441313,
        0.732036948,
        -0.7674535,
        0.9575629,
        0.4376491,
        0.413471,
        -0.2809196,
        -0.0372943319,
        0.145448446,
        0.0184652023,
        -0.2588222,
        -0.564358056,
        -0.305390358,
        0.6404317,
        -0.5276155,
        -0.613076,
        0.6708973,
        0.848775268,
        0.05828912,
        0.00165906944,
        0.319849551,
        0.0167081524,
        -0.187980875,
        -0.8033628,
        -0.600744963,
        0.161216915,
        0.275220484,
        0.544952631,
        0.146970451,
        0.0246949624,
        0.43076238,
        0.445611835,
        0.252678871,
        0.184499756,
        -0.271535158,
        -0.380473167,
        -0.483938,
        -0.399388641,
        0.0107599348,
        0.0435155332,
        -0.5328901,
        0.07032874,
        0.296450317,
        0.0528499968,
        0.100011192,
        0.08673992,
        -0.564908862,
        1.23380232,
        1.0361259,
        0.214401528,
        0.251894832,
        0.259901017,
        0.24691236,
        -0.0254138242,
        0.202928558,
        -0.492401451,
        0.2560759,
        0.049184572,
        -0.693046331,
        0.239809975,
        0.37332648,
        0.733962655,
        -0.328897119,
        -0.9488216,
        1.11424136,
        -0.226849422,
        0.7998222,
        0.108616374,
        0.246972173,
        -0.578774035,
        -0.118018992,
        -0.552737236,
        0.61273694,
        -0.331444532,
        -0.624279141,
        0.148521051,
        0.411613226,
        -0.279517472,
        -0.09368091,
        -0.0418029875,
        0.115830153,
        0.359875947,
        0.822869,
        0.298880875,
        0.276098758,
        0.466978878,
        0.32084468,
        -0.17992,
        0.595438063,
        0.211789414,
        -0.4303217,
        -0.6789049,
        -0.9271802,
        0.04330233,
        -1.4865973,
        0.201753572,
        0.492100447,
        1.16210163,
        0.336148173,
        0.041697856,
        0.5221361,
        0.5747942,
        -0.256702721,
        0.219406635,
        0.3338315,
        0.222333074,
        0.360945463,
        1.01937783,
        -0.7001994,
        1.0231477,
        -0.5271591,
        0.6464296,
        0.299233049,
        -0.4624092,
        0.0317945443,
        -0.8869214,
        0.607972443,
        -0.73524344,
        -0.5534833,
        0.0517768264,
        -0.3594743,
        0.5256569,
        -0.981942832,
        0.126084521,
        0.674414635,
        0.281406015,
        -0.8542289,
        -0.355754256,
        -0.8250898,
        0.271350741,
        0.0296537355,
        -0.34947142,
        0.453969181,
        -0.1062409,
        -0.316723377,
        -0.433945656,
        1.30375457,
        1.02458811,
        0.0156356525,
        -0.297432959,
        -0.40489313,
        0.243686557,
        -0.4006075,
        -0.325999737,
        -0.154757515,
        -0.234062627,
        -0.1370151,
        -0.916697,
        0.332709521,
        -1.17093909,
        -0.4282311,
        -0.5124145,
        -0.88232857,
        -0.0179613922,
        -0.5570097,
        1.45018089,
        -0.5679171,
        1.26242065,
        -0.622085333,
        -0.0586016625,
        -0.8359806,
        0.00482368376,
        -0.288320363,
        -0.307879865,
        -0.405191958,
        -0.313516378,
        -1.1792475,
        0.458073646,
        0.622974,
        0.197107315,
        -0.09723793,
        1.59586573,
        -0.9319659,
        0.582109153,
        -0.09819189,
        -0.24170588,
        -0.394156426,
        -0.04218208,
        -0.2822456,
        -0.229305223,
        0.29039228,
        -0.5811433,
        0.320260644,
        -0.147767723,
        0.217163607,
        -0.0108461026,
        0.491840363,
        -0.145304963,
        -0.512131,
        0.308346,
        0.299872518,
        -0.156868681,
        0.259857863,
        -0.48219046,
        0.5749722,
        0.327932566,
        -0.0537086874,
        -0.7771246,
        -0.07934572,
        0.437919,
        -0.87107414,
        -0.973163843,
        -0.6411583,
        0.6699585,
        0.2553947,
        0.325753182,
        -0.662549734,
        -0.3250691,
        0.06302939,
        -0.0616075359,
        -1.23122859,
        -0.349850982,
        -0.345917434,
        0.155338228,
        -0.999956667,
        0.8415487,
        -0.0417656265,
        0.596585155,
        0.167835891,
        0.1002858,
        0.6982099,
        1.08779991,
        -0.592248857,
        -0.09902419,
        0.3417172,
        0.03920575,
        0.0062897224,
        0.03700097,
        -0.0421004854,
        -0.0772394761,
        -0.4882935,
        0.00433052471,
        0.2130058,
        0.0250118338,
        0.8650263,
        -0.597525835,
        -0.2810689,
        -0.7965271,
        -0.3505971,
        -0.471326351,
        1.04164958,
        -0.04441725,
        -0.294579178,
        -1.44996762,
        -0.06979277,
        0.0147560062,
        -0.172182441,
        -0.100632511,
        0.3068115,
        0.544362962,
        0.0894067362,
        0.5974776,
        -0.338395566,
        0.143812642,
        0.814534843,
        0.178408831,
        -0.08033324,
        0.323908478,
        -0.62422514,
        0.5856522,
        -0.598464,
        -0.218292519,
        -0.300110549,
        0.03760235,
        -0.229272708,
        -0.03918946,
        -0.7762953,
        -0.259506851,
        0.009041328,
        0.0877928138,
        0.352393121,
        0.476075023,
        -0.515654862,
        0.0169111975,
        0.43405655,
        0.04348488,
        0.800757766,
        -0.931354046,
        0.8373761,
        -0.26525408,
        0.30679813,
        0.106904954,
        -0.643847048,
        0.7868058,
        -0.9182012,
        -0.04304115,
        0.542327,
        -0.09786424,
        -0.3095117,
        -0.198019743,
        -0.0195451211,
        -0.105374806,
        0.515984654,
        -0.4409442,
        0.103503779,
        -0.491287559,
        -0.6276077,
        -0.8956605,
        0.0550819673,
        -0.10590066,
        -0.388897359,
        -0.202810585,
        0.07551647,
        -0.439317226,
        -0.837705553,
        -0.0220165681,
        -0.277415335,
        0.2448331,
        -0.276397347,
        0.05721298,
        -0.508013368,
        0.323216766,
        1.07488728,
        -0.4743049,
        -0.377088428,
        -0.53742075,
        -0.5982751,
        -0.293818742,
        -0.3011359,
        -0.06287075,
        -0.827756643,
        0.2733918,
        -0.360868543,
        -0.447236121,
        0.350243181,
        -0.228151172,
        -0.205555648,
        -0.304110527,
        0.5309483,
        -0.06485335,
        -0.287884921,
        0.253852248,
        -0.408292651,
        -0.132675648,
        -0.7073513,
        0.616359234,
        0.4187701,
        -0.176303476,
        -0.311496079,
        0.074290894,
        0.8360076,
        0.415389836,
        0.6439236,
        0.2408297,
        -0.3323063,
        -0.661981642,
        -1.03727877,
        -0.221377313,
        -0.0313719362,
        -0.426838815,
        -1.00735009,
        -0.01790307,
        -0.2569784,
        0.4522582,
        -0.416744828,
        0.0351266339,
        -0.7555988,
        0.123256542,
        0.1761836,
        -0.4701499,
        0.221622586,
        1.05599833,
        -0.204174325,
        0.5284325,
        1.12146044,
        0.112973876,
        -0.210169986,
        -0.1174341,
        0.260706931,
        -0.376909077,
        -0.298274726,
        -0.350852579,
        -0.162847325,
        0.7341335,
        0.2946287,
        0.193405822,
        -0.00277508143,
        0.297984183,
        -0.611569941,
        0.1787696,
        -0.5055023,
        -0.3729795,
        0.409939528,
        0.8591068,
        -0.2793997,
        0.343074918,
        -0.204267785,
        -0.07865636,
        -1.11942458,
        0.0324260145,
        0.412045,
        -0.611801863,
        0.6034545,
        0.257663459,
        0.09571398,
        -0.206602544,
        0.0198632926,
        0.287011474,
        -1.00832283,
        0.0557815842,
        -0.142107263,
        -0.0578973554,
        0.214430481,
        0.9517021,
        0.618531048,
        -0.8776447,
        -0.283078939,
        -0.330849349,
        0.404057831,
        -0.2146082,
        0.39523533,
        0.32084325,
        0.567551136,
        -0.1597744,
        0.04525982,
        -0.513383031,
        -0.427399337,
        0.005997033,
        -0.292694867,
        0.285540938,
        -0.160409421,
        -0.2040288,
        -0.801332653,
        -0.654774368,
        -0.237745851,
        0.264134228,
        0.144942492,
        0.431377441,
        0.0244558472,
        0.864686966,
        -0.0166256446,
        -0.07626312,
        0.26925832,
        0.291974455,
        -0.246553972,
        -0.16591844,
        -0.239526778,
        0.444464684,
        -0.6446674,
        0.299178123,
        0.140767932,
        0.3653155,
        0.8307728,
        0.249159917,
        0.554492354,
        0.32673493,
        -0.4575508,
        -0.8029078,
        -0.326911569,
        0.081774354,
        0.832378268,
        -0.0152112292,
        -0.215965,
        -0.0275380015,
        -0.0198167525,
        0.06486834,
        0.248347819,
        -0.642111063,
        0.472658962,
        -0.329551429,
        -0.4889077,
        -0.236217842,
        0.1875761,
        -0.225214556,
        -0.42816326,
        -0.9025967,
        -0.2314706,
        -0.0642898,
        0.295011729,
        0.344728678,
        -0.15192239,
        -0.638007164,
        0.3632464,
        0.59298,
        -0.122349285,
        -0.173738822,
        -0.483623832,
        0.3482742,
        -0.5117585,
        -0.242278889,
        0.256462216,
        0.761368454,
        -0.5889176,
        -0.04060028,
        0.443962336,
        -0.12684764,
        0.38131693,
        0.174973533,
        0.110586978,
        -0.669352949,
        0.3882607,
        0.168576822,
        0.263865858,
        -0.193747148,
        -0.114561662,
        0.0410489962,
        0.270089,
        -0.979396164,
        0.713980258,
        -0.719813645,
        0.252204776,
        0.86482054,
        0.436582625,
        -0.2510344,
        0.335127234,
        -0.03560188,
        -0.4242257,
        -0.3156874,
        0.471164584,
        0.4275282,
        -0.1920929,
        -0.381275475,
        -0.8649521,
        -0.3035925,
        0.2922762,
        0.190814838,
        -0.0282558538,
        -0.4178287,
        -0.9892294,
        0.0208487529,
        0.708345234,
        -0.542517841,
        -0.07718083,
        -0.2747817,
        -0.410620362,
        1.08228087,
        0.807374656,
        -0.2641072,
        0.106446572,
        -0.9970419,
        -0.525984049,
        0.185675174,
        -0.6871505,
        -0.2907875,
        -0.213276818,
        -0.00283923186,
        -0.999255955,
        -1.27699,
        -1.1385932,
        0.328781068,
        -0.6109969,
        0.237145916,
        -0.7417869,
        0.405079067,
        -0.6538375,
        1.10732734,
        -0.772476435,
        1.01000631,
        -0.662679732,
        -0.210141525,
        -0.117689729,
        -0.08066909,
        0.24234122,
        0.12697269,
        1.31045175,
        1.0929749,
        -0.07474139,
        1.04613221,
        -1.09610021,
        -0.356117,
        -0.05670295,
        0.144024834,
        -0.09212622,
        -0.0555139147,
        0.304760575,
        0.2068384,
        0.111994416,
        0.20004423,
        0.587029,
        -0.472566932,
        -0.09868011,
        -0.137601957,
        0.768457234,
        -0.00331894448,
        -0.6374526,
        -0.246769175,
        -0.386493266,
        0.6984313,
        0.7702344,
        -0.252880335,
        0.4370591,
        0.234688714,
        0.546016,
        0.06421051,
        0.463217884,
        0.112350948,
        4.499033E-05,
        0.5148288,
        -0.8181554,
        -0.8920499,
        -0.006313892,
        -0.217705786,
        -0.468833268,
        1.08803046,
        -0.705605149,
        -0.5261724,
        0.7285229,
        0.470939219,
        -0.673734963,
        0.566237032,
        -0.330445647,
        0.185200125,
        0.0034466302,
        -0.227205485,
        0.41438362,
        -1.066239,
        -0.0756844953,
        0.97287,
        0.174677581,
        0.2458998,
        -0.3043966,
        0.7314409,
        0.3938845,
        0.316941142,
        -0.0459883474,
        -1.17603457,
        0.08318013,
        -1.45439136,
        1.14873493,
        -0.296788484,
        -0.04100794,
        0.438361079,
        0.461235881,
        0.3126839,
        -0.965866566,
        0.0668275654,
        -0.616715252,
        0.1571063,
        -0.08700922,
        -0.4279065,
        -0.9920073,
        -0.686216235,
        -0.519890368,
        0.458859533,
        0.5367501,
        -0.9660623,
        0.7910288,
        0.39198494,
        -0.8554323,
        -0.9624232,
        1.04150581,
        -0.493241251,
        -0.7503137,
        0.5739723,
        -0.453253835,
        -0.431510061,
        0.165723145,
        -0.140230238,
        0.8674858,
        0.6510948,
        -0.6780621,
        0.3677425,
        -0.711171269,
        -0.480568677,
        -0.487890333,
        -0.3225482,
        -0.417030215,
        0.505894959,
        0.220134825,
        0.155103639,
        -0.269830972,
        0.338296324,
        -0.71202606,
        0.498252422,
        0.7428625,
        -0.475540429,
        -0.229327992,
        -0.365384847,
        0.234066263,
        -0.393126279,
        -0.285967916,
        1.09914529,
        -1.29360473,
        -0.701216161,
        0.00363208679,
        -0.571245432,
        -0.32865867,
        0.0309662744,
        0.4335225,
        0.398209572,
        -0.2222984,
        -0.296090364,
        -0.213952482,
        -0.351403266,
        0.934779465,
        0.684998,
        -0.773173869,
        -0.245789915,
        0.192240015,
        0.543367,
        -0.412340522,
        -0.6947917,
        0.104063325,
        -0.199741021,
        -0.239665836,
        -0.06252477,
        1.17490947,
        -0.5209794,
        0.241210818,
        0.344557375,
        0.007177598,
        -0.33028388,
        -0.0133196469,
        0.51039356,
        0.168259919,
        -0.08806647,
        -0.3858095,
        0.6523534,
        -1.028289,
        -1.07456863,
        0.0621970445,
        0.617043853,
        0.9205318,
        -0.7320101,
        -0.3097278,
        0.380123377,
        -1.22359061,
        -0.120023645,
        -1.08062088,
        0.08613446,
        0.073551,
        -0.622346044,
        -0.00751530332,
        -0.132552877,
        0.6182727,
        -0.4648355,
        0.4536712,
        0.07095586,
        -0.2495428,
        0.154710308,
        0.5821522,
        -0.712602556,
        -0.10964559,
        0.323487878,
        -0.191046447,
        0.2819044,
        0.00553224329,
        0.5505935,
        0.0482439846,
        -0.1435861,
        -0.4893602,
        -0.38236928,
        -0.238574043,
        -0.949708,
        0.2208943,
        -0.15261516,
        0.383500755,
        -0.652282059,
        -0.418712825,
        0.7119043,
        0.5253718,
        0.972058237,
        1.04133987,
        -0.8305839,
        0.1980365,
        0.6177249,
        -0.6613688,
        -0.353892863,
        -0.2674742,
        0.255201072,
        0.41814065,
        -0.30179882,
        0.3481018,
        0.265462577,
        -0.8018057,
        0.779811859,
        1.20348155,
        -0.1961217,
        -0.320091754,
        0.747802556,
        -0.59385705,
        -0.0456720032,
        -0.271465,
        0.09880174,
        -0.277518719,
        0.416488826,
        0.5464872,
        0.305999368,
        0.691813946,
        0.5085948,
        -0.0564310625,
        -0.149242386,
        0.0142536182,
        0.5541738,
        -0.128175274,
        0.9117612,
        -0.1932644,
        0.07218023,
        -0.4948224,
        0.157000661,
        0.0272219069,
        -0.513553143,
        -0.2820252,
        0.312428653,
        0.07519539,
        -0.588467956,
        0.2648813,
        0.326225579,
        -0.107536636,
        0.227114648,
        0.246751651,
        0.237599313,
        0.41212827,
        0.9782522,
        -0.243117586,
        -0.335852176,
        -1.08854413,
        0.2363401,
        0.3360924,
        -0.19227545,
        -0.165545419,
        -0.57395643,
        -0.5633898,
        -1.16064191,
        0.5380711,
        0.30679,
        -0.042368,
        -0.689101636,
        -0.357590884,
        0.5307325,
        0.148257941,
        0.006306388,
        -0.60228765,
        -0.78871274,
        -0.6255773,
        1.20371377,
        -0.05067361,
        -0.198866516,
        0.7630114,
        -0.097765,
        0.444102,
        0.335014284,
        0.342008263,
        -1.77592826,
        0.164671078,
        -0.3142298,
        0.291162342,
        0.06664657,
        -0.298590451,
        -0.328151226,
        0.204973519,
        0.117778562,
        0.3587201,
        -0.690517068,
        -0.290602744,
        -0.6946309,
        -0.334995419,
        0.373390019,
        -0.92902106,
        0.106926776,
        -0.0491237342,
        -0.05298,
        -0.0116101345,
        -0.5942052,
        0.295964122,
        0.728495955,
        0.09428653,
        -0.490917832,
        0.1752412,
        0.241053581,
        -0.269883931,
        0.259868234,
        -0.221252188,
        -0.185493648,
        -0.259284317,
        0.1417249,
        0.0344331041,
        -0.4367383,
        -0.532314539,
        -0.272349149,
        -0.194378361,
        -1.35100651,
        0.102410406,
        -0.006059046,
        -0.2923618,
        -0.9629416,
        -0.28276962,
        0.620228231,
        -0.171489954,
        0.06830061,
        0.418467253,
        0.321673363,
        -0.484808475,
        0.6237426,
        0.0192086026,
        0.2310066,
        0.07506029,
        -0.543224931,
        -0.6128535,
        0.3565488,
        -1.07003915,
        -0.295846522,
        -0.0597994775,
        -0.4464373,
        -0.220973015,
        0.513213933,
        0.804476,
        0.5043716,
        0.157883346,
        -0.12180347,
        0.0445958674,
        -0.7211201,
        0.5716406,
        -0.426375538,
        0.722552359,
        -0.178690255,
        -0.0250588413,
        0.572901368,
        -0.8480294,
        -1.01031578,
        0.121030234,
        -0.893662035,
        -0.275977939,
        -0.10943231,
        0.189670429,
        -0.133733779,
        0.294364274,
        -0.15042302,
        -0.5355729,
        -0.186994985,
        0.4578594,
        -0.262632936,
        -0.5946647,
        0.5098777,
        0.2808664,
        -0.357712567,
        -0.219256759,
        -0.160139769,
        0.136295319,
        0.301482737,
        -0.416951984,
        0.7581534,
        0.1923596,
        -0.216980383,
        0.644973636,
        0.366125345,
        0.0189735275,
        -0.277968228,
        0.525919735,
        -0.166453823,
        0.3955215,
        1.3063122,
        0.354071826,
        -1.10488892,
        1.17868459,
        0.5027224,
        0.07475961,
        -0.06279095,
        -0.11888849,
        0.605053067,
        0.01394434,
        -0.155775845,
        -0.54065907,
        -0.251332432,
        -0.7677384,
        0.433035582,
        -0.682204664,
        0.201451018,
        -0.2719799,
        0.6377971,
        -0.118706465,
        0.5599774,
        0.360346943,
        -0.475785315,
        -0.403395683,
        -0.496067464,
        -0.5412668,
        -0.297188,
        -0.3247076,
        -1.26137948,
        -0.439921856,
        -0.617550254,
        -1.28540063,
        -0.00523357233,
        0.06799685,
        0.4893787,
        -0.21746026,
        -0.0471533872,
        -0.200988144,
        0.3565656,
        0.7871533,
        0.672182858,
        -0.718026161,
        0.7383414,
        -0.0167872049,
        0.9538243,
        -0.452764571,
        0.6896245,
        -0.288884044,
        0.311877668,
        0.040735282,
        0.374489367,
        0.745181561,
        -0.9000597,
        -0.461337119,
        0.210126936,
        0.469356626,
        0.0564489327,
        0.478839666,
        0.109727256,
        0.0230280627,
        -0.344256133,
        -0.31452468,
        0.6596799,
        1.30823648,
        -0.03663512,
        -0.116590858,
        0.541760564,
        0.433016568,
        0.2308966,
        0.510800064,
        -0.21404469,
        -0.1809896,
        -0.5681403,
        -0.158920944,
        -0.142231449,
        -0.02652891,
        0.4358301,
        -0.594942451,
        -1.2260921,
        0.09089685,
        -1.12394071,
        0.412504256,
        0.389199823,
        -0.2300103,
        -0.176837072,
        0.5344745,
        0.698755145,
        0.167332381,
        1.430272,
        0.486054748,
        1.19708788,
        -0.347804159,
        -0.446851343,
        -0.5586297,
        0.7345755,
        -0.09955179,
        -0.332005262,
        0.256084353,
        0.5432121,
        -0.6556314,
        0.6676266,
        0.0521149747,
        -0.345676,
        -0.04708197,
        -0.249257192,
        0.151754558,
        0.992575467,
        0.470836461,
        -0.495874,
        0.135323569,
        -0.727748334,
        0.1994933,
        -0.0315333158,
        0.825849,
        -0.391778916,
        1.01009655,
        1.11192274,
        -1.47451425,
        -0.5496515,
        0.690736949,
        0.382411927,
        -0.911778569,
        0.392659754,
        0.08318077,
        -0.908052564,
        0.124160185,
        -0.5429102,
        0.723716438,
        -0.6991256,
        0.0840195343,
        -0.836116254,
        -0.0529086366,
        0.203181833,
        -0.8188805,
        -0.9236369,
        -0.757508755,
        0.513024747,
        0.0502714254,
        0.152969867,
        -0.336495638,
        0.6390872,
        0.00283839926,
        -0.08922067,
        0.6731199,
        -0.5342838,
        0.9628513,
        -0.271060348,
        0.0819077,
        0.193778947,
        -0.250849426,
        0.1569537,
        -0.397947669,
        1.19585025,
        -0.137430862,
        0.08139807,
        -0.6096074,
        -0.451376945,
        0.7900569,
        0.4235614,
        0.3110394,
        -0.7439399,
        0.7013286,
        -0.431057721,
        0.108705893,
        -0.8652198,
        -0.945064962,
        -0.289185643,
        -0.749739349,
        -0.7035548,
        0.8095322,
        0.36010775,
        0.694831848,
        -0.173518062,
        -0.6917484,
        -1.15554929,
        0.5995492,
        -1.41599476,
        -0.107367732,
        0.134663448,
        0.82511723,
        0.119428933,
        0.81329906,
        -0.7149672,
        -0.3508891,
        -0.497689426,
        0.7966588,
        0.2930314,
        0.150924489,
        -0.311560154,
        -1.21160638,
        -0.09605695,
        -0.955681562,
        -0.09360343,
        0.480375141,
        -0.0206454527,
        1.06866682,
        -0.43312487,
        -0.9300205,
        -0.2733468,
        -0.920453131,
        -0.2423609,
        -0.18622911,
        0.5126451,
        -0.6711222,
        0.06259196,
        0.07352556,
        -0.0100835906,
        -0.362291247,
        -0.320382953,
        -0.6971379,
        0.03875299,
        -0.547502935,
        0.216929987,
        0.961924,
        -1.680252,
        -0.364453942,
        -0.721817136,
        -0.671837747,
        0.2894613,
        0.159457341,
        0.481031716,
        -0.167449757,
        -1.00327516,
        -0.53655833,
        -0.263192445,
        -0.280257374,
        0.4370396,
        -0.5725608,
        -0.5194584,
        0.253112018,
        0.009672051,
        0.428426355,
        0.6629231,
        -0.09569671,
        -0.203349471,
        -0.371090859,
        -0.674819767,
        0.8317822,
        -0.347269624,
        -0.286984146,
        -0.423416167,
        1.174623,
        0.197987854,
        0.309959739,
        0.07102798,
        0.146331117,
        0.06342345,
        0.470664531,
        -0.187998429,
        0.7350742,
        -0.6868386,
        0.5052677,
        -0.4595094,
        -0.364180833,
        0.3155895,
        0.504878461,
        -0.147187,
        -0.18987605,
        -0.4040789,
        0.015036596,
        0.13863562,
        -0.244345382,
        0.696569443,
        -0.03322704,
        -0.0515075922,
        -0.5141304,
        -0.0301661249,
        -0.369857371,
        -0.188569158,
        -0.08043781,
        -0.822989,
        0.06721733,
        -0.779666066,
        -0.6481103,
        -0.279272884,
        0.643831849,
        0.117562085,
        -1.07073736,
        0.227045164,
        0.94361794,
        0.328135163,
        0.034642484,
        0.270964682,
        0.5253843,
        -0.161333442,
        -0.214229509,
        0.391081274,
        0.114525937,
        -1.33915114,
        -0.04500461,
        0.169572636,
        0.0391201377,
        -0.0486438,
        -0.294414282,
        -0.28479,
        0.0289754085,
        0.250361621,
        0.225059658,
        0.19943516,
        -0.98337996,
        -0.638116539,
        0.08861892,
        -0.8224672,
        -0.236569911,
        0.5104292,
        0.104611777,
        0.288979173,
        0.879891932,
        -0.3437288,
        -0.550937533,
        -0.09857697,
        0.6907558,
        -0.334247649,
        0.9156539,
        0.0265912823,
        0.5380544,
        0.06788867,
        0.551476657,
        0.9178565,
        -0.119195171,
        -0.0891112,
        0.001672254,
        0.3113629,
        -0.394336134,
        0.402296,
        -0.5182786,
        0.103715487,
        1.06841028,
        0.24365811,
        0.237503648,
        -0.09530379,
        -0.371016055,
        0.299715042,
        0.3160015,
        0.686348,
        -0.01701697,
        0.549155354,
        0.6646393,
        0.52195996,
        0.24371466,
        -0.416526258,
        0.208879933,
        0.3859107,
        -0.6651598,
        -0.3803465,
        0.452094227,
        0.276998371,
        0.9936126,
        0.6748906,
        -0.50156945,
        -0.924218059,
        0.421726644,
        -0.963668644,
        1.20012116,
        0.169315055,
        -1.22839248,
        -0.46058175,
        0.288888782,
        0.6461154,
        -0.883668065,
        0.0585860126,
        -0.157093048,
        -0.172164962,
        -0.3314004,
        0.313801527,
        0.517983,
        -0.136929452,
        -0.4579496,
        0.467764348,
        -0.927106559,
        -0.0437372923,
        0.0860604346,
        -0.7585046,
        0.0232296437,
        1.13520408,
        -0.3009474,
        -0.880277455,
        0.175958127,
        -0.490606636,
        -0.405920357,
        0.005631609,
        -0.491285771,
        -0.319224447,
        0.397139549,
        -0.249471843,
        0.104929484,
        -0.230041832,
        -0.2262247,
        -0.2711306,
        0.3158247,
        0.9422531,
        0.3622978,
        -0.458291,
        -0.2540151,
        0.865520835,
        -0.643469751,
        -0.368923724,
        0.257148057,
        -0.0576823466,
        -0.2450971,
        -0.6581653,
        0.336100042,
        -0.917481065,
        0.651356161,
        0.456764281,
        1.108735,
        -0.253697157,
        -0.212353051,
        0.128900856,
        1.062162,
        -0.803240538,
        -0.119541287,
        0.544550836,
        0.0974438,
        -0.237601846,
        0.410046548,
        0.5084583,
        -0.237284735,
        0.0073190406,
        0.5925859,
        0.5948639,
        -0.6977494,
        -0.206003666,
        -0.352671355,
        0.276308179,
        -0.07834676,
        -0.0636936948,
        -0.397884458,
        -0.180871978,
        0.0576463565,
        -0.124994263,
        -0.17600812,
        -0.511325955,
        -0.321446538,
        0.453011632,
        -0.00303947181,
        -0.132227689,
        0.390796423,
        -0.469960064,
        0.118790716,
        0.022805525,
        0.0402113572,
        0.417562217,
        -0.421515435,
        -0.07340462,
        -0.144824937,
        -0.21073845,
        0.11834012,
        0.0277781412,
        -0.236951724,
        -0.711636662,
        0.414029,
        -0.4949095,
        0.267326534,
        0.4294376,
        -0.293574423,
        0.1739237,
        -0.8537923,
        0.294638246,
        -0.719875634,
        -0.16323626,
        -0.3828731,
        0.4644124,
        -0.214222759,
        0.064559035,
        -0.964720547,
        -0.833004,
        0.407739758,
        0.715416,
        -0.5284704,
        1.04121065,
        1.03474379,
        -0.1092067,
        0.163008183,
        0.212443,
        1.551195,
        -0.517851532,
        -0.230537608,
        0.8282628,
        -0.463180751,
        0.5920217,
        -0.169263318,
        -0.5168421,
        0.0280382354,
        -0.6898535,
        -0.0450359844,
        -0.5330799,
        -0.843580842,
        0.203200266,
        0.483696133,
        0.16320613,
        -0.1715802,
        -0.311776519,
        -0.7600614,
        0.149243087,
        1.01045227,
        0.6059911,
        -0.6176734,
        0.199174687,
        -0.409646779,
        0.29527843,
        0.3931059,
        0.300614476,
        1.00590253,
        0.270646065,
        0.194869816,
        -1.22344732,
        0.724429667,
        -0.5123308,
        1.23526132,
        -0.312338531,
        -0.39867115,
        0.03987468,
        -0.241612509,
        0.462269068,
        0.593607366,
        0.06824953,
        -0.545707643,
        0.565810561,
        -0.155735523,
        0.0640463457,
        -1.20762181,
        -0.9103921,
        0.135610357,
        0.295582682,
        -0.589067638,
        0.486852,
        0.14184238,
        0.8921907,
        0.534778655,
        0.223683953,
        -0.5454524,
        -0.242100209,
        -0.589916766,
        0.7818828,
        0.288773865,
        0.5135089,
        -0.2143217,
        -0.158811152,
        0.0473409779,
        0.143825,
        -0.41993317,
        -0.8964245,
        1.06657135,
        -0.312889129,
        -0.0538717844,
        0.04718724,
        0.05435746,
        0.2895474,
        -0.47754696,
        -0.5638777,
        0.5757706,
        -0.0288797114,
        -0.438927442,
        0.2420631,
        -0.253913641,
        -1.1107794,
        -0.6215473,
        -0.78538835,
        -0.849563837,
        1.23725414,
        0.08469641,
        0.677022755,
        0.6568814,
        1.1686753,
        1.08541393,
        -0.426923871,
        0.572421849,
        -0.08533127,
        0.568999767,
        0.0110181617,
        -0.557390869,
        -0.06621239,
        0.653283238,
        -0.8098188,
        0.218865514,
        0.3026524,
        0.847353339,
        -0.34936595,
        0.835261,
        -0.5896695,
        1.24342358,
        0.2336284,
        0.190961719,
        -0.5646132,
        -0.5235227,
        0.621964455,
        0.6471933,
        0.426539063,
        -0.0378643125,
        0.08941606,
        0.493205756,
        -0.595868,
        0.336811543,
        -0.100403048,
        -0.527258337,
        -0.6539449,
        -0.532126963,
        0.32904622,
        -0.2489078,
        0.379522383,
        -0.357458025,
        -0.258050829,
        -1.04640031,
        -0.109086283,
        -0.475470036,
        -0.104331277,
        0.2715085,
        -1.09854782,
        -0.322664052,
        0.122248694,
        0.7111774,
        -0.258395582,
        -0.295449585,
        0.388885051,
        -0.5823304,
        1.621095,
        -0.475152,
        -0.229575351,
        -0.481616616,
        -0.0768564343,
        0.8055953,
        -0.06362652,
        -0.9163898,
        -0.4738867,
        -0.112391382,
        -0.4639296,
        -0.7473179,
        -0.8397093,
        -0.03884007,
        -1.08207321,
        0.5608494,
        -0.15014571,
        0.146232128,
        -0.900209367,
        -0.4429415,
        -0.368994474,
        0.9820483,
        0.7663826,
        -0.3835062,
        -0.6593278,
        0.877235949,
        -0.8481947,
        0.201761708,
        -0.21642746,
        -0.418931365,
        -0.023555506,
        -0.686040342,
        0.207582131,
        -0.342857778,
        0.19974412,
        -0.2822281,
        0.0782230049,
        -0.22172749,
        0.190398455,
        -0.1681481,
        0.34812063,
        0.7175893,
        -0.7293286,
        -0.493430525,
        -0.328598857,
        0.11197111,
        -0.3874746,
        0.5094467,
        -0.876504958,
        0.4836722,
        -0.262474567,
        0.486266166,
        0.08543942,
        0.3186147,
        1.36781478,
        -0.6349109,
        0.115357161,
        0.124636255,
        0.6130505,
        -0.33890298,
        -0.182980523,
        -0.01585482,
        0.09171338,
        0.302647233,
        -0.220702112,
        -0.350640953,
        -0.3573022,
        0.08123988,
        -0.0398343764,
        -0.05711749,
        -0.319886923,
        0.8889621,
        0.216420665,
        -0.4803057,
        0.30647096,
        -1.08020329,
        0.0376998521,
        0.0232769344,
        -0.309665829,
        0.3426765,
        0.288609326,
        -0.08606265,
        -0.348444134,
        -0.6992161,
        -0.3590565,
        0.47439298,
        -0.412321568,
        -0.3730114,
        0.371375322,
        -0.201339513,
        0.6922766,
        -0.46287182,
        0.210176051,
        -0.735310137,
        1.20239234,
        -0.541202068,
        0.493652344,
        0.432975918,
        -0.349359185,
        0.001765263,
        -1.16573417,
        -0.746660769,
        0.340488434,
        -0.44200483,
        0.8079993,
        0.313245565,
        -0.9006019,
        0.566428661,
        -0.435045421,
        0.704924166,
        0.247484922,
        0.5576137,
        -1.42068887,
        0.377761662,
        0.0069433637,
        0.6391046,
        -0.058614,
        0.143936917,
        0.2339727,
        0.142076492,
        0.0371655859,
        0.7668369,
        0.269613683,
        0.02819258,
        -1.92608654,
        0.101115935,
        0.247846842,
        1.42055058,
        -0.05882201,
        -0.226892024,
        -0.0331322476,
        0.117043048,
        0.322186828,
        -0.291251242,
        -0.4105028,
        0.8760484,
        0.06366437,
        -0.315365434,
        0.233331576,
        0.888669848,
        -0.6696295,
        0.0682202652,
        0.9006076,
        -0.0262586325,
        -0.305471778,
        -0.34044984,
        -0.166167066,
        0.140595347,
        -0.102129713,
        -0.208628863,
        -0.485129029,
        -0.537060857,
        0.2774514,
        -0.336082,
        0.21470131,
        -0.195180148,
        0.449924469,
        -0.251378983,
        0.116485313,
        -0.2801714,
        0.679240644,
        0.138738677,
        -0.190316111,
        0.403703,
        0.34544003,
        0.1699317,
        -0.249705821,
        0.348295152,
        0.07425427,
        -0.339447439,
        -0.742812753,
        0.401089281,
        0.9248747,
        -0.0417419262,
        0.324920416,
        0.433269352,
        -0.264172524,
        0.357059628,
        0.13346456,
        -0.318323672,
        -0.6667783,
        0.7218009,
        0.125497758,
        0.4401003,
        0.418434739,
        -0.0595946126,
        0.37872687,
        -0.194765374,
        0.327942073,
        -0.050879512,
        -0.432923734,
        -0.600328863,
        -0.188896567,
        -0.2965979,
        0.010198215,
        0.00123973365,
        0.291350424,
        0.127121553,
        0.5679119,
        -0.8211214,
        -0.111715756,
        -0.6307937,
        0.261058062,
        1.21352232,
        0.311007947,
        0.0364927724,
        -0.205534637,
        -0.5854664,
        -0.124286063,
        0.423085541,
        0.1295942,
        -1.31726551,
        -0.6153129,
        0.197758541,
        -0.3382865,
        0.181444362,
        -0.650518835,
        0.301488876,
        0.18360725,
        0.41224283,
        0.868350267,
        -0.375512362,
        -0.247729868,
        -0.0483984128,
        0.300149947,
        -0.497092754,
        0.3332668,
        1.08737946,
        -0.3339583,
        0.986625135,
        0.199781626,
        0.266128063,
        -0.229476586,
        -0.2510907,
        0.373823255,
        0.167781383,
        0.301921844,
        0.0448202528,
        -0.13354972,
        -0.430742979,
        -0.527905762,
        -0.03936609,
        -0.3069451,
        0.05699374,
        -0.383190274,
        0.267872244,
        0.106375486,
        -0.7609901,
        -0.163096011,
        -0.356897175,
        -0.395928144,
        0.7552583,
        -0.328484744,
        -0.009657907,
        0.486693144,
        0.7311837,
        -0.775948763,
        -0.857113659,
        0.8592078,
        -0.655717134,
        0.7934483,
        0.686905742,
        -1.21237528,
        0.352371663,
        -0.290503651,
        -0.0707033351,
        0.3947084,
        -0.208107919,
        -0.09264537,
        0.0600623228,
        0.08056743,
        -0.0006757705,
        0.0904428,
        0.263745248,
        -0.553671241,
        -1.03618121,
        0.9479841,
        0.926613033,
        -0.0270600878,
        -0.07409744,
        0.07419605,
        -0.0873689055,
        0.29059118,
        -0.6657586,
        0.0595940873,
        -0.606714845,
        0.174763158,
        0.602715254,
        0.07935988,
        0.837707937,
        -1.0231601,
        -0.917626441,
        -0.3057947,
        0.0136386063,
        -0.0653916,
        0.8303946,
        0.299431175,
        -0.190261692,
        -0.5691656,
        0.03335134,
        0.7717301,
        0.292251378,
        -1.30380607,
        0.335507244,
        -0.232574716,
        -0.009466627,
        -0.734472334,
        -0.421453983,
        0.09174889,
        0.201489151,
        0.5991301,
        0.249164283,
        -0.5188057,
        -0.1958616,
        0.256328553,
        -0.7678231,
        -0.222020447,
        -0.02672261,
        -0.2966757,
        0.8617832,
        0.0257230159,
        -0.9669406,
        -0.225435227,
        0.529587567,
        -0.6160992,
        -0.1034043,
        -0.04541479,
        -0.04502291,
        0.352164149,
        -0.255812466,
        0.553219855,
        -0.162234262,
        -0.491154581,
        0.227292448,
        0.648346066,
        0.177703068,
        -0.07087684,
        -0.5085862,
        -0.6944465,
        0.758015,
        0.9359067,
        -0.08379547,
        0.144428179,
        0.5221388,
        0.0281788744,
        0.103721432,
        1.03197408,
        -0.00526870834,
        0.7921511,
        -0.09176792,
        -0.400171638,
        -0.459964275,
        -0.105938606,
        0.667773664,
        0.2572418,
        0.6461611,
        -0.107052661,
        -0.9463056,
        -0.6806137,
        0.793574333,
        -0.648781061,
        -0.6738707,
        0.164209262,
        0.201203838,
        0.7632979,
        -0.526035845,
        0.124243133,
        -0.016527392,
        -0.970508337,
        -0.0110755023,
        -0.291324347,
        0.496712774,
        0.06630635,
        -0.4029455,
        -0.628095567,
        -0.0807198957,
        0.4888054,
        -1.1587975,
        0.282520533,
        0.45844233,
        -0.2846639,
        0.3051956,
        -0.312956363,
        0.658678949,
        -0.484852552,
        -0.8301314,
        -0.571018338,
        0.0175843649,
        -0.0490646623,
        -0.31128937,
        -0.1311273,
        -0.5879014,
        0.2909295,
        -1.15794611,
        1.02008176,
        -0.3736296,
        -0.267110825,
        0.114110328,
        -0.109500811,
        0.247754976,
        -0.317775965,
        0.308381468,
        -0.154599175,
        -0.231439859,
        -0.140623868,
        -0.0598457679,
        -0.1845817,
        0.3143607,
        -1.15599513,
        -0.5537273,
        0.90173,
        -0.3412965,
        -0.6760662,
        -0.166186929,
        -0.104782276,
        -0.2406177,
        0.167141721,
        -0.311975718,
        -0.07043683,
        1.31084514,
        -0.7595973,
        -0.600620449,
        0.518480837,
        0.479213268,
        0.195426852,
        0.723962843,
        0.04746806,
        -0.0160346236,
        0.242095381,
        -0.556871235,
        -0.06473633,
        -0.499267459,
        0.08558793,
        0.10204953,
        -1.55727351,
        -0.56073606,
        -0.243403584,
        0.489513278,
        0.170883819,
        0.351038724,
        0.16206713,
        0.00636231946,
        -0.415718138,
        0.8657573,
        0.600919664,
        0.220859215,
        -0.3916604,
        0.6706202,
        -0.455472827,
        0.465917051,
        -0.403012455,
        0.134304255,
        0.9044583,
        -0.180262014,
        -0.0418893434,
        -0.11080759,
        -0.31088087,
        -0.244205356,
        0.479962856,
        0.3016185,
        0.35831818,
        0.388035417,
        -1.29424083,
        0.6775158,
        -0.006879314,
        -0.149340391,
        0.4138011,
        -0.725102,
        0.8465361,
        -1.07266963,
        -0.427450985,
        0.255439639,
        0.596935332,
        -0.418238252,
        1.11154139,
        0.486459136,
        -0.197607577,
        -0.9244463,
        0.248836741,
        -0.0684694,
        -0.858551145,
        0.354923,
        0.521611452,
        0.46754384,
        0.375282347,
        0.08612816,
        -0.44374305,
        -1.15804446,
        -0.2138677,
        -0.281790674,
        -0.356215268,
        0.110487767,
        -1.10195732,
        0.129339635,
        -1.16645455,
        0.4874936,
        0.6326234,
        0.4155909,
        -0.257826865,
        0.6016828,
        0.08493987,
        -0.436433524,
        0.424287468,
        0.364961743,
        1.02627,
        0.14269504,
        -0.557129145,
        0.7335826,
        0.364954919,
        0.189950943,
        -0.394984,
        0.6055549,
        -0.7650901,
        -1.0551312,
        -0.9173251,
        -0.06922356,
        0.3634681,
        -1.27901971,
        -0.563312232,
        -0.0318581425,
        -0.9848129,
        0.29572618,
        0.04761946,
        -0.266922116,
        0.1425351,
        -0.1146903,
        -0.05776464,
        -0.549994648,
        1.10694516,
        -0.287860781,
        -0.0173543226,
        0.480702132,
        -0.6693613,
        -0.2429505,
        0.6343061,
        -0.417857081,
        -0.103053726,
        -0.5884787,
        0.258823723,
        -0.5770588,
        0.0286420919,
        0.0315849036,
        -1.24330616,
        -0.466306418,
        -0.0198473167,
        0.02138541,
        -0.290225774,
        0.392927438,
        -0.42763868,
        0.193837613,
        0.122984208,
        0.6625078,
        0.195781261,
        -0.1798016,
        0.5980539,
        0.4809356,
        -0.3845241,
        -0.0731245,
        -0.631720543,
        -0.105257638,
        0.6088356,
        0.6320636,
        -0.3773534,
        -0.3078753,
        0.236556172,
        0.113823265,
        0.2745351,
        0.0171702579,
        0.0698917657,
        0.145377174,
        -0.5501893,
        0.160109118,
        0.12463218,
        0.174477145,
        0.300885528,
        -0.6983401,
        -0.928359151,
        -0.0243168436,
        -1.29675269,
        0.369692922,
        0.148757935,
        -0.377710044,
        -0.436749578,
        -1.4493854,
        0.06058652,
        0.203891084,
        -0.0273786653,
        -0.56336987,
        0.05149148,
        0.8431423,
        0.429529279,
        -0.5329748,
        -0.7960956,
        -0.287206352,
        0.198534578,
        -0.208732471,
        0.810957968,
        -0.822411358,
        0.17161648,
        -0.4306714,
        -0.351827055,
        -0.009912333,
        0.2079069,
        -0.009561528,
        1.37880588,
        0.153531909,
        -0.2421026,
        0.245835409,
        -1.610896,
        -0.366456777,
        0.32859832,
        0.45661667,
        -0.18907313,
        0.320721,
        -0.212754756,
        0.9217095,
        0.429016441,
        0.3836957,
        -0.709503233,
        -0.1886111,
        -0.0865279138,
        -0.681597531,
        0.351377249,
        -0.336825669,
        -0.882642269,
        -0.0277721882,
        -0.150582328,
        1.19151807,
        -0.8212786,
        0.357919842,
        0.409835458,
        0.234991729,
        -0.0204077959,
        -0.0515427776,
        0.0619911738,
        0.49606654,
        0.5208618,
        -0.192206636,
        0.15906699,
        0.468899,
        0.622016,
        0.06394097,
        0.477648973,
        -0.9582906,
        -0.0221361164,
        -0.7207139,
        1.02962208,
        0.417689472,
        0.328665137,
        -0.244839236,
        0.4925339,
        0.00517268851,
        0.587934554,
        -0.553459644,
        -0.7343937,
        0.483516663,
        -0.704134345,
        0.2116994,
        -0.07423183,
        -0.268361181,
        0.5226576,
        -0.306379825,
        -0.0336398669,
        0.207664788,
        0.432469845,
        0.05844704,
        0.588529,
        -0.239367872,
        0.179648,
        -0.177213714,
        -0.5613748,
        -0.154669687,
        -0.212356687,
        0.533483148,
        0.547576249,
        -0.430546522,
        -0.459164143,
        -0.7407749,
        0.07967707,
        -0.333129466,
        0.535980046,
        0.0106103607,
        -0.1440244,
        -0.178362772,
        0.08403835,
        -0.219177023,
        -0.751420438,
        0.04379807,
        0.0379288048,
        -0.266407818,
        -0.393602759,
        0.3159932,
        0.3348203,
        -0.259959459,
        0.109846637,
        0.8175887,
        0.61911875,
        -0.537721157,
        1.17275774,
        0.03305442,
        -0.0267321654,
        -0.4737551,
        -0.253395051,
        0.380488336,
        0.4741996,
        0.369623423,
        0.7990396,
        -0.144042328,
        1.07361221,
        0.313804626,
        -0.4268724,
        -0.112448938,
        0.236574933,
        -0.90703243,
        0.0192133114,
        0.363740236,
        -0.6767018,
        -0.286285222,
        -1.146609,
        -0.652300656,
        0.2477732,
        -0.419642359,
        -0.07244516,
        -0.0868408158,
        0.389930338,
        -0.76820457,
        0.320460767,
        0.316039234,
        0.0005328314,
        -0.460712284,
        -0.553569138,
        0.670619965,
        0.217493042,
        0.49666062,
        -0.367194116,
        -0.163419038,
        0.8176811,
        0.9113453,
        0.887255669,
        -0.314053357,
        0.561388552,
        0.2845443,
        0.244288281,
        -0.419472069,
        -0.476183385,
        -0.4377086,
        0.9917228,
        0.144529164,
        0.456392944,
        -0.01887822,
        1.15768516,
        0.0608076453,
        0.00214573182,
        -0.541893363,
        1.087118,
        -0.0303420778,
        -0.153325692,
        -0.0198891032,
        -0.597011268,
        0.2535593,
        0.49435246,
        -0.08649423,
        0.244828671,
        1.17096126,
        -0.17141062,
        0.618454337,
        -0.197184235,
        -0.365561366,
        -0.355066,
        -0.952451348,
        0.778804,
        -0.8564401,
        0.0869504362,
        -0.11689952,
        0.382468373,
        0.6373903,
        -0.51575017,
        0.21495299,
        -0.287187725,
        0.548766255,
        -1.07833135,
        -0.741623461,
        0.969271958,
        1.21280622,
        0.03658932,
        0.514713347,
        0.19962886,
        -0.7262376,
        0.142357662,
        0.0547313765,
        0.800578,
        -0.09636755,
        -0.0563082471,
        0.5276749,
        -0.401170731,
        0.334121,
        -0.0948548838,
        1.76008642,
        0.1491997,
        -0.8595995,
        0.235164553,
        0.433479369,
        -0.36164254,
        -0.3543054,
        -0.8416822,
        0.196673617,
        -0.14100562,
        -0.253351629,
        1.02608943,
        0.5621448,
        0.3801976,
        0.4032192,
        -0.101796366,
        0.166772142,
        -0.299848735,
        -0.5331225,
        -0.430779845,
        -0.466485649,
        -0.97855,
        0.741714537,
        -0.0331400037,
        -0.08649277,
        0.181185946,
        0.7592261,
        0.07663335,
        -0.8552424,
        0.279521435,
        0.142127827,
        -0.100088537,
        -0.239080489,
        0.533659339,
        0.165731311,
        -0.9505241,
        0.6251181,
        -0.5993462,
        -0.00875837,
        0.14485909,
        1.03241789,
        0.311501741,
        1.03651357,
        -0.1033463,
        -0.249658108,
        -0.0130790025,
        0.1664089,
        -0.161046162,
        -0.09536347,
        0.239502728,
        0.436712474,
        0.235742524,
        -0.5167592,
        0.329705536,
        0.0600595549,
        0.09093237,
        -1.04120862,
        -0.118027173,
        0.5314869,
        0.3903607,
        0.2925349,
        -0.5116121,
        -0.445482761,
        -0.56028074,
        -0.6670954,
        0.515036047,
        -0.650811851,
        0.134629145,
        -1.27526224,
        0.206720069,
        0.667932749,
        -0.432762027,
        0.496526,
        -1.03897643,
        0.675450265,
        0.3215697,
        -0.292560816,
        0.00123721082,
        0.0365751423,
        0.218273789,
        -0.5263669,
        -0.5051617,
        -0.1803623,
        -0.247052714,
        -0.3160713,
        0.4191049,
        0.257722884,
        -0.740859747,
        -0.364213616,
        -0.00370920287,
        0.3475105,
        -0.003036267,
        0.405457079,
        -0.05913059,
        -0.120548956,
        1.0584271,
        0.734622836,
        -0.394582242,
        0.8272463,
        0.433382124,
        -0.4545639,
        0.820614755,
        0.2620572,
        0.205885947,
        -0.2684507,
        0.1483013,
        -0.6375696,
        -0.273147523,
        -0.630831659,
        -0.3744495,
        -0.3330989,
        0.692849,
        -0.494890273,
        -0.933394432,
        -0.249550477,
        0.5235085,
        0.49361822,
        -0.8498992,
        -0.243319675,
        -0.331737071,
        0.7230869,
        0.3617608,
        0.27753824,
        0.340123951,
        -0.1145888,
        0.149169087,
        0.8902658,
        0.3457156,
        -0.568303049,
        0.5803008,
        -0.00170181575,
        -0.982297242,
        0.235154971,
        -0.104458205,
        0.288869262,
        -0.4994256,
        -0.387221366,
        -0.725233853,
        -0.164160639,
        -0.319102854,
        0.735747039,
        0.5277525,
        -0.475791782,
        -0.3327083,
        -0.8021265,
        0.5659622,
        -0.4576586,
        0.129811972,
        0.353117257,
        -0.0113100307,
        1.07785845,
        -0.41697827,
        0.128866866,
        0.5670849,
        0.275109082,
        0.9816208,
        0.8842051,
        0.256005377,
        -1.11987293,
        0.5968287,
        -0.20693776,
        0.7897139,
        0.4173293,
        0.383819,
        0.123932526,
        -0.353660583,
        -0.245300189,
        -0.4465835,
        0.3827633,
        0.4439974,
        -0.696862459,
        -0.261948645,
        -0.388495922,
        -0.4675534,
        0.8831574,
        -0.307429522,
        0.8434349,
        0.9184478,
        0.3581737,
        -0.334783524,
        -1.43339241,
        0.130773768,
        -0.473354757,
        0.03097239,
        0.9773232,
        1.43500876,
        0.6555167,
        -0.6047117,
        -0.004449809,
        0.169369712,
        -1.63142121,
        0.124001525,
        -0.851239,
        0.0598630719,
        1.11712015,
        -0.333835334,
        -0.08491657,
        -0.525795758,
        -0.6554607,
        -0.224554911,
        0.270903945,
        -0.4574389,
        -0.6239282,
        0.164938152,
        -0.284382075,
        -0.9818602,
        -0.4723662,
        0.231054455,
        0.216795012,
        0.7037248,
        -0.000755608664,
        -0.101362385,
        -0.841323,
        0.5150869,
        -0.496053725,
        -0.9086949,
        -0.531325638,
        -0.07528518,
        0.357346475,
        0.3929832,
        -0.5168879,
        -0.2889094,
        0.608591735,
        0.287672669,
        0.4446176,
        0.672994137,
        -0.437544018,
        0.0988825262,
        0.05387067,
        -0.848355234,
        -0.8461671,
        -0.3085216,
        -0.334016562,
        0.641893,
        -0.2742645,
        -0.7721528,
        -0.0359033234,
        -0.142462716,
