{
  "name": "Handwritten Digits Classification",
  "neuronCounts": [
    400,
    25,
    10
  ],
  "hiddenLayers": [
    {
      "inputs": 400,
      "outputs": 25,
      "bias": [
        -0.4072788,
        -0.7330883,
        -0.852703452,
        -0.06930268,
        -0.259911,
        -0.3767342,
        0.152275652,
        -0.3769816,
        -0.5027375,
        1.88376892,
        -0.342898667,
        0.0458853878,
        0.476531178,
        -0.6378193,
        -0.07616264,
        -0.237540737,
        -0.2910705,
        -0.8187252,
        -0.0131786643,
        -0.933190644,
        0.9911967,
        0.254437923,
        0.531338751,
        -0.5660815,
        -0.192163825
      ],
      "weights": [
        0.6461988,
        0.435157746,
        0.3700362,
        -0.347917855,
        -0.398541778,
        -0.5451486,
        0.730687141,
        -0.918870151,
        -0.603804767,
        0.316531926,
        -0.07201701,
        0.117525429,
        0.467618525,
        0.159571856,
        -0.2581235,
        -0.199241444,
        0.728556037,
        -1.02921546,
        0.0404904,
        -0.850488365,
        0.8813455,
        -0.0240787175,
        -0.09777437,
        1.14159346,
        0.119041182,
        0.141407609,
        -0.2622903,
        -0.306052327,
        -0.00142344472,
        0.388119817,
        -0.427417845,
        0.2260934,
        -0.993911445,
        0.3834424,
        -0.5599043,
        -0.327226549,
        -0.17811735,
        -0.017926503,
        -0.145801559,
        0.5383172,
        0.345706433,
        -0.445581347,
        -0.5916799,
        0.8875983,
        -0.8292643,
        -0.5420886,
        0.08719565,
        0.130885169,
        0.578410864,
        -0.00202563545,
        -0.3673614,
        -0.124461748,
        0.4377014,
        0.4693568,
        0.2141969,
        0.0362897627,
        -0.5602866,
        0.6294462,
        -0.27267772,
        0.8644113,
        -0.4177469,
        -0.219377771,
        0.29451,
        -0.3395112,
        0.5331695,
        -0.3766901,
        -0.187110245,
        0.630528,
        -0.08155903,
        -0.109692983,
        1.47970784,
        0.542016268,
        -0.809360445,
        -0.3328427,
        -0.3231184,
        -0.146685153,
        0.261909,
        0.225209028,
        0.227794573,
        0.0550018027,
        0.5598497,
        0.889532,
        0.5835639,
        0.595361,
        1.06969929,
        -0.3383582,
        -0.00159993453,
        -0.312244445,
        -0.0945195258,
        -0.270935446,
        -0.7023154,
        -0.103899218,
        -0.172510028,
        -1.78503335,
        -0.0313820355,
        -0.143028557,
        0.15219155,
        0.506210268,
        0.225247875,
        -0.355258584,
        -0.009294808,
        0.207619056,
        -0.22268948,
        -0.288178146,
        0.3780425,
        0.452540249,
        0.112284973,
        0.1337435,
        -0.2956216,
        -0.131723672,
        -0.0179865938,
        0.163533539,
        0.607368767,
        0.307639837,
        0.401476443,
        -0.282485425,
        0.23184289,
        0.388999254,
        -0.07068172,
        0.4677074,
        -0.125883728,
        -0.5046186,
        -0.568966,
        0.0255394354,
        0.135066122,
        0.439152777,
        0.411761642,
        -0.0184369069,
        0.463249,
        0.455309421,
        -0.731628835,
        -0.220195815,
        -0.303382128,
        -0.1173976,
        -0.132975459,
        0.003671141,
        -0.0433722436,
        -0.8520078,
        -0.276121229,
        -0.0290522687,
        -0.475655645,
        1.00341129,
        0.238298044,
        -1.0164063,
        0.7403735,
        0.283971369,
        0.454305857,
        -0.716573238,
        -0.260365546,
        -0.309277982,
        0.444257677,
        0.0302227363,
        -0.138087958,
        -0.401847422,
        -0.487461746,
        -0.340325147,
        0.280343831,
        -0.0569562353,
        -0.449775457,
        0.1485222,
        0.169702664,
        -0.2539508,
        0.777051747,
        0.009758477,
        -0.005097117,
        0.139839128,
        -0.9016764,
        0.489456058,
        0.208731547,
        -0.323111415,
        -0.0204414539,
        0.7014033,
        -1.35257065,
        -0.356690943,
        -0.5184316,
        -0.176716879,
        -0.138534173,
        -0.547855854,
        0.190659449,
        -0.393035322,
        0.132501319,
        0.9905569,
        -0.00668493472,
        -0.07821975,
        -0.421352,
        -0.446648359,
        -0.149740532,
        -0.372100919,
        -0.816383958,
        -0.783977449,
        -0.229738563,
        -0.06407754,
        0.654000759,
        0.337904543,
        0.182258412,
        0.738466,
        0.1819313,
        -0.221009463,
        0.104268715,
        0.3981364,
        0.67008,
        0.7003461,
        -0.183547646,
        1.07904923,
        0.248101,
        0.5755478,
        -0.3273572,
        -0.1390829,
        -0.3470171,
        -0.5169862,
        0.137926176,
        -0.334761083,
        0.383570522,
        -0.572041631,
        -0.184534624,
        0.9334142,
        0.00230315956,
        -0.239536554,
        -0.164120108,
        0.7316732,
        0.904515564,
        -0.61277765,
        -0.4213398,
        -0.7228941,
        0.116522014,
        -0.0471643656,
        -1.07352257,
        0.224746838,
        0.232982561,
        1.17094719,
        0.2717908,
        1.14126837,
        1.134259,
        0.330602229,
        -0.272956252,
        0.0469860062,
        -0.489701629,
        0.559338868,
        -0.355940878,
        0.033261396,
        1.347488,
        0.2598617,
        -1.02793193,
        0.801462233,
        0.134362265,
        0.2943256,
        -0.754164457,
        0.818514764,
        -0.477833062,
        0.318597674,
        -0.176685184,
        0.7255454,
        0.202965021,
        0.155791074,
        0.901162148,
        -0.263862073,
        0.0444653779,
        -0.305533379,
        0.09548861,
        0.325759053,
        0.103780054,
        0.29172352,
        0.480629176,
        0.491322577,
        0.122464471,
        -0.235671058,
        0.0347069055,
        0.0368184373,
        0.142979175,
        0.112645723,
        0.5356185,
        0.177050188,
        -0.7116941,
        -0.1442274,
        0.213755175,
        0.541200161,
        0.7841169,
        -0.799468756,
        -0.243834391,
        -0.1415649,
        0.9235269,
        0.117670059,
        0.483243346,
        -0.440611362,
        0.0304752346,
        -0.883324444,
        -0.756472,
        -0.556476057,
        -0.8381529,
        -0.08406707,
        0.498833954,
        -0.0243638,
        -0.9668683,
        0.5402962,
        0.181665748,
        0.610697567,
        -0.741993546,
        0.177351415,
        -0.408586264,
        0.3231478,
        -0.130802646,
        -0.748993337,
        0.56836915,
        -0.20234333,
        -0.2834884,
        -0.3159913,
        0.161764443,
        -0.0250877645,
        -0.488943,
        0.407971144,
        -0.1262985,
        0.354567856,
        0.9063281,
        0.00410697749,
        -0.3977792,
        0.653469563,
        0.08830108,
        -0.576909542,
        0.469198853,
        0.222101137,
        -0.222286776,
        0.01249662,
        0.164313972,
        0.366872,
        1.00282526,
        0.5267189,
        -0.36486423,
        0.6064121,
        -0.346513867,
        0.08143669,
        0.210635662,
        0.101178043,
        -0.5300508,
        0.423817337,
        -0.0272666123,
        1.48584044,
        0.631674469,
        0.533658445,
        -0.5134326,
        0.3414747,
        -0.427900434,
        -0.104126312,
        -0.224381059,
        0.4081687,
        0.8812666,
        -0.0259115677,
        0.131968915,
        0.09448811,
        -0.4642642,
        -0.315483272,
        0.614378333,
        -0.486627638,
        0.8010389,
        -0.9372811,
        -0.432796061,
        -0.0143326661,
        0.628465056,
        -0.18155849,
        0.132283777,
        -0.6023881,
        -0.5942068,
        -0.0283931866,
        -0.0291822124,
        0.580850244,
        0.474600375,
        -0.657791853,
        0.132861644,
        -0.0391675159,
        0.327316076,
        -0.327644825,
        -0.843247652,
        -0.0234921928,
        -0.214335322,
        -0.0441089869,
        0.20872058,
        -0.361900538,
        0.04025586,
        1.12484694,
        -0.07960914,
        -0.7113812,
        0.203531057,
        0.177746683,
        0.108853512,
        -0.1185562,
        0.4000766,
        -0.5111214,
        -0.787368834,
        0.8011383,
        0.191383138,
        0.2004807,
        0.316416,
        -1.032572,
        -0.570721269,
        0.157768726,
        -0.5240023,
        -1.12208354,
        -0.0456579626,
        0.666912556,
        -1.01050293,
        -0.689367056,
        1.05658793,
        0.08035005,
        -0.928585052,
        0.3116511,
        0.8171968,
        0.248014554,
        0.320368469,
        0.2631712,
        1.57013941,
        0.927614868,
        -0.173469082,
        0.146196529,
        -0.131624192,
        -0.447113842,
        0.314051062,
        0.311227649,
        -0.2502956,
        0.671895444,
        0.1288155,
        -0.4305573,
        -0.6066016,
        0.5650235,
        0.96585536,
        -0.372065216,
        -0.290185153,
        0.6463626,
        0.7971302,
        -0.174077541,
        -0.0192335043,
        -0.0519917123,
        0.644368,
        -0.9554505,
        -0.0399518944,
        -0.6827836,
        0.3956843,
        -0.0459987149,
        -0.134166986,
        0.600212753,
        -0.9872875,
        -0.15378277,
        0.2779329,
        0.7686495,
        0.5296892,
        0.292512923,
        -0.473081529,
        -0.3167213,
        0.06984462,
        0.209769279,
        0.822687864,
        0.6329422,
        -0.306039751,
        0.5892566,
        -0.426738054,
        -0.605353236,
        -0.257770717,
        -0.539526165,
        0.488327146,
        0.1905404,
        0.1164138,
        0.140829071,
        -0.489904583,
        1.00494778,
        0.3837001,
        -0.2621801,
        -0.8784598,
        -0.0312139876,
        -0.05446715,
        -0.150965735,
        -0.8587391,
        -0.105951712,
        -0.218149215,
        0.2221811,
        -0.9213412,
        -0.07948872,
        0.00316754752,
        0.2399032,
        -0.188794509,
        -0.6546996,
        -0.897028565,
        -0.4910673,
        0.576776862,
        0.694404364,
        -0.22976093,
        0.0223328583,
        -0.254496872,
        0.199868545,
        1.02877676,
        0.429885715,
        0.215576455,
        -0.3461099,
        -0.276378185,
        0.3851438,
        0.174899131,
        0.373761654,
        1.24500358,
        0.137217671,
        -0.103760637,
        -0.154756486,
        0.405161083,
        -0.132344261,
        -0.033013504,
        0.0301249269,
        -0.0587558374,
        0.5339199,
        -0.7174803,
        -0.40434885,
        -0.8025147,
        -0.308353871,
        -0.8504696,
        -0.3713326,
        0.450287521,
        0.212559223,
        -0.837210238,
        -0.456087232,
        0.3597166,
        0.7077141,
        -0.7139725,
        0.114372648,
        -0.458355665,
        -0.4149694,
        -1.13723528,
        -0.325573951,
        0.660619736,
        -0.09688387,
        1.09368277,
        0.361971617,
        0.5844484,
        0.337336153,
        -0.381819,
        -0.847935736,
        0.39157632,
        -0.620108545,
        -0.217234343,
        0.346417546,
        0.5179866,
        -0.6602729,
        -0.780421555,
        0.377062738,
        0.126056835,
        -0.6798012,
        0.0981571153,
        -0.527151465,
        -0.0373752378,
        -0.614525735,
        -0.5786697,
        0.145055681,
        0.17674768,
        -0.6278536,
        0.176266015,
        -0.07913148,
        0.149104014,
        0.528860331,
        0.501920342,
        -0.324767143,
        0.393297434,
        -0.1446257,
        -0.424278378,
        -1.01727128,
        -0.281649768,
        -1.04183066,
        -0.6017441,
        -0.132965013,
        0.379278421,
        0.109209649,
        0.506917238,
        -0.0113887833,
        -0.3034457,
        0.07833539,
        -0.007816238,
        0.6415457,
        0.1989872,
        -0.330382884,
        -0.2903793,
        -0.09992303,
        -0.8390022,
        -0.128346235,
        -0.324427724,
        0.397258252,
        0.00632065,
        0.206517681,
        0.897138238,
        -0.1946591,
        1.03625238,
        0.2843363,
        -0.413047343,
        0.1435188,
        0.1701611,
        -0.348351449,
        0.296708167,
        0.4598439,
        0.6737852,
        0.5221776,
        -0.6340409,
        0.233429343,
        -0.5346882,
        0.09763099,
        -0.475419879,
        -0.416300923,
        0.567363143,
        -0.0339666754,
        -0.0145247038,
        0.0312923975,
        0.413834631,
        0.73099035,
        0.6296023,
        -0.295990855,
        0.0248665642,
        -0.8295018,
        0.284263819,
        0.128385484,
        0.387818426,
        -0.0345523357,
        -0.501028359,
        0.3445719,
        0.228158548,
        -0.838804662,
        0.280192345,
        -0.2442181,
        0.811529,
        -0.2482583,
        0.171973929,
        -0.5944418,
        -0.230198562,
        -0.318647385,
        0.698004842,
        0.23981528,
        0.7927748,
        0.31975925,
        -0.285137415,
        -0.326174557,
        0.103425443,
        -0.0104836859,
        0.721913457,
        0.08227451,
        -0.1103833,
        0.894089937,
        -0.007543526,
        -0.953020155,
        -0.224379182,
        -0.5426512,
        -0.3260757,
        -0.560769737,
        -0.185307145,
        -0.0390471146,
        0.5084416,
        -0.117391758,
        -0.137113392,
        0.660394549,
        -0.316896528,
        -0.428155065,
        -0.308840454,
        -0.392044783,
        -0.443322271,
        0.13237597,
        -0.415209,
        -0.163850948,
        -0.06290512,
        -0.706370533,
        0.2525602,
        0.0108807087,
        0.358996868,
        0.229257777,
        -0.0475014336,
        0.706172943,
        0.0557317,
        -0.08751778,
        0.841961563,
        -0.2840302,
        -0.3263485,
        -0.0532020852,
        -0.455908835,
        -0.160788968,
        0.756431162,
        0.346708417,
        -0.1426698,
        0.23875688,
        -0.209807679,
        -0.4006019,
        -0.112505414,
        -0.497317165,
        -0.494268239,
        -0.418779343,
        -0.13406752,
        -0.4900008,
        -0.339217484,
        0.338367283,
        -0.438067973,
        -0.669595361,
        0.0141102467,
        -1.3243947,
        -0.00473634526,
        0.6086107,
        -0.372053027,
        0.2097327,
        0.08158617,
        -0.126450017,
        -0.0902126357,
        -0.186180085,
        -0.120516419,
        -1.0457685,
        -0.21793592,
        0.334013373,
        0.5271226,
        0.301296353,
        -0.0472475328,
        0.899277866,
        0.498783231,
        0.799418,
        0.51839906,
        -0.124212094,
        0.282414526,
        0.5293741,
        -0.3812571,
        0.994199,
        -0.0009016608,
        -0.41584295,
        0.805052042,
        0.5180759,
        -0.396273315,
        -0.8555644,
        -0.170396268,
        -0.205395,
        1.37437963,
        0.39858374,
        -0.0128821107,
        -0.8251242,
        0.2550084,
        0.6815844,
        0.5512598,
        -0.312054425,
        -0.103323251,
        -0.222116649,
        0.359581858,
        -0.340876073,
        -0.07511253,
        0.901795,
        -0.6515875,
        -0.934206069,
        0.234750956,
        0.469554842,
        -0.04768777,
        -0.0719393939,
        -0.4647138,
        0.6210685,
        -0.5163256,
        -0.5460566,
        0.4260835,
        0.368282646,
        0.0487886481,
        -0.199010089,
        0.12569961,
        -0.256512672,
        -0.0251316782,
        -0.59439373,
        -0.289330959,
        -0.511095047,
        -0.163300261,
        -0.0619641952,
        -0.384193033,
        0.0394211151,
        0.5418689,
        -0.09259729,
        -0.8850314,
        -0.250625879,
        -0.367035568,
        0.190336347,
        0.482580781,
        0.010290524,
        -0.0171166956,
        0.250024676,
        0.1533631,
        -0.1927115,
        0.345307767,
        -0.00608425774,
        -0.306631446,
        0.266459376,
        -0.488565028,
        0.3871837,
        -1.69076407,
        -0.472124338,
        0.9660409,
        0.892520547,
        -0.107247673,
        0.8048208,
        0.385561854,
        -1.16802609,
        -0.462376952,
        -0.3914203,
        -0.3720735,
        -0.016196087,
        -0.0452286564,
        0.06214027,
        -0.8992939,
        0.854812,
        0.6941052,
        0.297497571,
        -0.3178473,
        -0.75647974,
        -0.664142132,
        0.40610227,
        -0.759920061,
        0.1642211,
        0.243056983,
        0.02517711,
        0.1741509,
        -0.0578441,
        0.5866179,
        0.154708728,
        0.2310225,
        0.0171670672,
        0.220848128,
        0.122630239,
        -0.405064434,
        1.093355,
        0.0056227115,
        0.0778229,
        -0.05389975,
        0.07085374,
        -0.348085,
        -0.201475784,
        -0.50235033,
        -0.475010931,
        -0.5998401,
        0.6629418,
        -0.2689542,
        -0.145811439,
        -0.274206161,
        0.4380008,
        0.0119764106,
        0.202807233,
        -0.386739016,
        -0.423209637,
        -0.933871269,
        0.108571768,
        0.5351162,
        -1.37685359,
        -0.388021141,
        -0.0563401878,
        0.102930985,
        0.3182519,
        -0.2633706,
        0.235229433,
        0.387993127,
        -0.277195841,
        -0.228657946,
        -1.0748198,
        -0.132339641,
        0.620972633,
        0.56747365,
        0.491301149,
        -0.456049234,
        -0.306673944,
        -0.04036858,
        0.175719231,
        -0.08796702,
        1.00162113,
        -0.06671967,
        -0.729614139,
        -0.104436249,
        0.329272,
        -0.09174166,
        0.8584733,
        0.4980594,
        0.264594853,
        0.7263756,
        -0.70339036,
        -1.05127752,
        -0.176765919,
        0.5545825,
        -0.434669256,
        -0.009818975,
        -0.20627819,
        -0.16923295,
        -0.473891467,
        0.611874163,
        -1.11048174,
        0.225417569,
        1.1602484,
        -0.3552145,
        -0.5615935,
        0.174111962,
        0.125871524,
        0.337428272,
        0.227922574,
        0.0478178225,
        0.346588135,
        -0.0337247066,
        0.455958,
        0.408539772,
        0.320821941,
        0.197184876,
        0.8106233,
        -0.5478775,
        -0.3260829,
        -0.469709545,
        0.6266594,
        -0.908124447,
        -0.159147084,
        -0.271397054,
        -0.370777339,
        0.1509003,
        0.190043658,
        -0.0739871338,
        -0.28356418,
        0.5515749,
        0.5441438,
        0.263841331,
        -0.729759336,
        0.5437684,
        0.596082866,
        0.662748,
        0.3779044,
        -0.148264483,
        1.37093818,
        0.374176472,
        -0.703725159,
        -0.3023989,
        0.656808,
        0.595999539,
        0.114335768,
        -0.6346921,
        0.264306784,
        0.204398915,
        0.620359659,
        -0.2590681,
        -0.269023627,
        -0.7414734,
        0.3872904,
        0.3098852,
        0.06545057,
        0.270603329,
        0.216076747,
        0.111168288,
        0.160617769,
        -1.10005462,
        -0.0241164528,
        -0.347207129,
        0.385588735,
        -0.9199586,
        0.269828618,
        0.296807349,
        0.230226785,
        -0.446109563,
        -0.009852927,
        -0.6772429,
        0.5974923,
        0.24971582,
        -0.2963547,
        -0.7954809,
        0.2538038,
        0.5704753,
        0.008119409,
        -0.0303852279,
        0.158815816,
        -0.119717546,
        -0.252532035,
        0.5185713,
        0.143364251,
        0.583505154,
        0.8691961,
        0.0201795958,
        -0.340759367,
        -0.605105758,
        0.398280382,
        0.224645868,
        0.815176,
        0.597232044,
        0.225741163,
        -1.07173,
        0.110648051,
        0.0221654028,
        0.409291655,
        0.0233703032,
        -1.10670424,
        -0.08634325,
        -0.5340687,
        -0.0946267545,
        0.0749455243,
        0.360527068,
        0.4547374,
        0.380948365,
        0.6652171,
        -0.562370956,
        -0.7368278,
        0.403677464,
        -0.470839918,
        -0.636628151,
        -0.08821213,
        -0.135230586,
        -0.09870918,
        -0.13056843,
        -0.4561962,
        1.15979767,
        0.331820637,
        0.391924471,
        -0.3810136,
        -0.4059419,
        -1.09124172,
        1.33091581,
        -0.1904851,
        0.09640307,
        0.8758063,
        -0.0366512127,
        0.7410749,
        -0.337338656,
        0.37163952,
        0.115927413,
        0.265843,
        -0.829278,
        0.8108444,
        0.362478077,
        0.4788482,
        -0.0982481,
        -0.268611848,
        0.437641919,
        -0.2934253,
        -0.177961484,
        -0.5521136,
        -0.259596974,
        -0.264911264,
        -0.06723647,
        -0.0145449052,
        1.29231369,
        -0.3243932,
        -1.15693569,
        0.3933125,
        0.00171716046,
        0.108921885,
        0.692899,
        -0.3023449,
        0.01871248,
        0.227699,
        1.20059443,
        -0.382339418,
        -0.08039258,
        -0.231235564,
        0.489076257,
        -1.07061434,
        0.2747636,
        -0.8554563,
        -0.380084127,
        -0.129002437,
        0.178119257,
        -0.00393103156,
        0.312047839,
        0.7815619,
        -0.2980813,
        -0.300743967,
        -0.293118924,
        0.02342964,
        -0.227424413,
        -0.2427948,
        -0.134567067,
        0.234727249,
        -0.0653725,
        0.1937657,
        0.0519085228,
        0.610019445,
        -0.3315162,
        -0.517715633,
        0.2396722,
        -0.8265757,
        -0.273411959,
        -0.418584734,
        -0.0328756161,
        -0.115142308,
        -0.31682995,
        0.01700184,
        0.389375448,
        -0.008997842,
        -0.1580838,
        -0.3195626,
        -0.09711115,
        -0.558265448,
        0.263796657,
        0.277537644,
        0.177382618,
        -0.0389741436,
        -0.139890835,
        -0.6128668,
        0.521259248,
        0.235658839,
        0.857842565,
        -0.222411513,
        0.793001831,
        0.368641764,
        0.3390569,
        0.216141552,
        0.453808,
        0.32730642,
        -0.6612235,
        -0.1882471,
        -0.120600551,
        -0.368836164,
        0.507850766,
        0.3136279,
        -0.8459765,
        0.196012482,
        -0.0713462159,
        -0.108392827,
        0.182077423,
        -0.2830929,
        -0.381674916,
        0.2417166,
        -0.2676004,
        -0.342546582,
        -0.4509714,
        0.6783602,
        -0.7947922,
        0.4229153,
        0.508188665,
        -0.295289546,
        0.934109151,
        0.559988141,
        -0.50467813,
        0.07499731,
        -0.510213435,
        -0.625041246,
        -0.295355469,
        -0.110339865,
        -0.160557345,
        0.8496547,
        -0.529095232,
        -0.59484446,
        0.347463369,
        0.08074855,
        0.4626971,
        1.0381763,
        -0.06574543,
        -0.546112,
        0.320722044,
        0.416679353,
        0.8399499,
        0.636036932,
        -0.3164854,
        0.111040309,
        0.195861831,
        -0.290919423,
        0.3091798,
        0.209525511,
        0.681267738,
        0.1920314,
        -0.317554116,
        -0.403496623,
        -0.5965109,
        0.12300317,
        0.662756145,
        0.217342436,
        0.569985032,
        -0.1419523,
        0.478619277,
        -0.07312194,
        0.2769556,
        0.115513951,
        -0.01877631,
        0.12382748,
        -0.316496581,
        0.6113453,
        -0.102689974,
        -0.6638126,
        0.120928317,
        -0.0208535884,
        0.4988469,
        0.3033844,
        0.631876945,
        0.771436155,
        0.505064368,
        0.133732468,
        0.293810546,
        0.100465253,
        -0.03490026,
        0.665702462,
        0.329524964,
        0.00187688961,
        -0.47403416,
        0.177943155,
        -0.0020587726,
        0.09821124,
        0.5703298,
        0.184728086,
        -1.00554347,
        -1.15635443,
        -0.24752292,
        0.5746446,
        -0.11784856,
        0.62388587,
        0.334866881,
        -0.562967,
        0.416910738,
        -0.8019615,
        -0.221345857,
        -0.670695364,
        -0.5512524,
        0.180390567,
        -0.498382747,
        -0.10443636,
        0.0459581651,
        -0.7290532,
        -0.142890245,
        0.6630416,
        0.6402596,
        0.49719575,
        -0.554881,
        -0.158853486,
        -0.3772875,
        -0.460411251,
        -0.467799932,
        0.411528617,
        0.441112131,
        0.4638421,
        0.766255,
        0.100183554,
        0.565810263,
        0.009547155,
        0.190984815,
        0.0383563936,
        -0.225618348,
        -1.176005,
        0.414010167,
        0.5568609,
        0.7483831,
        0.111111514,
        -0.534710348,
        0.8664124,
        0.107451133,
        -0.484990865,
        -0.3068352,
        0.0196995549,
        0.07430279,
        -0.06365245,
        -0.338113517,
        -0.365773171,
        0.48237288,
        -0.6126728,
        0.0621512681,
        -0.0613557473,
        0.151340947,
        -0.07194978,
        0.769413948,
        0.682958543,
        0.2311254,
        -1.12718809,
        0.2996925,
        -0.143524125,
        0.0608835742,
        0.1547262,
        0.316129267,
        -0.33713606,
        0.5842063,
        0.3218414,
        0.100058414,
        -0.117142141,
        -0.335046053,
        -0.652240932,
        0.524038,
        0.6115365,
        -0.5903879,
        -0.0993582457,
        0.710535049,
        -0.222890645,
        0.2669026,
        -0.55837816,
        -0.183189809,
        -0.321573,
        -0.9374517,
        -0.554007053,
        -0.3835926,
        -0.40934366,
        0.497285783,
        0.6381982,
        0.311831445,
        -0.818706036,
        -0.2540158,
        -0.7347976,
        -0.282363564,
        0.137924239,
        -0.88806057,
        0.06528314,
        0.03739606,
        -0.3550314,
        0.010192,
        0.167394057,
        -1.00831044,
        -0.698578358,
        -0.5957633,
        0.351412565,
        -0.5053291,
        0.361526668,
        -0.2836628,
        0.2481624,
        -0.742217541,
        -0.141520292,
        0.0980098844,
        -0.716070354,
        -0.07119341,
        0.2237984,
        0.833403766,
        0.214522824,
        0.7628886,
        -0.363219976,
        -0.096367456,
        -0.498286,
        -0.455920219,
        -0.6089073,
        0.396262258,
        0.148392439,
        -0.0121439081,
        -0.425501525,
        -0.349410146,
        1.00854671,
        0.445609659,
        0.30468604,
        0.167306215,
        0.216365919,
        0.356729537,
        0.170632228,
        -0.707479239,
        0.231701449,
        -0.03990311,
        -0.460027039,
        0.2835699,
        -0.08186619,
        0.346535653,
        0.206687689,
        0.0268347617,
        -0.133508518,
        1.09500921,
        0.0176598728,
        0.110220648,
        -0.5038934,
        0.593256235,
        0.9422909,
        0.268773,
        -0.764917552,
        -0.8002565,
        0.44059962,
        -0.117717013,
        0.6843468,
        -0.9697421,
        0.7853349,
        0.0963081643,
        -0.157340318,
        0.172704086,
        0.127216861,
        -0.3562788,
        -0.0527177826,
        0.563176036,
        0.216027588,
        0.374962479,
        -0.365589619,
        -0.08841714,
        0.1642551,
        -0.302948684,
        -0.259591,
        -0.2966722,
        0.1375817,
        -0.42795983,
        -0.270110339,
        -0.14116171,
        -0.2056358,
        0.00352191227,
        0.5078525,
        -0.0638765,
        -0.168976083,
        0.6035443,
        -0.224477336,
        0.240765721,
        0.343363762,
        -0.118514016,
        -0.530701637,
        -0.286836565,
        0.6832027,
        0.420064479,
        0.02783218,
        -0.364131659,
        0.0620265529,
        0.84384954,
        0.451923668,
        0.11898493,
        -0.408269,
        -0.193550065,
        -1.39169133,
        1.01307619,
        -0.313042849,
        0.149250209,
        -0.396171242,
        0.0716823637,
        -0.102741465,
        -0.130541161,
        0.18965368,
        -0.07103336,
        0.7425491,
        0.297649652,
        -0.1704992,
        0.149831936,
        -0.06567612,
        -0.78733325,
        -0.686951756,
        -0.4164664,
        1.06919825,
        -0.58000493,
        -0.08486174,
        -0.5009971,
        0.667066932,
        0.4067334,
        0.125435412,
        -0.830170035,
        0.0125392769,
        0.102565445,
        -0.08337427,
        -0.4343251,
        -0.290352,
        -0.115169756,
        -0.5723208,
        0.267113149,
        0.5345626,
        1.01315331,
        -0.08791037,
        0.5950458,
        -0.6369567,
        -0.8205638,
        0.354249865,
        0.417689323,
        -0.05852502,
        0.07298013,
        -0.113837056,
        -0.115863368,
        0.7334166,
        0.32210356,
        -0.18250078,
        0.296617061,
        -0.081368,
        -0.6702016,
        0.8349131,
        0.184847489,
        -0.256662071,
        0.7127072,
        -0.102738388,
        -0.5327039,
        0.626403153,
        -0.052240178,
        -0.165543452,
        -0.292588562,
        -0.9383882,
        0.00178986322,
        -0.100937091,
        0.073299,
        -0.5553834,
        0.3409691,
        -0.05061264,
        0.198250845,
        1.36225951,
        0.336412042,
        1.00897658,
        -0.50901103,
        -0.418380976,
        0.288728237,
        -0.153695732,
        -0.9959868,
        0.458718,
        0.317347944,
        0.11343617,
        0.149860054,
        0.205029011,
        -1.09452236,
        1.0517205,
        0.3967388,
        -0.7697741,
        0.09643882,
        -0.235740408,
        0.756772459,
        -0.2898243,
        -0.9930568,
        0.371151179,
        0.0974619761,
        0.196310654,
        0.89506793,
        0.45011276,
        0.2437532,
        -0.601267,
        0.432957232,
        0.0133383675,
        0.776986539,
        0.0878458247,
        -0.275530577,
        0.557239,
        -0.176268667,
        0.128607929,
        0.2159113,
        0.822490931,
        0.0333336443,
        0.289209157,
        0.418242842,
        0.16875501,
        0.1722431,
        -1.45317578,
        0.10375239,
        -0.110040762,
        -0.5392106,
        0.532670259,
        0.0356949754,
        0.205129251,
        -0.6886579,
        -0.8295921,
        -0.450644851,
        -0.42596975,
        0.452114,
        -0.7457525,
        -0.494337,
        0.244853944,
        0.0638179556,
        0.128645763,
        -0.861323833,
        0.286054879,
        -0.08810164,
        0.305440277,
        0.1925531,
        -0.412361979,
        -0.311199665,
        0.630855441,
        0.04510501,
        0.18273367,
        -0.118879333,
        -0.491583765,
        0.5944841,
        -0.279509157,
        -0.08919547,
        -0.903484643,
        -0.03256158,
        0.6066963,
        0.154927567,
        0.269333333,
        0.349536538,
        0.2339168,
        0.7909604,
        0.400131881,
        1.18965924,
        -0.396975756,
        0.439759851,
        -0.502368748,
        0.0561881326,
        -0.6328611,
        0.6274613,
        0.300836563,
        0.00181016221,
        -0.445581883,
        0.5064339,
        0.8391688,
        -0.398318022,
        -0.358458757,
        0.0812218,
        -0.775376737,
        -1.27968919,
        -0.7467341,
        0.401289046,
        -0.01813179,
        -0.613446355,
        -0.723782,
        0.08912076,
        -0.569409251,
        -0.225196362,
        -0.3268467,
        -0.241384864,
        0.241098017,
        -0.7150997,
        -0.2628653,
        -1.18665576,
        -0.123690218,
        0.987629056,
        -0.220197648,
        -0.5373234,
        0.7024408,
        -0.466867954,
        0.0007147631,
        -0.0136247631,
        0.000799116,
        -0.04177388,
        0.4692564,
        0.962285757,
        -0.56873095,
        0.325253248,
        0.0979591161,
        0.3437387,
        0.47755608,
        -0.05625589,
        0.465661317,
        -0.07189123,
        -1.18221807,
        -0.09479378,
        -0.377059758,
        0.161613137,
        -0.319056034,
        0.70502156,
        -0.348452568,
        0.037174467,
        -0.3327106,
        -1.25144267,
        -0.482397735,
        -0.191658258,
        -0.147494465,
        0.1108224,
        -0.847207367,
        -0.337346166,
        -0.456476837,
        -0.485027254,
        -0.07450615,
        -0.6142546,
        -0.616964459,
        0.180085182,
        -0.9194968,
        -0.00248566177,
        0.138620779,
        0.362170875,
        0.372014165,
        -0.451630384,
        0.5198585,
        -0.495544374,
        -0.07491781,
        0.001308792,
        -0.67114,
        -0.602700055,
        0.822440863,
        -0.492956638,
        -0.0275590364,
        0.3413169,
        -1.170898,
        0.558529735,
        -0.755588353,
        -0.8942646,
        -0.00635367353,
        -0.0757385045,
        -0.237201646,
        -0.2633002,
        0.4145052,
        0.722253561,
        -1.05416322,
        -0.50623095,
        0.352133751,
        -0.2858341,
        0.36705485,
        1.19255972,
        0.655604,
        0.552527,
        -0.547591746,
        -0.8374585,
        -0.06781025,
        0.8514476,
        -0.156386435,
        0.134771183,
        -0.1160754,
        0.453061879,
        0.366144776,
        0.179305583,
        0.368560672,
        -0.29681024,
        0.156672135,
        -0.883915,
        0.642696738,
        -0.249006838,
        -0.5983522,
        0.42373994,
        -0.298896074,
        -0.485705316,
        0.7788642,
        0.375812382,
        -0.1567083,
        -0.192539468,
        0.422309518,
        -0.31719017,
        -1.15382028,
        -0.264953017,
        0.443991363,
        -0.2238808,
        -0.0749578848,
        -0.7650662,
        0.014060853,
        0.83481425,
        -0.320270121,
        -0.149137825,
        0.499660581,
        -0.588448942,
        0.204625249,
        -0.275003284,
        0.5296134,
        -0.891368747,
        0.318835884,
        -0.4668896,
        -0.00654548,
        -1.17019641,
        0.0531978868,
        -0.361408651,
        0.4477751,
        -0.528567255,
        -0.742857456,
        0.359300047,
        -0.832634151,
        0.03069982,
        0.136436239,
        -0.424892575,
        -1.52807307,
        0.5537693,
        0.3966528,
        -0.22253269,
        -0.436552048,
        -0.217278555,
        0.0205263831,
        0.153068408,
        -0.128067285,
        0.724954844,
        -0.4738903,
        0.0623159148,
        -0.248878017,
        0.7009757,
        -0.7748892,
        0.201146111,
        0.325547755,
        -0.167696476,
        0.6438367,
        0.5145818,
        -0.0558364876,
        0.04034836,
        -0.173282877,
        -0.470893025,
        0.162499771,
        0.598080158,
        0.09982703,
        -0.4713892,
        -0.7872016,
        0.37891674,
        0.0812498853,
        -0.7245116,
        -0.219955191,
        0.6696467,
        1.40159571,
        -0.7182106,
        0.37030676,
        -0.1738712,
        0.2945795,
        -0.037441507,
        -0.123329908,
        -0.168253839,
        -0.339573234,
        -0.505571,
        -0.4534606,
        -1.02761614,
        -0.1255111,
        -1.463103,
        -0.209648415,
        0.08670894,
        -0.03976093,
        0.4167289,
        -0.3519068,
        0.161720932,
        -0.4489652,
        0.401881248,
        0.373228848,
        0.8505369,
        0.1184622,
        -0.2212562,
        -0.7559483,
        -0.09783918,
        -0.230116308,
        -0.24278228,
        -0.2937937,
        0.0411875322,
        -0.167184666,
        -0.26968503,
        -0.5406477,
        -0.138456434,
        -0.7393532,
        0.4635363,
        -0.120600112,
        0.7529051,
        -0.357279629,
        0.116137274,
        -0.898345768,
        0.19171676,
        -0.6798569,
        -0.267104775,
        -0.0377716459,
        -0.344829559,
        0.12793088,
        0.7260261,
        -0.378831655,
        -0.04304577,
        -0.817196131,
        0.657175362,
        -0.26814124,
        -0.01766157,
        -0.30012235,
        0.576550245,
        0.6029467,
        -0.4591822,
        0.773545444,
        -0.945029855,
        0.395598233,
        0.7026708,
        -0.03276033,
        0.237006873,
        -0.508889258,
        0.122907273,
        0.2988947,
        -0.319119632,
        0.9538479,
        0.0382883847,
        -0.106384858,
        0.4816988,
        -0.4290873,
        -0.9060045,
        0.885811865,
        -0.0427508056,
        -0.411669731,
        0.42496714,
        -0.274106681,
        0.372344941,
        -0.01990742,
        0.03369493,
        0.5742666,
        0.5861414,
        -0.572207153,
        -0.4119138,
        1.07339573,
        0.07651395,
        0.06145151,
        -0.123467028,
        -0.336606741,
        0.13688314,
        -0.00852283649,
        0.03338235,
        -0.578792334,
        -0.3311387,
        0.6662428,
        -0.473151267,
        -1.18319178,
        0.4926175,
        -0.6543376,
        -0.8436833,
        0.141790792,
        -0.4337835,
        0.565918446,
        -0.0824525952,
        -0.530219,
        -0.2596105,
        -0.209440649,
        0.47990492,
        0.9558258,
        0.146104291,
        -0.170398861,
        0.7434869,
        -0.42985642,
        -0.351665854,
        0.5943786,
        -0.266272724,
        -0.143685877,
        -0.4819157,
        -0.0350555144,
        -0.6173984,
        0.5489146,
        -0.0875733942,
        -0.2687521,
        -0.448656827,
        0.3018239,
        0.415998727,
        -0.0529551879,
        0.754524767,
        -0.462471217,
        0.319629282,
        0.009363956,
        -0.308307558,
        0.288443029,
        -0.141956478,
        -0.274421543,
        -0.507318854,
        0.277580768,
        -0.343900532,
        0.350632071,
        -0.7738145,
        -0.624976456,
        -0.429302871,
        -0.09466857,
        -0.06374045,
        0.6569134,
        -0.15209,
        -0.6885615,
        -0.618305564,
        -0.2560041,
        0.8870316,
        0.0207648668,
        -0.811043143,
        0.9521909,
        0.188610077,
        -0.225238025,
        -0.211005047,
        0.394657224,
        0.3210164,
        0.094350405,
        0.674166858,
        -0.5058692,
        -0.234766364,
        -0.752792239,
        0.6085945,
        0.738124132,
        -0.5383366,
        0.0834396,
        0.176307723,
        -0.492233157,
        -0.2805936,
        0.672345757,
        -0.5127039,
        0.07913258,
        0.4723054,
        -0.0248383656,
        0.0789527446,
        0.718337357,
        0.0999563858,
        0.3399648,
        0.07125456,
        0.0822904855,
        -0.332054824,
        -0.6333032,
        -0.278480381,
        -0.316019744,
        -0.231413409,
        -0.6340427,
        -0.337044775,
        -0.259271562,
        -0.5249122,
        0.150599018,
        -0.1459833,
        0.0437218435,
        0.3487017,
        0.283097565,
        0.2529526,
        -0.1232086,
        0.178285867,
        0.192684308,
        0.0289879851,
        -0.350396,
        -0.9525026,
        0.174382046,
        -0.8041951,
        0.2085201,
        0.67962873,
        0.291760832,
        -0.860014737,
        -0.290962547,
        -0.2175916,
        0.205314174,
        0.009868379,
        -0.227621615,
        -0.166026264,
        0.76184,
        0.7581574,
        -0.0255831629,
        -0.1187396,
        -0.7519918,
        0.31063202,
        0.49301216,
        0.659358144,
        0.4951461,
        0.404153079,
        -0.243321791,
        -0.0142298779,
        0.341707081,
        -0.575799465,
        -0.575049937,
        0.1963834,
        0.09047469,
        -1.052179,
        -0.638554454,
        -0.07362734,
        0.540633559,
        -0.685369849,
        -0.9078542,
        0.254437029,
        -0.690753162,
        0.0041195075,
        -0.564773142,
        -0.0475392528,
        -1.25908351,
        0.0581814535,
        -0.214305,
        0.6491492,
        -0.07810454,
        0.6391654,
        0.5320725,
        -0.11670211,
        -0.007484778,
        -0.9143504,
        -0.5853997,
        -0.483501673,
        0.120203376,
        0.5099274,
        -0.258493543,
        -0.5097714,
        -0.8833157,
        -0.2554964,
        0.02798735,
        0.512782633,
        -0.312657058,
        -0.5794548,
        0.255718082,
        0.967728853,
        0.4385917,
        -0.588817239,
        -0.116143562,
        -0.626765132,
        0.0457631461,
        0.258313984,
        -0.245792821,
        0.102125585,
        0.2304978,
        -0.24007374,
        -0.00193399214,
        0.7787395,
        -0.947208,
        -0.692468047,
        -0.8839544,
        0.232043311,
        0.730470359,
        0.05417579,
        0.791117549,
        -0.82517153,
        0.01231971,
        -0.143660024,
        -0.01681805,
        -0.171136722,
        0.320667952,
        0.617065251,
        -0.09523229,
        -0.188460752,
        -0.5840548,
        0.310853571,
        -0.411010653,
        0.335448623,
        -0.9194188,
        -0.5403983,
        0.7779214,
        0.0390204079,
        -0.01059797,
        0.7344849,
        0.162823543,
        0.16670464,
        -0.8136186,
        0.5432797,
        -0.152540937,
        -0.443660259,
        0.115428887,
        0.991150558,
        0.1370963,
        -0.116678335,
        0.18174088,
        0.5733682,
        0.512494564,
        0.0406321175,
        0.231028631,
        -0.240204319,
        0.5297758,
        -0.4253652,
        -0.614051044,
        -0.174928248,
        0.5169163,
        1.14365327,
        -0.45670706,
        -0.8694794,
        -0.189678028,
        -0.2517383,
        -0.0418312475,
        -0.354161143,
        -0.972667634,
        0.0144782746,
        -0.28217423,
        -0.435032964,
        -0.026747819,
        -0.495946139,
        -0.606632,
        -0.3675539,
        0.3367909,
        0.3532978,
        0.06307938,
        -0.0303028,
        0.706870556,
        0.3382803,
        -0.9895892,
        -0.4670941,
        0.1295986,
        0.2299152,
        -0.527951658,
        0.1894179,
        1.17265928,
        0.281036019,
        -0.7138948,
        -0.465679735,
        -0.511366963,
        0.259238839,
        0.525953948,
        -0.07449688,
        0.09544881,
        0.294965237,
        -0.52381736,
        -0.150885165,
        -0.1606421,
        -0.402992636,
        -0.26325804,
        -0.409807682,
        -0.9126128,
        0.5402327,
        0.8151501,
        -0.8344925,
        -0.309901685,
        0.382575,
        0.0962312147,
        0.3823081,
        0.3342341,
        1.02889848,
        0.5621214,
        -0.235725224,
        -0.416441947,
        0.122617565,
        -0.00653225742,
        -0.5875482,
        1.32767022,
        -0.213886887,
        -0.520842135,
        -0.752787352,
        -0.250163883,
        -0.292946368,
        0.709335744,
        0.2842204,
        -0.449327171,
        -0.698495448,
        0.0507435054,
        0.3943022,
        -0.9843656,
        0.30079,
        -0.355363727,
        0.275937319,
        1.21447313,
        0.9372571,
        1.12203729,
        -0.34137544,
        0.139861047,
        -0.27854985,
        0.0460562445,
        -0.8093219,
        -0.22408542,
        0.66707927,
        -0.45341,
        0.8945636,
        -0.5322158,
        0.185448,
        0.419109166,
        -0.6004616,
        -0.127433464,
        0.0726759657,
        0.281323642,
        -0.47796917,
        0.24976024,
        0.285620868,
        0.06028593,
        -0.04816117,
        0.716603041,
        -0.6203682,
        0.8656874,
        -0.2610373,
        -0.4423602,
        0.3418798,
        -0.6681214,
        0.07758182,
        0.3601504,
        0.132230043,
        0.4618792,
        -0.60180074,
        -0.132325277,
        -0.9859018,
        0.2644768,
        0.101887368,
        0.0924597755,
        0.7755271,
        -0.792113543,
        0.969298244,
        0.4785527,
        0.4256208,
        -0.236164257,
        -0.254291058,
        0.175858468,
        -0.002402128,
        -0.258092016,
        -0.586866,
        -0.343234479,
        0.6305779,
        -0.474375069,
        -0.5849297,
        0.685183048,
        0.866714537,
        -0.0119642,
        0.009000662,
        0.417671382,
        -0.153974026,
        -0.172072947,
        -0.782506049,
        -0.885483563,
        0.0295840837,
        0.377956748,
        0.609369338,
        0.232570529,
        0.113373235,
        0.369172454,
        0.499100417,
        0.2074167,
        0.0500888228,
        -0.472360641,
        -0.492438853,
        -0.5416549,
        -0.66911906,
        0.0142176412,
        0.106614783,
        -0.5397782,
        -0.0644057,
        0.2183379,
        0.1125979,
        -0.06143942,
        0.21859999,
        -0.785131752,
        1.5361886,
        1.09470594,
        -0.08013429,
        0.11308296,
        0.3251694,
        0.372067958,
        -0.0265157931,
        0.304084271,
        -0.546696067,
        0.352644861,
        0.108698167,
        -0.8206508,
        -0.00673171226,
        0.407564372,
        0.674647152,
        -0.568604946,
        -0.947709739,
        1.08644521,
        -0.279604763,
        0.7966545,
        0.0169146,
        0.3622523,
        -0.8814956,
        -0.103227645,
        -0.8807226,
        0.801346064,
        -0.285934359,
        -0.6540187,
        0.12610817,
        0.424491733,
        -0.137739584,
        -0.318461418,
        0.0181723125,
        0.1292533,
        0.388892829,
        0.9957532,
        0.23667115,
        0.265660524,
        0.6777866,
        0.366752833,
        -0.248819664,
        0.60474503,
        0.107309721,
        -0.6337897,
        -0.468489826,
        -1.258499,
        0.132211551,
        -1.63310742,
        0.1619807,
        0.266907424,
        1.14361691,
        0.3294865,
        0.0541681647,
        0.5844493,
        0.632294655,
        -0.167181909,
        0.07339544,
        0.331298232,
        0.21591109,
        0.285056531,
        1.2486012,
        -0.779896438,
        1.18792593,
        -0.312567234,
        0.648855,
        0.2195671,
        -0.438023478,
        -0.04115016,
        -1.10334265,
        0.688918,
        -1.216665,
        -0.483077258,
        0.04967755,
        -0.281724185,
        0.378501862,
        -1.074844,
        0.100183316,
        0.544905245,
        0.244055986,
        -0.761307657,
        -0.302045316,
        -0.8623686,
        0.27600947,
        -0.0134903053,
        -0.5112274,
        0.6502056,
        -0.115410388,
        -0.164849862,
        -0.331790358,
        1.230776,
        0.880100846,
        0.03674271,
        -0.3394632,
        -0.490935415,
        0.2059587,
        -0.5872572,
        -0.267423242,
        -0.27643168,
        -0.200072959,
        -0.181687549,
        -1.160655,
        0.394627273,
        -1.3014636,
        -0.536089,
        -0.4283713,
        -0.897898734,
        -0.0493174978,
        -0.462165177,
        1.32396042,
        -0.6760499,
        1.28627479,
        -0.650998056,
        -0.06844509,
        -0.915159941,
        -0.0204388369,
        -0.281491816,
        -0.3788739,
        -0.518843,
        -0.216159925,
        -1.18958223,
        0.385641664,
        0.611705,
        0.101807304,
        -0.208915964,
        1.64407837,
        -1.15280449,
        0.7428209,
        0.04027418,
        -0.201600268,
        -0.196468979,
        -0.132161036,
        -0.265779257,
        -0.188440621,
        0.236010075,
        -0.640406847,
        0.190250531,
        -0.209473521,
        0.130174145,
        -0.241243184,
        0.5250764,
        -0.0422218554,
        -0.651668131,
        0.230111808,
        0.456149846,
        -0.155215845,
        0.131696135,
        -0.609157264,
        0.5368572,
        0.285833478,
        -0.016856987,
        -0.8511311,
        0.0101337982,
        0.5493856,
        -0.7692772,
        -0.792508066,
        -0.706635237,
        0.721986949,
        0.211456344,
        0.3142911,
        -0.697295666,
        -0.374973178,
        0.04173894,
        -0.0006277713,
        -1.40258634,
        -0.265469372,
        -0.353606015,
        0.163798928,
        -0.9186966,
        0.730730534,
        -0.084835276,
        0.6116941,
        0.07137575,
        0.0333989337,
        0.763047636,
        1.161126,
        -0.5723297,
        -0.155951068,
        0.470082939,
        0.080056645,
        0.0121683106,
        0.0462982953,
        -0.042679932,
        -0.132405058,
        -0.428388476,
        -0.0275182761,
        0.2568393,
        0.0555024631,
        0.9775995,
        -0.6268512,
        -0.2375612,
        -0.8736597,
        -0.22791715,
        -0.3813906,
        0.8803242,
        -0.0819551945,
        -0.335915744,
        -1.49470031,
        -0.08744463,
        0.1194377,
        -0.135052145,
        -0.08207639,
        0.236296281,
        0.6524885,
        0.141091853,
        0.5648191,
        -0.263433129,
        0.0748246,
        0.779398561,
        0.265579522,
        -0.114851072,
        0.409336269,
        -0.5686325,
        0.6283939,
        -0.544609547,
        -0.3214297,
        -0.363840938,
        0.109614193,
        -0.211709678,
        0.0399594828,
        -0.7725689,
        -0.3619134,
        -0.00656650076,
        0.117297806,
        0.352131754,
        0.392058671,
        -0.500678957,
        -0.0143679632,
        0.459719539,
        0.095932655,
        0.789236248,
        -0.907054,
        0.766847849,
        -0.289767563,
        0.346985459,
        0.123641863,
        -0.634465158,
        0.8306023,
        -0.8900649,
        -0.01787805,
        0.4834185,
        -0.0927013755,
        -0.3030669,
        -0.196100459,
        -0.005868423,
        -0.08986845,
        0.486961454,
        -0.453072041,
        0.200110987,
        -0.493454456,
        -0.660115659,
        -0.931024,
        0.0514213964,
        -0.104870468,
        -0.3840217,
        -0.202316537,
        0.07542407,
        -0.446551472,
        -0.8328191,
        -0.0188431982,
        -0.273369133,
        0.237027422,
        -0.2730146,
        0.0621239,
        -0.5003458,
        0.3230573,
        1.06497753,
        -0.473898828,
        -0.3762941,
        -0.542781234,
        -0.5879886,
        -0.2949082,
        -0.29916364,
        -0.05485527,
        -0.8267648,
        0.273788333,
        -0.3681582,
        -0.44589138,
        0.3491046,
        -0.227478,
        -0.205067635,
        -0.3031974,
        0.5294512,
        -0.06466371,
        -0.287034541,
        0.253067881,
        -0.407121778,
        -0.132292271,
        -0.705165565,
        0.6146281,
        0.41753003,
        -0.175762862,
        -0.31057477,
        0.07407239,
        0.8335276,
        0.414255261,
        0.6420235,
        0.240309209,
        -0.331658572,
        -0.659809649,
        -1.03450847,
        -0.220653057,
        -0.0318127833,
        -0.425644428,
        -1.00558341,
        -0.0191362426,
        -0.255307466,
        0.45170486,
        -0.415664166,
        0.0362031981,
        -0.7515161,
        0.1263593,
        0.176043734,
        -0.469560772,
        0.221380919,
        1.05208385,
        -0.204291821,
        0.527011335,
        1.11957645,
        0.113393262,
        -0.209647119,
        -0.116535977,
        0.2599574,
        -0.3748356,
        -0.295295626,
        -0.35007146,
        -0.161520168,
        0.73287183,
        0.295983225,
        0.20088692,
        0.00687921,
        0.287927836,
        -0.614140749,
        0.180562764,
        -0.5194253,
        -0.38936007,
        0.375865459,
        0.8542611,
        -0.2803962,
        0.343789428,
        -0.188395187,
        -0.07149951,
        -1.11591,
        0.023874037,
        0.390035778,
        -0.6119189,
        0.6000728,
        0.261769027,
        0.09241326,
        -0.212358788,
        0.0155866323,
        0.277461827,
        -0.9857714,
        0.151164189,
        -0.06626204,
        -0.0521744378,
        0.17106846,
        0.930313468,
        0.6286439,
        -0.93353647,
        -0.4259557,
        -0.529906869,
        0.395606,
        -0.220241934,
        0.3387429,
        0.3232465,
        0.6099148,
        -0.174309313,
        -0.03980121,
        -0.5140359,
        -0.368886,
        -0.0234444216,
        -0.258766055,
        0.400708675,
        -0.200847223,
        -0.206794679,
        -0.7666233,
        -0.6285953,
        -0.184021324,
        0.3385262,
        0.1054684,
        0.364368379,
        -0.015167837,
        0.96462,
        -0.007828091,
        -0.211324275,
        0.198689818,
        0.297891438,
        -0.306724578,
        -0.259167552,
        -0.219062567,
        0.46650973,
        -0.7327449,
        0.24640362,
        0.123047873,
        0.484632224,
        0.8068478,
        0.2789415,
        0.5990986,
        0.3327931,
        -0.4533042,
        -0.9394176,
        -0.272581279,
        0.04873354,
        0.9160769,
        0.00158410124,
        -0.219779536,
        0.0330342352,
        0.188753039,
        0.220221788,
        0.2431455,
        -0.7553412,
        0.525967836,
        -0.4103599,
        -0.527933657,
        -0.129204378,
        0.192755312,
        -0.349982351,
        -0.378407419,
        -0.8996607,
        -0.233145624,
        0.122969739,
        0.189116389,
        0.224182561,
        -0.09857983,
        -0.646407843,
        0.245762572,
        0.620257139,
        -0.0245441757,
        -0.121189415,
        -0.445445985,
        0.338874072,
        -0.4717179,
        -0.204299733,
        0.344220877,
        0.8389343,
        -0.78512913,
        0.08119092,
        0.4822617,
        -0.013053393,
        0.4644028,
        0.3147941,
        0.0419026,
        -0.5843676,
        0.410896152,
        0.182504371,
        0.4697858,
        -0.326444924,
        -0.105265304,
        0.123990528,
        0.189335823,
        -1.03450131,
        0.7500531,
        -0.610109,
        0.198677838,
        1.01674449,
        0.345303684,
        -0.161881864,
        0.290514857,
        0.022851713,
        -0.309343,
        -0.4414392,
        0.52406764,
        0.479889572,
        -0.164204285,
        -0.320324659,
        -0.795729756,
        -0.3133022,
        0.351742119,
        0.186362058,
        -0.0293629766,
        -0.3602349,
        -1.04120839,
        0.111995444,
        0.8573281,
        -0.659412861,
        -0.0143782748,
        -0.213583976,
        -0.5685611,
        0.9502804,
        0.8862453,
        -0.16108042,
        0.222755581,
        -1.06308651,
        -0.495798647,
        0.3535055,
        -0.628749132,
        -0.342776954,
        -0.259544283,
        0.10306675,
        -1.02271163,
        -1.26336133,
        -1.12302125,
        0.3454356,
        -0.5714423,
        0.303911418,
        -0.687521458,
        0.404457778,
        -0.83564,
        1.16250324,
        -0.953409255,
        1.1551398,
        -0.5971168,
        -0.538027346,
        -0.214389727,
        -0.0283331778,
        0.389888257,
        0.11541786,
        1.29172921,
        1.1023159,
        0.108377583,
        1.25626206,
        -1.16305578,
        -0.5296784,
        -0.0787485,
        0.206619844,
        -0.0986971557,
        -0.0375423133,
        0.268586576,
        0.155558452,
        0.209270984,
        0.215035409,
        0.5638292,
        -0.5574146,
        -0.175778344,
        -0.3396291,
        0.880227745,
        0.025734596,
        -0.7881388,
        -0.264111936,
        -0.2644283,
        0.689481735,
        0.540749133,
        -0.17821677,
        0.371384948,
        0.335438043,
        0.836596,
        -0.0145711089,
        0.453478456,
        0.03828068,
        0.21212782,
        0.443721354,
        -0.830582738,
        -0.941947,
        -0.297254145,
        -0.213249862,
        -0.569542468,
        1.02879071,
        -0.6803348,
        -0.5650079,
        0.696788549,
        0.461183578,
        -0.722659767,
        0.616442859,
        -0.342441618,
        0.336179167,
        0.022810882,
        -0.4507307,
        0.44305414,
        -1.11739659,
        0.04363932,
        1.30249465,
        0.06981276,
        0.332323223,
        -0.164483711,
        0.877016068,
        0.4999477,
        0.243194669,
        -0.08273852,
        -1.458998,
        0.06889963,
        -1.65611947,
        1.1819272,
        -0.3070215,
        -0.0557869449,
        0.5550999,
        0.289889216,
        0.241275638,
        -1.00164115,
        -0.0378452577,
        -0.488845855,
        0.112832487,
        -0.06624025,
        -0.444712549,
        -1.00516331,
        -0.496507764,
        -0.324741632,
        0.436719418,
        0.527077,
        -0.769258857,
        0.809746,
        0.344987333,
        -0.929236531,
        -1.003996,
        0.946129858,
        -0.5272112,
        -0.6551333,
        0.70195955,
        -0.622292638,
        -0.5474635,
        0.246017963,
        -0.2811708,
        0.8573268,
        0.501760066,
        -0.849131465,
        0.394600868,
        -0.8554344,
        -0.331394941,
        -0.456245,
        -0.291075855,
        -0.572679043,
        0.594390035,
        0.174073592,
        0.0949227437,
        -0.222647682,
        0.329793125,
        -0.751024067,
        0.381588846,
        0.5972468,
        -0.276343822,
        -0.285143077,
        -0.21144028,
        0.2880398,
        -0.336051673,
        -0.477067918,
        1.14167666,
        -1.39063609,
        -0.653158844,
        0.052096393,
        -0.671567559,
        -0.218358666,
        -0.0382478237,
        0.5879611,
        0.422776133,
        -0.144305691,
        -0.35399434,
        -0.176566839,
        -0.386364222,
        0.7810248,
        0.548826337,
        -0.835333467,
        -0.2042274,
        0.128628761,
        0.395321041,
        -0.02405837,
        -0.7388731,
        0.184656456,
        -0.3550163,
        -0.3884329,
        -0.177753881,
        1.15142989,
        -0.7501319,
        0.230145216,
        0.469024867,
        0.09806949,
        -0.00719777262,
        0.0194915589,
        0.5726616,
        0.153638378,
        -0.111567579,
        -0.368140727,
        0.465320975,
        -0.982891262,
        -0.9902514,
        -0.1345137,
        0.5090179,
        0.7657718,
        -0.6166648,
        -0.283328623,
        0.398445666,
        -1.2736727,
        0.03185064,
        -1.23856413,
        -0.0138112474,
        0.123279996,
        -0.5079905,
        -0.0367886536,
        -0.305235535,
        0.623053253,
        -0.428979516,
        0.520687461,
        0.182495043,
        -0.300626457,
        0.159227982,
        0.6067287,
        -0.58081913,
        -0.111975856,
        0.393244654,
        -0.105979726,
        0.249061361,
        -0.0339367054,
        0.3506703,
        0.1808129,
        -0.0132241128,
        -0.695416152,
        -0.3687724,
        -0.15565145,
        -0.9418228,
        0.4336887,
        0.0536549576,
        0.476614416,
        -0.5803582,
        -0.5264949,
        0.7973071,
        0.5533236,
        0.8717117,
        1.05363655,
        -0.894904,
        0.163855046,
        0.769381046,
        -0.610158265,
        -0.291849,
        -0.2540914,
        0.302382171,
        0.454701424,
        -0.359839678,
        0.326187551,
        0.2469058,
        -0.771712542,
        0.9128303,
        1.25112569,
        -0.3417991,
        -0.354385376,
        0.8813821,
        -0.586977363,
        -0.14429301,
        -0.363673717,
        0.07247565,
        -0.231750891,
        0.486180216,
        0.5243348,
        0.321670771,
        0.623173535,
        0.4618977,
        0.04254159,
        -0.0941574052,
        0.0141472379,
        0.5942446,
        -0.05406477,
        0.912065864,
        -0.273023725,
        0.08093886,
        -0.5019662,
        0.156388089,
        0.0544136725,
        -0.4592458,
        -0.3613712,
        0.302954048,
        0.153595611,
        -0.6100903,
        0.205085263,
        0.254540443,
        -0.110963151,
        0.250680774,
        0.2505477,
        0.237436414,
        0.414554864,
        0.9605509,
        -0.240258381,
        -0.332406849,
        -1.08411181,
        0.231097788,
        0.3604702,
        -0.165050283,
        -0.1666324,
        -0.5732711,
        -0.5843436,
        -1.16326761,
        0.535931647,
        0.28921786,
        -0.0215377789,
        -0.684758842,
        -0.358299941,
        0.540051,
        0.147254661,
        0.00652441941,
        -0.614115357,
        -0.786468,
        -0.6219205,
        1.20021689,
        -0.05113535,
        -0.198196784,
        0.7603539,
        -0.0974721462,
        0.442798167,
        0.334097475,
        0.3412005,
        -1.77049315,
        0.1643368,
        -0.3136618,
        0.2903003,
        0.0660941452,
        -0.297704756,
        -0.32717216,
        0.20433256,
        0.117401093,
        0.357540518,
        -0.6877144,
        -0.287748426,
        -0.692051,
        -0.332892239,
        0.372775525,
        -0.9251972,
        0.08553206,
        -0.0516891442,
        -0.0585560463,
        -0.009762876,
        -0.58437556,
        0.2942897,
        0.728008032,
        0.091332756,
        -0.490952,
        0.173200428,
        0.2381956,
        -0.261753529,
        0.2577298,
        -0.21664618,
        -0.183972016,
        -0.2565324,
        0.143430814,
        0.0411179028,
        -0.434605837,
        -0.526234,
        -0.301626354,
        -0.187186837,
        -1.37308419,
        0.106393464,
        -0.0145335635,
        -0.317168623,
        -0.9409814,
        -0.245121881,
        0.5914074,
        -0.166569933,
        0.07883652,
        0.389864445,
        0.314902127,
        -0.544663,
        0.6153199,
        0.03401842,
        0.235017255,
        0.104070656,
        -0.5152095,
        -0.6152718,
        0.3366107,
        -1.11313093,
        -0.309752047,
        -0.04606337,
        -0.449841768,
        -0.226362184,
        0.5171841,
        0.7761262,
        0.4815932,
        0.163471535,
        -0.089893274,
        0.104439944,
        -0.6116676,
        0.453747,
        -0.40544498,
        0.772175252,
        -0.2645008,
        -0.0255216416,
        0.396837324,
        -0.8432959,
        -0.992933869,
        0.06011678,
        -0.8660047,
        -0.20006679,
        -0.173957229,
        0.09457804,
        -0.197999656,
        0.324636161,
        -0.09224476,
        -0.5524979,
        -0.101501115,
        0.4440711,
        -0.283306658,
        -0.586393654,
        0.521738768,
        0.218233645,
        -0.302098334,
        -0.151138335,
        -0.248803258,
        0.135223418,
        0.42116,
        -0.373707771,
        0.8577469,
        0.254478365,
        -0.1669856,
        0.4946405,
        0.3470731,
        0.04760906,
        -0.2693795,
        0.4079054,
        -0.141164169,
        0.394551218,
        1.40003848,
        0.464407623,
        -1.03943443,
        1.07496941,
        0.561485648,
        0.08412896,
        -0.168837577,
        -0.0195840877,
        0.486198068,
        0.103118949,
        0.00619293,
        -0.419618577,
        -0.190608382,
        -0.575893,
        0.5574034,
        -0.6759681,
        0.2672869,
        -0.195864171,
        0.4460609,
        -0.112980627,
        0.7034177,
        0.353581816,
        -0.6135138,
        -0.2781685,
        -0.455585748,
        -0.663838744,
        -0.110668436,
        -0.393219739,
        -1.48789239,
        -0.356654465,
        -0.699372768,
        -1.23396969,
        0.0834361762,
        0.118577,
        0.53395313,
        0.04229936,
        -0.0561366,
        -0.158299178,
        0.358225435,
        0.760409534,
        0.667792141,
        -0.9416016,
        0.8830261,
        0.09700312,
        0.9675866,
        -0.411819428,
        0.638975859,
        -0.4207328,
        0.342395842,
        0.0122515978,
        0.215770468,
        0.790290833,
        -1.01764154,
        -0.2933869,
        0.197565943,
        0.324381381,
        0.103427015,
        0.536520839,
        0.175748289,
        -0.09886346,
        -0.221876249,
        -0.365261644,
        0.7032307,
        1.19674242,
        -0.08748114,
        -0.03439284,
        0.2905951,
        0.5035081,
        0.489075333,
        0.639312148,
        -0.147386223,
        -0.376447529,
        -0.5853299,
        -0.235211626,
        -0.288220167,
        -0.0183431376,
        0.383787245,
        -0.621483,
        -1.12539291,
        0.179611981,
        -1.23839343,
        0.471750438,
        0.398163646,
        -0.36499387,
        -0.268867552,
        0.5341387,
        0.7819847,
        0.222050041,
        1.32082379,
        0.4301319,
        1.30967546,
        -0.39002493,
        -0.3457388,
        -0.388284951,
        0.926449239,
        -0.114724644,
        -0.358418852,
        0.315032333,
        0.4801965,
        -0.7258414,
        0.8363547,
        0.01296899,
        -0.379371345,
        -0.20984894,
        -0.3178266,
        0.0225495286,
        1.08388567,
        0.476746261,
        -0.5722174,
        0.152683139,
        -0.750727355,
        0.137741089,
        0.046194274,
        0.77623105,
        -0.385921359,
        1.03180873,
        1.18877316,
        -1.414775,
        -0.4434142,
        0.741726339,
        0.384159982,
        -0.7392632,
        0.423461616,
        0.0618835,
        -0.9414295,
        0.105743214,
        -0.6433049,
        0.6143889,
        -0.6211695,
        -0.230710775,
        -0.8571379,
        -0.0193015747,
        0.190458715,
        -1.0211848,
        -0.8645389,
        -0.8912483,
        0.424543232,
        -0.120188832,
        0.129709542,
        -0.35710296,
        0.6225846,
        0.173749939,
        -0.181849658,
        0.7159298,
        -0.38785097,
        0.9454363,
        -0.148424447,
        0.0436325371,
        0.242931664,
        -0.255063772,
        0.102930076,
        -0.503789663,
        1.129719,
        0.009378076,
        -0.140554652,
        -0.5102804,
        -0.521547735,
        0.790497661,
        0.1386557,
        0.287163377,
        -0.8239811,
        0.5978322,
        -0.632038534,
        0.08454965,
        -0.956833661,
        -0.939702868,
        -0.372188181,
        -0.88502264,
        -0.641101837,
        0.959806442,
        0.432362854,
        0.780069053,
        -0.332328439,
        -0.6930412,
        -1.29302526,
        0.5342196,
        -1.42534542,
        0.01812927,
        -0.111749195,
        0.85233295,
        0.193673491,
        0.8899077,
        -0.7249108,
        -0.260583073,
        -0.508526444,
        0.7545408,
        0.160226211,
        0.218657181,
        -0.341369122,
        -1.18605292,
        -0.0203578956,
        -1.10998952,
        -0.17040132,
        0.542818248,
        0.0228980854,
        1.22947168,
        -0.3355999,
        -1.06658089,
        -0.420432866,
        -1.11733806,
        -0.340325445,
        -0.10405767,
        0.7237902,
        -0.918984532,
        -0.0381325521,
        0.116901234,
        0.2060364,
        -0.34276545,
        -0.3586382,
        -0.79649,
        -0.0682932,
        -0.7149652,
        0.3860421,
        0.976697564,
        -1.70885992,
        -0.483697176,
        -0.6746771,
        -0.730802238,
        0.379781365,
        0.199305147,
        0.6465409,
        -0.130936429,
        -0.998171151,
        -0.7575225,
        -0.156823426,
        -0.3513812,
        0.595246255,
        -0.431838542,
        -0.3337919,
        -0.0465177745,
        0.114290476,
        0.6357893,
        0.577219248,
        -0.038147632,
        -0.483118683,
        -0.5737419,
        -0.8536099,
        0.9654048,
        -0.258904368,
        -0.349571854,
        -0.366898775,
        1.29925156,
        0.207608327,
        0.326363266,
        0.05767286,
        0.16524291,
        0.160459042,
        0.415981948,
        -0.349648476,
        0.9071677,
        -0.707958162,
        0.7085387,
        -0.5576846,
        -0.205367461,
        0.127098709,
        0.3966024,
        -0.11890009,
        -0.243707329,
        -0.4332098,
        -0.120545514,
        0.20373556,
        -0.116967291,
        0.6739051,
        0.106396832,
        -0.05256254,
        -0.393723816,
        -0.0420486927,
        -0.264691353,
        -0.1308991,
        -0.161939934,
        -0.866380632,
        -0.0525042377,
        -0.789883137,
        -0.6370104,
        -0.2175085,
        0.615436137,
        0.305977434,
        -1.201877,
        0.202286676,
        0.78087604,
        0.270491153,
        -0.041886583,
        0.255617172,
        0.387975246,
        -0.13205573,
        -0.189825773,
        0.5640891,
        0.09954649,
        -1.25645912,
        0.0633592159,
        0.21847406,
        0.2036796,
        0.00481420336,
        -0.405494481,
        -0.222904086,
        0.0136687867,
        0.221475914,
        0.251055747,
        0.299582541,
        -0.898380458,
        -0.596625745,
        0.150485829,
        -0.7988155,
        -0.133114919,
        0.5402771,
        0.02688883,
        0.350747257,
        0.906171143,
        -0.349988639,
        -0.5094481,
        -0.26584056,
        0.6375524,
        -0.317221552,
        0.873838663,
        0.164427578,
        0.5168877,
        0.101040952,
        0.5342749,
        0.8365249,
        -0.08008224,
        -0.099349,
        0.165416047,
        0.24491097,
        -0.353932142,
        0.6370179,
        -0.416935146,
        -0.019321572,
        1.063752,
        0.338319063,
        0.284019381,
        -0.256416678,
        -0.327525437,
        0.31202963,
        0.322648257,
        0.766292036,
        -0.0510708652,
        0.5465519,
        0.6684838,
        0.482754856,
        0.346155465,
        -0.413456082,
        0.177067146,
        0.357956022,
        -0.619747043,
        -0.5568867,
        0.4027221,
        0.29453665,
        0.9795219,
        0.6665972,
        -0.435267031,
        -0.8744748,
        0.2892874,
        -0.9244581,
        1.28319752,
        0.178066,
        -1.27070439,
        -0.42307514,
        0.285550356,
        0.6408328,
        -0.871235847,
        0.06258094,
        -0.146251321,
        -0.1735726,
        -0.3287726,
        0.309067577,
        0.5183747,
        -0.131475866,
        -0.4529998,
        0.481922269,
        -0.965057969,
        -0.048370976,
        0.0480384938,
        -0.7545286,
        0.0234013312,
        1.11734,
        -0.293731451,
        -0.886813164,
        0.1827549,
        -0.46192047,
        -0.406183779,
        0.00854046,
        -0.4784223,
        -0.318284333,
        0.3972713,
        -0.248637155,
        0.104488172,
        -0.22960259,
        -0.225263432,
        -0.270292372,
        0.314858854,
        0.9377297,
        0.360689759,
        -0.456806958,
        -0.254138261,
        0.862294734,
        -0.64155215,
        -0.368293852,
        0.256364644,
        -0.0575329177,
        -0.244450212,
        -0.6562415,
        0.3351425,
        -0.9142042,
        0.6499426,
        0.4556009,
        1.1063956,
        -0.252807975,
        -0.209999263,
        0.114334412,
        1.05707479,
        -0.809790552,
        -0.120987453,
        0.564799249,
        0.09624951,
        -0.233478054,
        0.3801824,
        0.497973144,
        -0.23761797,
        0.0165602118,
        0.583795249,
        0.592180669,
        -0.6922236,
        -0.204273015,
        -0.349848419,
        0.278330743,
        -0.0770241842,
        -0.065491356,
        -0.395771921,
        -0.190295666,
        0.0748807,
        -0.141726926,
        -0.169886634,
        -0.537472248,
        -0.33903268,
        0.460430145,
        0.0502512939,
        -0.198135868,
        0.410707623,
        -0.447035581,
        0.0585349873,
        -0.01717974,
        -0.0227523148,
        0.405287683,
        -0.324524373,
        -0.108028479,
        -0.100541413,
        -0.1657216,
        0.09817549,
        -0.004746516,
        -0.324796855,
        -0.754751861,
        0.435271,
        -0.5167083,
        0.342045367,
        0.4789178,
        -0.27562356,
        0.148612186,
        -0.8387883,
        0.243705913,
        -0.691451848,
        -0.0677905753,
        -0.5263579,
        0.502468348,
        -0.1907033,
        -0.0563709661,
        -0.904922366,
        -0.830246031,
        0.428635031,
        0.761024,
        -0.521426,
        1.081326,
        1.203826,
        -0.170559257,
        0.08823132,
        0.180202976,
        1.5964663,
        -0.414642245,
        -0.246310771,
        0.819622755,
        -0.447344065,
        0.5600454,
        -0.163797125,
        -0.5228333,
        0.0253603477,
        -0.5789452,
        0.008861115,
        -0.5265889,
        -0.8468246,
        0.22515285,
        0.521614969,
        0.119932845,
        0.07324949,
        -0.3463983,
        -1.04833734,
        0.0211979784,
        1.06543183,
        0.6025636,
        -0.705688655,
        0.202801,
        -0.2724215,
        0.304811716,
        0.400414973,
        0.3593665,
        0.867612362,
        0.23510161,
        0.145649046,
        -1.21508873,
        0.745393157,
        -0.378962159,
        1.35229552,
        -0.115700208,
        -0.293573052,
        -0.00361338258,
        -0.201697156,
        0.469624758,
        0.309506446,
        0.114429459,
        -0.578052461,
        0.324396551,
        -0.3873775,
        0.183577433,
        -1.16524959,
        -1.03230858,
        0.171020538,
        0.330073327,
        -0.783558249,
        0.403150171,
        0.1396569,
        1.06506729,
        0.5263893,
        0.1498917,
        -0.46090433,
        -0.170370057,
        -0.352881372,
        0.742961168,
        0.481879354,
        0.386521161,
        -0.208712175,
        -0.288410962,
        -0.101422675,
        0.0531133041,
        -0.6811614,
        -0.729953766,
        1.06634963,
        -0.403031379,
        0.01253451,
        0.204796717,
        -0.08023321,
        0.215390652,
        -0.5005329,
        -0.6002881,
        0.6227975,
        -0.178304136,
        -0.04307052,
        0.0121721048,
        -0.411080837,
        -1.28906679,
        -0.6006964,
        -0.940940559,
        -0.9235234,
        1.24043,
        0.11518573,
        0.884996533,
        0.557843447,
        1.13676512,
        1.20962012,
        -0.664550543,
        0.638625145,
        -0.156795844,
        0.6662737,
        -0.026083244,
        -0.7069588,
        -0.121219143,
        0.6926261,
        -0.907935143,
        0.300099939,
        0.493872672,
        0.659544468,
        -0.6159784,
        0.728495955,
        -0.727745056,
        1.23026884,
        0.164306313,
        -0.121427357,
        -0.4808656,
        -0.5595029,
        0.7393034,
        0.865216553,
        0.497909039,
        0.141589671,
        0.123135105,
        0.5352802,
        -0.521977663,
        0.227553517,
        0.0711914,
        -0.6202509,
        -0.7080888,
        -0.478810161,
        0.444612682,
        -0.3175602,
        0.432123274,
        -0.4572938,
        -0.2665975,
        -1.088001,
        -0.136502936,
        -0.4361274,
        0.1261784,
        0.240167975,
        -1.13860619,
        -0.368256,
        -0.0756939054,
        0.655942738,
        -0.221290439,
        -0.194141015,
        0.457336634,
        -0.48096168,
        1.786619,
        -0.5328002,
        -0.28800568,
        -0.181538478,
        -0.07617678,
        1.04274976,
        -0.0403312854,
        -0.872754,
        -0.438979656,
        -0.116043046,
        -0.618938565,
        -0.679685831,
        -0.7876038,
        -0.298407227,
        -1.03226209,
        0.5854794,
        -0.150663137,
        0.08617249,
        -1.01387835,
        -0.6550227,
        -0.46481666,
        0.9176896,
        0.691616058,
        -0.39043,
        -0.673785269,
        0.870353937,
        -1.00166082,
        0.140755028,
        0.004184393,
        -0.4374332,
        0.06658176,
        -0.6724886,
        0.19461146,
        -0.197535366,
        0.139273539,
        -0.387763083,
        0.0302110352,
        -0.33735922,
        -0.2087742,
        -0.05334565,
        0.194668278,
        0.6245306,
        -0.903843045,
        -0.587893248,
        -0.456742048,
        0.108548224,
        -0.5478116,
        0.29887265,
        -0.887466,
        0.367425919,
        -0.359965682,
        0.362835944,
        0.103967495,
        0.389365971,
        1.34584975,
        -0.6637557,
        -0.006403016,
        0.0787334,
        0.433384359,
        -0.446141034,
        -0.123517424,
        -0.0284799915,
        -0.122515291,
        0.209971264,
        -0.1481135,
        -0.407089829,
        -0.414748639,
        0.221335813,
        -0.139233768,
        -0.255862147,
        -0.19741483,
        0.881522834,
        0.09487326,
        -0.3404882,
        0.3288921,
        -1.08271122,
        -0.0327530019,
        0.154684812,
        -0.3870587,
        0.597571135,
        0.228717074,
        -0.168089733,
        -0.4745211,
        -1.02609265,
        -0.5070039,
        0.558963239,
        -0.281130672,
        -0.684054136,
        0.387476742,
        -0.115218781,
        0.6405139,
        -0.517661,
        0.3071901,
        -0.845460355,
        0.85765636,
        -0.495047659,
        0.614051044,
        0.362582058,
        -0.421084255,
        0.1003046,
        -1.17612135,
        -0.816660345,
        0.443257958,
        -0.5169674,
        0.8753601,
        0.278970242,
        -0.7965018,
        0.3354485,
        -0.5338105,
        0.6450651,
        0.183722273,
        0.715183437,
        -1.260865,
        0.130638778,
        0.153741017,
        0.8058885,
        -0.179099366,
        0.3041086,
        -0.0256851036,
        -0.135972992,
        -0.203411028,
        0.964682937,
        0.278408974,
        -0.177626267,
        -1.84694886,
        -0.04115631,
        0.293830067,
        1.37810493,
        0.004699,
        -0.3527138,
        0.0809448659,
        0.124767371,
        0.108499072,
        -0.2645153,
        -0.3703695,
        0.7429935,
        0.009465752,
        -0.118613355,
        0.06128394,
        0.898193,
        -0.5823776,
        0.04365526,
        0.785213053,
        -0.257589817,
        -0.339059174,
        -0.325821042,
        -0.149057031,
        0.2410482,
        -0.18643339,
        -0.5182609,
        -0.465933949,
        -0.422502667,
        0.279369742,
        -0.2593556,
        0.274414182,
        -0.09967184,
        0.39574787,
        -0.240443379,
        0.06253275,
        -0.221132636,
        0.586793661,
        -0.0158056337,
        -0.131298453,
        0.501320958,
        0.50139606,
        0.1395129,
        -0.199521154,
        0.2520451,
        0.0143486513,
        -0.219001323,
        -0.7108047,
        0.4796702,
        0.9911678,
        0.0176828932,
        0.228901356,
        0.5455569,
        -0.1732438,
        0.250966042,
        0.277244419,
        -0.166423365,
        -0.540039361,
        0.631218135,
        0.129343182,
        0.471966147,
        0.431898683,
        -0.0296873078,
        0.21059531,
        -0.3116956,
        0.348467618,
        -0.009063404,
        -0.422513723,
        -0.511251569,
        -0.1353565,
        -0.207618073,
        -0.126020029,
        -0.121130146,
        0.421716779,
        0.101423346,
        0.7369249,
        -0.8892335,
        -0.106495567,
        -0.6194577,
        0.281293124,
        1.20425355,
        0.368121624,
        0.078919664,
        -0.29330045,
        -0.578261,
        -0.0850373,
        0.3669707,
        0.16574356,
        -1.27419543,
        -0.467662036,
        0.2977018,
        -0.4726192,
        0.284208238,
        -0.572081447,
        0.351593733,
        0.320581168,
        0.369903773,
        0.841192245,
        -0.288923532,
        -0.238621518,
        0.118714213,
        0.272223264,
        -0.5742904,
        0.257790685,
        1.19802058,
        -0.531722546,
        0.933461,
        0.0924542248,
        0.256955624,
        -0.2426479,
        -0.215691775,
        0.312919229,
        0.129176542,
        0.372393072,
        0.267828763,
        -0.02995753,
        -0.477992058,
        -0.484601885,
        -0.0245528575,
        -0.284490436,
        0.06506679,
        -0.375297427,
        0.27881965,
        0.0985863656,
        -0.757626057,
        -0.171422422,
        -0.360406,
        -0.39594838,
        0.7490587,
        -0.3066595,
        -0.0228622351,
        0.4760502,
        0.7112448,
        -0.766433954,
        -0.8521378,
        0.8403489,
        -0.634702,
        0.797090054,
        0.678943,
        -1.1916697,
        0.343742162,
        -0.289593279,
        -0.06568458,
        0.394711852,
        -0.206780747,
        -0.09184741,
        0.0596094765,
        0.0807287544,
        0.000860939268,
        0.0891341045,
        0.263387978,
        -0.555594265,
        -1.034357,
        0.9449863,
        0.9230783,
        -0.0269135348,
        -0.07420138,
        0.07375365,
        -0.08697011,
        0.289742947,
        -0.6625076,
        0.0596125536,
        -0.605555356,
        0.174232319,
        0.6000702,
        0.0794212446,
        0.8338818,
        -1.01849234,
        -0.9199517,
        -0.314642,
        0.005098239,
        -0.06551743,
        0.8118272,
        0.325898319,
        -0.1772478,
        -0.5704306,
        1.56290043E-05,
        0.7575952,
        0.294163674,
        -1.27801538,
        0.3098748,
        -0.227207825,
        -0.0123958159,
        -0.7334407,
        -0.4184664,
        0.07599977,
        0.188327372,
        0.6042604,
        0.245164886,
        -0.5082278,
        -0.171096563,
        0.274589837,
        -0.7838222,
        -0.253329068,
        -0.0342830233,
        -0.276145756,
        0.8991231,
        -0.07924321,
        -0.908117652,
        -0.206044123,
        0.44898355,
        -0.664675,
        -0.176554173,
        -0.06446775,
        0.0304797385,
        0.302054554,
        -0.242087588,
        0.660898149,
        -0.197935671,
        -0.535251856,
        0.162354872,
        0.657490432,
        0.234001517,
        -0.09460362,
        -0.407724142,
        -0.642897546,
        0.7839709,
        0.9152079,
        -0.13388291,
        0.179683641,
        0.636081755,
        0.18770349,
        -0.06510552,
        1.07524681,
        -0.0567980669,
        0.6748639,
        -0.102523953,
        -0.4083786,
        -0.4296944,
        -0.218651,
        0.6494746,
        0.226045161,
        0.858742952,
        -0.132139027,
        -1.03022,
        -0.601834238,
        0.812237442,
        -0.5415139,
        -0.6465499,
        0.174194843,
        0.167682663,
        0.8120219,
        -0.5882331,
        0.006327055,
        0.125987336,
        -0.8426326,
        -0.009872538,
        -0.25527668,
        0.5017146,
        -0.00242978963,
        -0.32478556,
        -0.641127,
        0.05542601,
        0.457977474,
        -1.38632357,
        0.110344395,
        0.4852284,
        -0.332300663,
        0.214345321,
        -0.301281124,
        0.7059932,
        -0.6251876,
        -0.8849471,
        -0.5086205,
        -0.000362231833,
        0.02203593,
        -0.32001096,
        -0.153839231,
        -0.662198,
        0.4091049,
        -1.17613888,
        0.9470708,
        -0.353161454,
        -0.372529,
        0.09289383,
        0.0175587,
        0.08843398,
        -0.320228517,
        0.299321532,
        -0.2398345,
        -0.471750528,
        -0.0337901935,
        -0.0597556755,
        -0.2912292,
        0.38139236,
        -1.14795089,
        -0.6989642,
        0.92695874,
        -0.3859759,
        -0.143014818,
        0.008036098,
        -0.212788865,
        -0.245480567,
        0.123557828,
        -0.4133417,
        -0.2763512,
        1.17436934,
        -0.759973347,
        -0.5609175,
        0.404929578,
        0.4758579,
        0.187557369,
        0.655058,
        0.1042324,
        -0.101541363,
        0.335927635,
        -0.563021839,
        0.056497924,
        -0.517589,
        0.245742664,
        0.129191667,
        -1.49743009,
        -0.161703855,
        -0.3998376,
        0.486358464,
        0.413276523,
        0.246419027,
        0.1432786,
        -0.08515742,
        -0.407377571,
        0.849053741,
        0.5171672,
        0.380413979,
        -0.1596322,
        0.712496758,
        -0.2879914,
        0.5170863,
        -0.407119334,
        0.0783694461,
        0.863598168,
        -0.0165016074,
        -0.07919213,
        -0.182348251,
        -0.316608,
        -0.109968528,
        0.451715827,
        0.226653621,
        0.475554168,
        0.168761745,
        -1.51680076,
        0.6878898,
        0.106249325,
        0.116441578,
        0.323173553,
        -0.50353986,
        1.0257256,
        -1.09822512,
        -0.34513545,
        0.34900406,
        0.7385809,
        -0.254390329,
        1.01704907,
        0.5794081,
        -0.277042717,
        -0.873135149,
        0.281384438,
        -0.09050139,
        -0.770207763,
        0.34553802,
        0.487505943,
        0.526414037,
        0.368652284,
        -0.06850633,
        -0.562511861,
        -0.8601803,
        -0.3059178,
        -0.155738786,
        -0.133487776,
        0.07790731,
        -1.21549726,
        0.09710215,
        -1.2489512,
        0.405674934,
        0.5783093,
        0.5438633,
        -0.333775878,
        0.6706155,
        0.133894175,
        -0.723602,
        0.403045535,
        0.489842951,
        1.144202,
        0.410912216,
        -0.5287854,
        0.7400855,
        0.44740352,
        0.239641562,
        -0.48729974,
        0.709918,
        -0.7616237,
        -1.0072335,
        -0.9166839,
        -0.0558035038,
        0.380161345,
        -1.32358539,
        -0.6529208,
        -0.0148845688,
        -1.13387024,
        0.211609438,
        -0.0920361653,
        -0.345094,
        0.203854248,
        -0.364354372,
        -0.229805455,
        -0.4282252,
        1.1423775,
        -0.219905019,
        0.185819775,
        0.5132243,
        -0.705127835,
        -0.17077449,
        0.5987791,
        -0.478162467,
        -0.124283351,
        -0.879250467,
        -0.0714020655,
        -0.5372184,
        -0.171933383,
        0.0272347312,
        -1.12195826,
        -0.5973479,
        -0.08711286,
        0.018670151,
        -0.4210589,
        0.109947383,
        -0.318828821,
        0.0139433555,
        0.02732482,
        0.5445361,
        0.3199669,
        -0.278131336,
        0.657361031,
        0.7296277,
        -0.4856972,
        -0.149796516,
        -0.663176954,
        -0.209837914,
        0.5136349,
        0.495506346,
        -0.215822682,
        -0.371244341,
        0.2638032,
        -0.0232484881,
        0.264740735,
        0.09855782,
        -0.128165364,
        -0.09195475,
        -0.386927158,
        0.05889557,
        -0.08757176,
        0.396839648,
        0.301247269,
        -0.607847631,
        -0.950098932,
        0.0590248257,
        -1.37171018,
        0.561001,
        0.263583779,
        -0.348826528,
        -0.483645767,
        -1.763666,
        -0.05566541,
        0.0920178741,
        0.049055323,
        -0.4978803,
        0.2577772,
        0.841655433,
        0.308959067,
        -0.550988436,
        -0.877607,
        -0.429666281,
        0.0210860353,
        -0.267998874,
        0.8316796,
        -0.852231741,
        0.136728272,
        -0.22581926,
        -0.4539434,
        0.0205919556,
        0.169544771,
        -0.106783234,
        1.37392712,
        0.147540018,
        -0.163390592,
        0.106519327,
        -1.68353844,
        -0.4155161,
        0.41209203,
        0.4363902,
        -0.353071362,
        0.167592123,
        -0.1572902,
        0.782796144,
        0.4074779,
        0.436834455,
        -0.86444664,
        -0.322226852,
        -0.368808061,
        -0.511506438,
        0.386539578,
        -0.5146123,
        -1.09029627,
        -0.25275,
        0.02143685,
        1.15352345,
        -0.645375848,
        0.212402016,
        0.6296463,
        0.271035,
        -0.1490811,
        -0.06205258,
        0.10925331,
        0.582355,
        0.494399846,
        -0.297760636,
        0.18073602,
        0.680795848,
        0.4691498,
        0.0345403552,
        0.5910988,
        -0.969942153,
        0.0282138679,
        -0.7313222,
        1.05095649,
        0.4212362,
        0.287018031,
        -0.671500564,
        0.45051977,
        0.216528431,
        0.5388126,
        -0.426169366,
        -0.697811067,
        0.5572067,
        -0.6604616,
        0.263647169,
        -0.33769998,
        -0.195988327,
        0.430711865,
        -0.322674632,
        0.0435996465,
        0.522254765,
        0.771372437,
        -0.0161279682,
        0.480763257,
        -0.106555857,
        0.193478167,
        -0.0222017113,
        -0.536877751,
        -0.17325896,
        -0.208229214,
        0.4376364,
        0.641465843,
        -0.436730325,
        -0.302221835,
        -0.679807365,
        0.150527641,
        -0.09254172,
        0.42929256,
        -0.08955377,
        -0.155929863,
        -0.5351114,
        0.0714136958,
        -0.34720397,
        -0.8297576,
        -0.339271516,
        0.1834459,
        -0.101677477,
        -0.458352238,
        0.269156724,
        0.498201221,
        -0.248158336,
        -0.00965456,
        0.738917232,
        0.5337846,
        -0.618403256,
        1.31915307,
        0.120441154,
        -0.07030828,
        -0.367585838,
        -0.08260558,
        0.4333737,
        0.5868858,
        0.4364656,
        0.664943,
        -0.139894888,
        0.847831964,
        0.345509022,
        -0.255629867,
        -0.06353054,
        0.215232924,
        -0.7774662,
        -0.125739276,
        0.298203528,
        -0.5929036,
        -0.208757892,
        -1.069505,
        -0.665671647,
        0.2873308,
        -0.4261845,
        -0.0449917838,
        0.06376797,
        0.41776517,
        -0.854403436,
        0.323417217,
        0.4875324,
        -0.06679382,
        -0.434478939,
        -0.540451944,
        0.6525891,
        0.230954617,
        0.416580319,
        -0.3669042,
        -0.03577091,
        0.8862469,
        1.04828715,
        1.00868261,
        -0.377291143,
        0.528754532,
        0.301400661,
        0.250947237,
        -0.4220084,
        -0.463728845,
        -0.423585057,
        0.9814981,
        0.164339066,
        0.4440757,
        -0.0239877421,
        1.1481607,
        0.06686473,
        0.0233642962,
        -0.5347222,
        1.0839144,
        -0.03795699,
        -0.148273319,
        -0.0179910511,
        -0.614681959,
        0.2667462,
        0.5161298,
        -0.108397633,
        0.264711529,
        1.167031,
        -0.176104382,
        0.5969903,
        -0.195442289,
        -0.362633854,
        -0.3527794,
        -0.948407769,
        0.778012931,
        -0.8546224,
        0.08509522,
        -0.115172833,
        0.378046572,
        0.6354454,
        -0.514486551,
        0.21436207,
        -0.285443753,
        0.5463396,
        -1.0759927,
        -0.738986254,
        0.9665415,
        1.21150529,
        0.0364604071,
        0.5122219,
        0.197843254,
        -0.7209345,
        0.142225713,
        0.0524515919,
        0.799685359,
        -0.10541369,
        -0.08116758,
        0.511478,
        -0.412843764,
        0.3112132,
        -0.06892223,
        1.772784,
        0.132830009,
        -0.8868027,
        0.214874446,
        0.436639875,
        -0.3265043,
        -0.366867274,
        -0.829159558,
        0.200744539,
        -0.144084677,
        -0.250650078,
        0.9957755,
        0.5429017,
        0.3974658,
        0.415166855,
        -0.144785956,
        0.185593218,
        -0.2771702,
        -0.539976239,
        -0.4243809,
        -0.4701389,
        -0.9990279,
        0.708051741,
        -0.17286548,
        -0.0150717655,
        0.198670864,
        0.7163649,
        -0.0812210962,
        -0.9293699,
        0.241067424,
        0.1852205,
        -0.15120171,
        -0.2532044,
        0.65768224,
        0.119386628,
        -0.9969059,
        0.6117734,
        -0.591734231,
        0.0511241332,
        0.134541631,
        1.12670851,
        0.284072846,
        1.00980711,
        -0.168983236,
        -0.295095354,
        0.235458657,
        0.218040958,
        -0.14277336,
        -0.314405233,
        0.356269777,
        0.4557424,
        0.227873,
        -0.6343,
        0.364108562,
        0.0417136736,
        0.06030198,
        -1.13868642,
        -0.122757524,
        0.7049739,
        0.325918734,
        0.120808348,
        -0.4235442,
        -0.540199339,
        -0.582184,
        -0.663521,
        0.723846436,
        -0.6057409,
        0.214944512,
        -1.43317974,
        0.0241441764,
        0.9433308,
        -0.28362003,
        0.4755994,
        -1.06421745,
        0.730843544,
        0.253556371,
        -0.09502323,
        0.103109717,
        0.05344311,
        0.2320959,
        -0.511758864,
        -0.5143602,
        -0.157615542,
        -0.377842456,
        -0.378143549,
        0.354333222,
        0.2866368,
        -0.8846151,
        -0.3728352,
        -0.0063400194,
        0.2105799,
        -0.0234200433,
        0.36826694,
        0.0491510332,
        -0.221536472,
        1.00976312,
        0.687217236,
        -0.511551261,
        0.9466746,
        0.274147719,
        -0.470810473,
        1.09564471,
        0.280498177,
        0.319431573,
        -0.22033003,
        0.23726061,
        -0.622600257,
        -0.184083313,
        -0.703545332,
        -0.402537316,
        -0.260919064,
        0.7002942,
        -0.5831171,
        -0.73863703,
        -0.188680515,
        0.6287471,
        0.561373055,
        -0.9861539,
        -0.197970584,
        -0.290219426,
        0.768253,
        0.141444549,
        0.243943945,
        0.4095194,
        -0.05353791,
        0.270770818,
        0.9229746,
        0.356608272,
        -0.602520049,
        0.607488,
        -0.0238544159,
        -0.98880893,
        0.401825517,
        -0.157185063,
        0.308305234,
        -0.478967816,
        -0.233907044,
        -0.950838149,
        0.0217067935,
        -0.338148475,
        0.79139185,
        0.6738131,
        -0.519349635,
        -0.335358,
        -0.807202041,
        0.9162401,
        -0.390723228,
        0.09218007,
        0.441046953,
        0.0567451157,
        1.2658242,
        -0.387909025,
        0.3170219,
        0.3824684,
        0.229661256,
        0.985528648,
        0.864759445,
        0.3353728,
        -1.3188802,
        0.681892455,
        -0.311168432,
        1.0003252,
        0.304280341,
        0.479804724,
        -0.06523413,
        -0.6853572,
        -0.478959084,
        -0.355148256,
        0.534888148,
        0.445759177,
        -0.4925948,
        -0.0261845589,
        -0.5577777,
        -0.413424015,
        0.7074686,
        -0.296713769,
        0.8042676,
        1.08463955,
        0.265267581,
        -0.462185085,
        -1.29404569,
        -0.00621310249,
        -0.461253047,
        0.0194215775,
        1.04094267,
        1.24819028,
        0.78850317,
        -0.385965973,
        0.02606351,
        0.02305602,
        -1.72439981,
        -0.232039124,
        -0.8774061,
        0.112832867,
        1.15611541,
        -0.4866327,
        0.135027364,
        -0.4913971,
        -0.6425956,
        -0.276323318,
        0.234726027,
        -0.541124,
        -0.5931987,
        0.166078269,
        -0.5849694,
        -0.9227294,
        -0.5620834,
        0.154920146,
        0.276455522,
        0.837660849,
        0.0332615972,
        -0.02178376,
        -0.843524754,
        0.4212319,
        -0.427669376,
        -0.9309809,
        -0.519106,
        -0.05579193,
        0.267493665,
        0.401235282,
        -0.425967455,
        -0.04681573,
        0.802988231,
        0.178478971,
        0.4840932,
        0.563519239,
        -0.334353179,
        0.0585191846,
        0.0554968268,
        -0.9568694,
        -0.7123792,
        -0.3581613,
        -0.5054386,
        0.640453756,
        -0.206466213,
        -0.718144834,
        0.03817453,
        -0.2997182,
        -0.941483736,
        -0.952905834,
        -0.39782694,
        0.0513655841,
